digraph Tree {
node [shape=box, style="filled, rounded", color="black", fontname="helvetica"] ;
edge [fontname="helvetica"] ;
0 [label="Height <= 0.81\nentropy = 1.582\nsamples = 3341\nvalue = [1065, 1060, 1216]\nclass = I", fillcolor="#f7f2fd"] ;
1 [label="ShellWeight <= 8.5\nentropy = 1.414\nsamples = 1688\nvalue = [317, 958, 413]\nclass = F", fillcolor="#aaf4c9"] ;
0 -> 1 [labeldistance=2.5, labelangle=45, headlabel="True"] ;
2 [label="VisceraWeight <= 0.126\nentropy = 1.076\nsamples = 983\nvalue = [88, 724, 171]\nclass = F", fillcolor="#78eda9"] ;
1 -> 2 ;
3 [label="Height <= 0.139\nentropy = 0.767\nsamples = 652\nvalue = [28, 548, 76]\nclass = F", fillcolor="#5dea98"] ;
2 -> 3 ;
4 [label="ShellWeight <= 6.5\nentropy = 0.629\nsamples = 187\nvalue = [1, 160, 26]\nclass = F", fillcolor="#5ae996"] ;
3 -> 4 ;
5 [label="WholeWeight <= 0.047\nentropy = 0.542\nsamples = 160\nvalue = [1, 142, 17]\nclass = F", fillcolor="#52e891"] ;
4 -> 5 ;
6 [label="Type <= 0.257\nentropy = 0.636\nsamples = 126\nvalue = [1, 108, 17]\nclass = F", fillcolor="#5ae996"] ;
5 -> 6 ;
7 [label="ShuckedWeight <= 0.014\nentropy = 0.496\nsamples = 92\nvalue = [0, 82, 10]\nclass = F", fillcolor="#51e890"] ;
6 -> 7 ;
8 [label="VisceraWeight <= 0.025\nentropy = 0.608\nsamples = 67\nvalue = [0, 57, 10]\nclass = F", fillcolor="#5cea97"] ;
7 -> 8 ;
9 [label="VisceraWeight <= 0.012\nentropy = 0.575\nsamples = 66\nvalue = [0, 57, 9]\nclass = F", fillcolor="#58e995"] ;
8 -> 9 ;
10 [label="Diameter <= 0.037\nentropy = 0.732\nsamples = 39\nvalue = [0, 31, 8]\nclass = F", fillcolor="#6ceca2"] ;
9 -> 10 ;
11 [label="ShellWeight <= 4.5\nentropy = 0.323\nsamples = 17\nvalue = [0, 16, 1]\nclass = F", fillcolor="#45e789"] ;
10 -> 11 ;
12 [label="entropy = 0.0\nsamples = 14\nvalue = [0, 14, 0]\nclass = F", fillcolor="#39e581"] ;
11 -> 12 ;
13 [label="LongestShell <= 0.117\nentropy = 0.918\nsamples = 3\nvalue = [0, 2, 1]\nclass = F", fillcolor="#9cf2c0"] ;
11 -> 13 ;
14 [label="entropy = 0.0\nsamples = 1\nvalue = [0, 0, 1]\nclass = I", fillcolor="#8139e5"] ;
13 -> 14 ;
15 [label="entropy = 0.0\nsamples = 2\nvalue = [0, 2, 0]\nclass = F", fillcolor="#39e581"] ;
13 -> 15 ;
16 [label="WholeWeight <= 0.012\nentropy = 0.902\nsamples = 22\nvalue = [0, 15, 7]\nclass = F", fillcolor="#95f1bc"] ;
10 -> 16 ;
17 [label="Diameter <= 0.043\nentropy = 1.0\nsamples = 10\nvalue = [0, 5, 5]\nclass = F", fillcolor="#ffffff"] ;
16 -> 17 ;
18 [label="ShuckedWeight <= 0.008\nentropy = 0.722\nsamples = 5\nvalue = [0, 1, 4]\nclass = I", fillcolor="#a06aec"] ;
17 -> 18 ;
19 [label="entropy = 0.0\nsamples = 4\nvalue = [0, 0, 4]\nclass = I", fillcolor="#8139e5"] ;
18 -> 19 ;
20 [label="entropy = 0.0\nsamples = 1\nvalue = [0, 1, 0]\nclass = F", fillcolor="#39e581"] ;
18 -> 20 ;
21 [label="ShuckedWeight <= 0.007\nentropy = 0.722\nsamples = 5\nvalue = [0, 4, 1]\nclass = F", fillcolor="#6aeca0"] ;
17 -> 21 ;
22 [label="entropy = 0.0\nsamples = 4\nvalue = [0, 4, 0]\nclass = F", fillcolor="#39e581"] ;
21 -> 22 ;
23 [label="entropy = 0.0\nsamples = 1\nvalue = [0, 0, 1]\nclass = I", fillcolor="#8139e5"] ;
21 -> 23 ;
24 [label="Type <= 0.197\nentropy = 0.65\nsamples = 12\nvalue = [0, 10, 2]\nclass = F", fillcolor="#61ea9a"] ;
16 -> 24 ;
25 [label="entropy = 0.0\nsamples = 7\nvalue = [0, 7, 0]\nclass = F", fillcolor="#39e581"] ;
24 -> 25 ;
26 [label="WholeWeight <= 0.014\nentropy = 0.971\nsamples = 5\nvalue = [0, 3, 2]\nclass = F", fillcolor="#bdf6d5"] ;
24 -> 26 ;
27 [label="entropy = 0.0\nsamples = 2\nvalue = [0, 2, 0]\nclass = F", fillcolor="#39e581"] ;
26 -> 27 ;
28 [label="Height <= 0.041\nentropy = 0.918\nsamples = 3\nvalue = [0, 1, 2]\nclass = I", fillcolor="#c09cf2"] ;
26 -> 28 ;
29 [label="entropy = 0.0\nsamples = 2\nvalue = [0, 0, 2]\nclass = I", fillcolor="#8139e5"] ;
28 -> 29 ;
30 [label="entropy = 0.0\nsamples = 1\nvalue = [0, 1, 0]\nclass = F", fillcolor="#39e581"] ;
28 -> 30 ;
31 [label="Type <= 0.242\nentropy = 0.229\nsamples = 27\nvalue = [0, 26, 1]\nclass = F", fillcolor="#41e686"] ;
9 -> 31 ;
32 [label="entropy = 0.0\nsamples = 23\nvalue = [0, 23, 0]\nclass = F", fillcolor="#39e581"] ;
31 -> 32 ;
33 [label="WholeWeight <= 0.026\nentropy = 0.811\nsamples = 4\nvalue = [0, 3, 1]\nclass = F", fillcolor="#7beeab"] ;
31 -> 33 ;
34 [label="entropy = 0.0\nsamples = 1\nvalue = [0, 0, 1]\nclass = I", fillcolor="#8139e5"] ;
33 -> 34 ;
35 [label="entropy = 0.0\nsamples = 3\nvalue = [0, 3, 0]\nclass = F", fillcolor="#39e581"] ;
33 -> 35 ;
36 [label="entropy = 0.0\nsamples = 1\nvalue = [0, 0, 1]\nclass = I", fillcolor="#8139e5"] ;
8 -> 36 ;
37 [label="entropy = 0.0\nsamples = 25\nvalue = [0, 25, 0]\nclass = F", fillcolor="#39e581"] ;
7 -> 37 ;
38 [label="VisceraWeight <= 0.025\nentropy = 0.915\nsamples = 34\nvalue = [1, 26, 7]\nclass = F", fillcolor="#74eda6"] ;
6 -> 38 ;
39 [label="entropy = 0.0\nsamples = 1\nvalue = [1, 0, 0]\nclass = M", fillcolor="#e58139"] ;
38 -> 39 ;
40 [label="ShuckedWeight <= 0.02\nentropy = 0.746\nsamples = 33\nvalue = [0, 26, 7]\nclass = F", fillcolor="#6eeca3"] ;
38 -> 40 ;
41 [label="WholeWeight <= 0.036\nentropy = 0.971\nsamples = 5\nvalue = [0, 2, 3]\nclass = I", fillcolor="#d5bdf6"] ;
40 -> 41 ;
42 [label="entropy = 0.0\nsamples = 2\nvalue = [0, 0, 2]\nclass = I", fillcolor="#8139e5"] ;
41 -> 42 ;
43 [label="Diameter <= 0.075\nentropy = 0.918\nsamples = 3\nvalue = [0, 2, 1]\nclass = F", fillcolor="#9cf2c0"] ;
41 -> 43 ;
44 [label="entropy = 0.0\nsamples = 2\nvalue = [0, 2, 0]\nclass = F", fillcolor="#39e581"] ;
43 -> 44 ;
45 [label="entropy = 0.0\nsamples = 1\nvalue = [0, 0, 1]\nclass = I", fillcolor="#8139e5"] ;
43 -> 45 ;
46 [label="Diameter <= 0.073\nentropy = 0.592\nsamples = 28\nvalue = [0, 24, 4]\nclass = F", fillcolor="#5ae996"] ;
40 -> 46 ;
47 [label="Type <= 0.262\nentropy = 0.286\nsamples = 20\nvalue = [0, 19, 1]\nclass = F", fillcolor="#43e688"] ;
46 -> 47 ;
48 [label="entropy = 0.0\nsamples = 1\nvalue = [0, 0, 1]\nclass = I", fillcolor="#8139e5"] ;
47 -> 48 ;
49 [label="entropy = 0.0\nsamples = 19\nvalue = [0, 19, 0]\nclass = F", fillcolor="#39e581"] ;
47 -> 49 ;
50 [label="ShuckedWeight <= 0.028\nentropy = 0.954\nsamples = 8\nvalue = [0, 5, 3]\nclass = F", fillcolor="#b0f5cd"] ;
46 -> 50 ;
51 [label="LongestShell <= 0.205\nentropy = 0.971\nsamples = 5\nvalue = [0, 2, 3]\nclass = I", fillcolor="#d5bdf6"] ;
50 -> 51 ;
52 [label="entropy = 0.0\nsamples = 2\nvalue = [0, 0, 2]\nclass = I", fillcolor="#8139e5"] ;
51 -> 52 ;
53 [label="Type <= 0.282\nentropy = 0.918\nsamples = 3\nvalue = [0, 2, 1]\nclass = F", fillcolor="#9cf2c0"] ;
51 -> 53 ;
54 [label="entropy = 0.0\nsamples = 2\nvalue = [0, 2, 0]\nclass = F", fillcolor="#39e581"] ;
53 -> 54 ;
55 [label="entropy = 0.0\nsamples = 1\nvalue = [0, 0, 1]\nclass = I", fillcolor="#8139e5"] ;
53 -> 55 ;
56 [label="entropy = 0.0\nsamples = 3\nvalue = [0, 3, 0]\nclass = F", fillcolor="#39e581"] ;
50 -> 56 ;
57 [label="entropy = 0.0\nsamples = 34\nvalue = [0, 34, 0]\nclass = F", fillcolor="#39e581"] ;
5 -> 57 ;
58 [label="Type <= 0.312\nentropy = 0.918\nsamples = 27\nvalue = [0, 18, 9]\nclass = F", fillcolor="#9cf2c0"] ;
4 -> 58 ;
59 [label="Height <= 0.116\nentropy = 0.985\nsamples = 21\nvalue = [0, 12, 9]\nclass = F", fillcolor="#cef8e0"] ;
58 -> 59 ;
60 [label="ShuckedWeight <= 0.012\nentropy = 0.837\nsamples = 15\nvalue = [0, 11, 4]\nclass = F", fillcolor="#81eeaf"] ;
59 -> 60 ;
61 [label="entropy = 0.0\nsamples = 2\nvalue = [0, 0, 2]\nclass = I", fillcolor="#8139e5"] ;
60 -> 61 ;
62 [label="Height <= 0.105\nentropy = 0.619\nsamples = 13\nvalue = [0, 11, 2]\nclass = F", fillcolor="#5dea98"] ;
60 -> 62 ;
63 [label="entropy = 0.0\nsamples = 8\nvalue = [0, 8, 0]\nclass = F", fillcolor="#39e581"] ;
62 -> 63 ;
64 [label="Height <= 0.109\nentropy = 0.971\nsamples = 5\nvalue = [0, 3, 2]\nclass = F", fillcolor="#bdf6d5"] ;
62 -> 64 ;
65 [label="entropy = 0.0\nsamples = 2\nvalue = [0, 0, 2]\nclass = I", fillcolor="#8139e5"] ;
64 -> 65 ;
66 [label="entropy = 0.0\nsamples = 3\nvalue = [0, 3, 0]\nclass = F", fillcolor="#39e581"] ;
64 -> 66 ;
67 [label="WholeWeight <= 0.056\nentropy = 0.65\nsamples = 6\nvalue = [0, 1, 5]\nclass = I", fillcolor="#9a61ea"] ;
59 -> 67 ;
68 [label="entropy = 0.0\nsamples = 5\nvalue = [0, 0, 5]\nclass = I", fillcolor="#8139e5"] ;
67 -> 68 ;
69 [label="entropy = 0.0\nsamples = 1\nvalue = [0, 1, 0]\nclass = F", fillcolor="#39e581"] ;
67 -> 69 ;
70 [label="entropy = 0.0\nsamples = 6\nvalue = [0, 6, 0]\nclass = F", fillcolor="#39e581"] ;
58 -> 70 ;
71 [label="ShuckedWeight <= 0.024\nentropy = 0.802\nsamples = 465\nvalue = [27, 388, 50]\nclass = F", fillcolor="#5eea98"] ;
3 -> 71 ;
72 [label="entropy = 0.0\nsamples = 2\nvalue = [2, 0, 0]\nclass = M", fillcolor="#e58139"] ;
71 -> 72 ;
73 [label="WholeWeight <= 0.193\nentropy = 0.788\nsamples = 463\nvalue = [25, 388, 50]\nclass = F", fillcolor="#5dea98"] ;
71 -> 73 ;
74 [label="ShuckedWeight <= 0.095\nentropy = 0.774\nsamples = 411\nvalue = [25, 347, 39]\nclass = F", fillcolor="#5be997"] ;
73 -> 74 ;
75 [label="WholeWeight <= 0.173\nentropy = 0.751\nsamples = 399\nvalue = [21, 339, 39]\nclass = F", fillcolor="#5ae996"] ;
74 -> 75 ;
76 [label="Diameter <= 0.122\nentropy = 0.791\nsamples = 370\nvalue = [21, 310, 39]\nclass = F", fillcolor="#5dea98"] ;
75 -> 76 ;
77 [label="Type <= 0.387\nentropy = 0.771\nsamples = 361\nvalue = [18, 304, 39]\nclass = F", fillcolor="#5cea97"] ;
76 -> 77 ;
78 [label="VisceraWeight <= 0.091\nentropy = 0.886\nsamples = 220\nvalue = [16, 178, 26]\nclass = F", fillcolor="#64eb9c"] ;
77 -> 78 ;
79 [label="WholeWeight <= 0.107\nentropy = 0.821\nsamples = 212\nvalue = [14, 176, 22]\nclass = F", fillcolor="#5fea99"] ;
78 -> 79 ;
80 [label="VisceraWeight <= 0.069\nentropy = 0.85\nsamples = 175\nvalue = [10, 143, 22]\nclass = F", fillcolor="#62ea9b"] ;
79 -> 80 ;
81 [label="ShuckedWeight <= 0.033\nentropy = 0.69\nsamples = 122\nvalue = [7, 106, 9]\nclass = F", fillcolor="#55e993"] ;
80 -> 81 ;
82 [label="entropy = 0.0\nsamples = 25\nvalue = [0, 25, 0]\nclass = F", fillcolor="#39e581"] ;
81 -> 82 ;
83 [label="Type <= 0.352\nentropy = 0.809\nsamples = 97\nvalue = [7, 81, 9]\nclass = F", fillcolor="#5dea98"] ;
81 -> 83 ;
84 [label="ShellWeight <= 5.5\nentropy = 0.985\nsamples = 67\nvalue = [6, 52, 9]\nclass = F", fillcolor="#6ceca2"] ;
83 -> 84 ;
85 [label="entropy = 0.0\nsamples = 10\nvalue = [0, 10, 0]\nclass = F", fillcolor="#39e581"] ;
84 -> 85 ;
86 [label="LongestShell <= 0.222\nentropy = 1.087\nsamples = 57\nvalue = [6, 42, 9]\nclass = F", fillcolor="#77eda8"] ;
84 -> 86 ;
87 [label="WholeWeight <= 0.068\nentropy = 1.0\nsamples = 2\nvalue = [1, 0, 1]\nclass = M", fillcolor="#ffffff"] ;
86 -> 87 ;
88 [label="entropy = 0.0\nsamples = 1\nvalue = [0, 0, 1]\nclass = I", fillcolor="#8139e5"] ;
87 -> 88 ;
89 [label="entropy = 0.0\nsamples = 1\nvalue = [1, 0, 0]\nclass = M", fillcolor="#e58139"] ;
87 -> 89 ;
90 [label="Type <= 0.308\nentropy = 1.016\nsamples = 55\nvalue = [5, 42, 8]\nclass = F", fillcolor="#70eca4"] ;
86 -> 90 ;
91 [label="Diameter <= 0.085\nentropy = 1.5\nsamples = 4\nvalue = [2, 1, 1]\nclass = M", fillcolor="#f6d5bd"] ;
90 -> 91 ;
92 [label="entropy = 0.0\nsamples = 2\nvalue = [2, 0, 0]\nclass = M", fillcolor="#e58139"] ;
91 -> 92 ;
93 [label="VisceraWeight <= 0.046\nentropy = 1.0\nsamples = 2\nvalue = [0, 1, 1]\nclass = F", fillcolor="#ffffff"] ;
91 -> 93 ;
94 [label="entropy = 0.0\nsamples = 1\nvalue = [0, 1, 0]\nclass = F", fillcolor="#39e581"] ;
93 -> 94 ;
95 [label="entropy = 0.0\nsamples = 1\nvalue = [0, 0, 1]\nclass = I", fillcolor="#8139e5"] ;
93 -> 95 ;
96 [label="Diameter <= 0.088\nentropy = 0.887\nsamples = 51\nvalue = [3, 41, 7]\nclass = F", fillcolor="#66eb9e"] ;
90 -> 96 ;
97 [label="ShuckedWeight <= 0.039\nentropy = 0.544\nsamples = 32\nvalue = [0, 28, 4]\nclass = F", fillcolor="#55e993"] ;
96 -> 97 ;
98 [label="ShellWeight <= 7.5\nentropy = 0.764\nsamples = 18\nvalue = [0, 14, 4]\nclass = F", fillcolor="#72eca5"] ;
97 -> 98 ;
99 [label="LongestShell <= 0.242\nentropy = 0.672\nsamples = 17\nvalue = [0, 14, 3]\nclass = F", fillcolor="#63eb9c"] ;
98 -> 99 ;
100 [label="Diameter <= 0.078\nentropy = 0.954\nsamples = 8\nvalue = [0, 5, 3]\nclass = F", fillcolor="#b0f5cd"] ;
99 -> 100 ;
101 [label="entropy = 0.0\nsamples = 4\nvalue = [0, 4, 0]\nclass = F", fillcolor="#39e581"] ;
100 -> 101 ;
102 [label="LongestShell <= 0.233\nentropy = 0.811\nsamples = 4\nvalue = [0, 1, 3]\nclass = I", fillcolor="#ab7bee"] ;
100 -> 102 ;
103 [label="entropy = 0.0\nsamples = 1\nvalue = [0, 1, 0]\nclass = F", fillcolor="#39e581"] ;
102 -> 103 ;
104 [label="entropy = 0.0\nsamples = 3\nvalue = [0, 0, 3]\nclass = I", fillcolor="#8139e5"] ;
102 -> 104 ;
105 [label="entropy = 0.0\nsamples = 9\nvalue = [0, 9, 0]\nclass = F", fillcolor="#39e581"] ;
99 -> 105 ;
106 [label="entropy = 0.0\nsamples = 1\nvalue = [0, 0, 1]\nclass = I", fillcolor="#8139e5"] ;
98 -> 106 ;
107 [label="entropy = 0.0\nsamples = 14\nvalue = [0, 14, 0]\nclass = F", fillcolor="#39e581"] ;
97 -> 107 ;
108 [label="Height <= 0.185\nentropy = 1.216\nsamples = 19\nvalue = [3, 13, 3]\nclass = F", fillcolor="#83efb0"] ;
96 -> 108 ;
109 [label="Type <= 0.315\nentropy = 0.503\nsamples = 9\nvalue = [0, 8, 1]\nclass = F", fillcolor="#52e891"] ;
108 -> 109 ;
110 [label="entropy = 0.0\nsamples = 1\nvalue = [0, 0, 1]\nclass = I", fillcolor="#8139e5"] ;
109 -> 110 ;
111 [label="entropy = 0.0\nsamples = 8\nvalue = [0, 8, 0]\nclass = F", fillcolor="#39e581"] ;
109 -> 111 ;
112 [label="WholeWeight <= 0.086\nentropy = 1.485\nsamples = 10\nvalue = [3, 5, 2]\nclass = F", fillcolor="#c6f8db"] ;
108 -> 112 ;
113 [label="WholeWeight <= 0.074\nentropy = 1.371\nsamples = 5\nvalue = [3, 1, 1]\nclass = M", fillcolor="#f2c09c"] ;
112 -> 113 ;
114 [label="entropy = 0.0\nsamples = 1\nvalue = [0, 0, 1]\nclass = I", fillcolor="#8139e5"] ;
113 -> 114 ;
115 [label="LongestShell <= 0.267\nentropy = 0.811\nsamples = 4\nvalue = [3, 1, 0]\nclass = M", fillcolor="#eeab7b"] ;
113 -> 115 ;
116 [label="entropy = 0.0\nsamples = 3\nvalue = [3, 0, 0]\nclass = M", fillcolor="#e58139"] ;
115 -> 116 ;
117 [label="entropy = 0.0\nsamples = 1\nvalue = [0, 1, 0]\nclass = F", fillcolor="#39e581"] ;
115 -> 117 ;
118 [label="ShuckedWeight <= 0.057\nentropy = 0.722\nsamples = 5\nvalue = [0, 4, 1]\nclass = F", fillcolor="#6aeca0"] ;
112 -> 118 ;
119 [label="entropy = 0.0\nsamples = 4\nvalue = [0, 4, 0]\nclass = F", fillcolor="#39e581"] ;
118 -> 119 ;
120 [label="entropy = 0.0\nsamples = 1\nvalue = [0, 0, 1]\nclass = I", fillcolor="#8139e5"] ;
118 -> 120 ;
121 [label="Height <= 0.189\nentropy = 0.211\nsamples = 30\nvalue = [1, 29, 0]\nclass = F", fillcolor="#40e685"] ;
83 -> 121 ;
122 [label="ShellWeight <= 5.5\nentropy = 0.722\nsamples = 5\nvalue = [1, 4, 0]\nclass = F", fillcolor="#6aeca0"] ;
121 -> 122 ;
123 [label="entropy = 0.0\nsamples = 1\nvalue = [1, 0, 0]\nclass = M", fillcolor="#e58139"] ;
122 -> 123 ;
124 [label="entropy = 0.0\nsamples = 4\nvalue = [0, 4, 0]\nclass = F", fillcolor="#39e581"] ;
122 -> 124 ;
125 [label="entropy = 0.0\nsamples = 25\nvalue = [0, 25, 0]\nclass = F", fillcolor="#39e581"] ;
121 -> 125 ;
126 [label="LongestShell <= 0.282\nentropy = 1.094\nsamples = 53\nvalue = [3, 37, 13]\nclass = F", fillcolor="#88efb3"] ;
80 -> 126 ;
127 [label="Height <= 0.218\nentropy = 1.267\nsamples = 37\nvalue = [3, 22, 12]\nclass = F", fillcolor="#b0f5cd"] ;
126 -> 127 ;
128 [label="LongestShell <= 0.273\nentropy = 0.696\nsamples = 16\nvalue = [0, 13, 3]\nclass = F", fillcolor="#67eb9e"] ;
127 -> 128 ;
129 [label="ShuckedWeight <= 0.049\nentropy = 0.918\nsamples = 9\nvalue = [0, 6, 3]\nclass = F", fillcolor="#9cf2c0"] ;
128 -> 129 ;
130 [label="entropy = 0.0\nsamples = 4\nvalue = [0, 4, 0]\nclass = F", fillcolor="#39e581"] ;
129 -> 130 ;
131 [label="ShuckedWeight <= 0.054\nentropy = 0.971\nsamples = 5\nvalue = [0, 2, 3]\nclass = I", fillcolor="#d5bdf6"] ;
129 -> 131 ;
132 [label="entropy = 0.0\nsamples = 3\nvalue = [0, 0, 3]\nclass = I", fillcolor="#8139e5"] ;
131 -> 132 ;
133 [label="entropy = 0.0\nsamples = 2\nvalue = [0, 2, 0]\nclass = F", fillcolor="#39e581"] ;
131 -> 133 ;
134 [label="entropy = 0.0\nsamples = 7\nvalue = [0, 7, 0]\nclass = F", fillcolor="#39e581"] ;
128 -> 134 ;
135 [label="WholeWeight <= 0.087\nentropy = 1.449\nsamples = 21\nvalue = [3, 9, 9]\nclass = F", fillcolor="#ffffff"] ;
127 -> 135 ;
136 [label="entropy = 0.0\nsamples = 5\nvalue = [0, 0, 5]\nclass = I", fillcolor="#8139e5"] ;
135 -> 136 ;
137 [label="Height <= 0.251\nentropy = 1.42\nsamples = 16\nvalue = [3, 9, 4]\nclass = F", fillcolor="#acf4ca"] ;
135 -> 137 ;
138 [label="Type <= 0.368\nentropy = 1.14\nsamples = 13\nvalue = [3, 9, 1]\nclass = F", fillcolor="#88efb3"] ;
137 -> 138 ;
139 [label="WholeWeight <= 0.099\nentropy = 0.544\nsamples = 8\nvalue = [0, 7, 1]\nclass = F", fillcolor="#55e993"] ;
138 -> 139 ;
140 [label="entropy = 0.0\nsamples = 6\nvalue = [0, 6, 0]\nclass = F", fillcolor="#39e581"] ;
139 -> 140 ;
141 [label="Height <= 0.229\nentropy = 1.0\nsamples = 2\nvalue = [0, 1, 1]\nclass = F", fillcolor="#ffffff"] ;
139 -> 141 ;
142 [label="entropy = 0.0\nsamples = 1\nvalue = [0, 0, 1]\nclass = I", fillcolor="#8139e5"] ;
141 -> 142 ;
143 [label="entropy = 0.0\nsamples = 1\nvalue = [0, 1, 0]\nclass = F", fillcolor="#39e581"] ;
141 -> 143 ;
144 [label="ShellWeight <= 7.5\nentropy = 0.971\nsamples = 5\nvalue = [3, 2, 0]\nclass = M", fillcolor="#f6d5bd"] ;
138 -> 144 ;
145 [label="WholeWeight <= 0.099\nentropy = 0.918\nsamples = 3\nvalue = [1, 2, 0]\nclass = F", fillcolor="#9cf2c0"] ;
144 -> 145 ;
146 [label="entropy = 0.0\nsamples = 2\nvalue = [0, 2, 0]\nclass = F", fillcolor="#39e581"] ;
145 -> 146 ;
147 [label="entropy = 0.0\nsamples = 1\nvalue = [1, 0, 0]\nclass = M", fillcolor="#e58139"] ;
145 -> 147 ;
148 [label="entropy = 0.0\nsamples = 2\nvalue = [2, 0, 0]\nclass = M", fillcolor="#e58139"] ;
144 -> 148 ;
149 [label="entropy = 0.0\nsamples = 3\nvalue = [0, 0, 3]\nclass = I", fillcolor="#8139e5"] ;
137 -> 149 ;
150 [label="LongestShell <= 0.297\nentropy = 0.337\nsamples = 16\nvalue = [0, 15, 1]\nclass = F", fillcolor="#46e789"] ;
126 -> 150 ;
151 [label="entropy = 0.0\nsamples = 14\nvalue = [0, 14, 0]\nclass = F", fillcolor="#39e581"] ;
150 -> 151 ;
152 [label="ShuckedWeight <= 0.064\nentropy = 1.0\nsamples = 2\nvalue = [0, 1, 1]\nclass = F", fillcolor="#ffffff"] ;
150 -> 152 ;
153 [label="entropy = 0.0\nsamples = 1\nvalue = [0, 0, 1]\nclass = I", fillcolor="#8139e5"] ;
152 -> 153 ;
154 [label="entropy = 0.0\nsamples = 1\nvalue = [0, 1, 0]\nclass = F", fillcolor="#39e581"] ;
152 -> 154 ;
155 [label="Height <= 0.267\nentropy = 0.494\nsamples = 37\nvalue = [4, 33, 0]\nclass = F", fillcolor="#51e890"] ;
79 -> 155 ;
156 [label="entropy = 0.0\nsamples = 21\nvalue = [0, 21, 0]\nclass = F", fillcolor="#39e581"] ;
155 -> 156 ;
157 [label="WholeWeight <= 0.117\nentropy = 0.811\nsamples = 16\nvalue = [4, 12, 0]\nclass = F", fillcolor="#7beeab"] ;
155 -> 157 ;
158 [label="entropy = 0.0\nsamples = 3\nvalue = [3, 0, 0]\nclass = M", fillcolor="#e58139"] ;
157 -> 158 ;
159 [label="ShuckedWeight <= 0.071\nentropy = 0.391\nsamples = 13\nvalue = [1, 12, 0]\nclass = F", fillcolor="#49e78c"] ;
157 -> 159 ;
160 [label="entropy = 0.0\nsamples = 12\nvalue = [0, 12, 0]\nclass = F", fillcolor="#39e581"] ;
159 -> 160 ;
161 [label="entropy = 0.0\nsamples = 1\nvalue = [1, 0, 0]\nclass = M", fillcolor="#e58139"] ;
159 -> 161 ;
162 [label="Height <= 0.363\nentropy = 1.5\nsamples = 8\nvalue = [2, 2, 4]\nclass = I", fillcolor="#d5bdf6"] ;
78 -> 162 ;
163 [label="VisceraWeight <= 0.098\nentropy = 0.918\nsamples = 6\nvalue = [2, 0, 4]\nclass = I", fillcolor="#c09cf2"] ;
162 -> 163 ;
164 [label="entropy = 0.0\nsamples = 3\nvalue = [0, 0, 3]\nclass = I", fillcolor="#8139e5"] ;
163 -> 164 ;
165 [label="ShuckedWeight <= 0.05\nentropy = 0.918\nsamples = 3\nvalue = [2, 0, 1]\nclass = M", fillcolor="#f2c09c"] ;
163 -> 165 ;
166 [label="entropy = 0.0\nsamples = 1\nvalue = [0, 0, 1]\nclass = I", fillcolor="#8139e5"] ;
165 -> 166 ;
167 [label="entropy = 0.0\nsamples = 2\nvalue = [2, 0, 0]\nclass = M", fillcolor="#e58139"] ;
165 -> 167 ;
168 [label="entropy = 0.0\nsamples = 2\nvalue = [0, 2, 0]\nclass = F", fillcolor="#39e581"] ;
162 -> 168 ;
169 [label="WholeWeight <= 0.17\nentropy = 0.549\nsamples = 141\nvalue = [2, 126, 13]\nclass = F", fillcolor="#50e890"] ;
77 -> 169 ;
170 [label="ShellWeight <= 7.5\nentropy = 0.488\nsamples = 136\nvalue = [2, 124, 10]\nclass = F", fillcolor="#4ce78d"] ;
169 -> 170 ;
171 [label="VisceraWeight <= 0.091\nentropy = 0.335\nsamples = 97\nvalue = [0, 91, 6]\nclass = F", fillcolor="#46e789"] ;
170 -> 171 ;
172 [label="entropy = 0.0\nsamples = 38\nvalue = [0, 38, 0]\nclass = F", fillcolor="#39e581"] ;
171 -> 172 ;
173 [label="Diameter <= 0.082\nentropy = 0.474\nsamples = 59\nvalue = [0, 53, 6]\nclass = F", fillcolor="#4fe88f"] ;
171 -> 173 ;
174 [label="entropy = 0.0\nsamples = 1\nvalue = [0, 0, 1]\nclass = I", fillcolor="#8139e5"] ;
173 -> 174 ;
175 [label="LongestShell <= 0.328\nentropy = 0.424\nsamples = 58\nvalue = [0, 53, 5]\nclass = F", fillcolor="#4ce78d"] ;
173 -> 175 ;
176 [label="ShuckedWeight <= 0.087\nentropy = 0.535\nsamples = 41\nvalue = [0, 36, 5]\nclass = F", fillcolor="#54e992"] ;
175 -> 176 ;
177 [label="WholeWeight <= 0.133\nentropy = 0.398\nsamples = 38\nvalue = [0, 35, 3]\nclass = F", fillcolor="#4ae78c"] ;
176 -> 177 ;
178 [label="entropy = 0.0\nsamples = 16\nvalue = [0, 16, 0]\nclass = F", fillcolor="#39e581"] ;
177 -> 178 ;
179 [label="Height <= 0.331\nentropy = 0.575\nsamples = 22\nvalue = [0, 19, 3]\nclass = F", fillcolor="#58e995"] ;
177 -> 179 ;
180 [label="Height <= 0.324\nentropy = 0.954\nsamples = 8\nvalue = [0, 5, 3]\nclass = F", fillcolor="#b0f5cd"] ;
179 -> 180 ;
181 [label="VisceraWeight <= 0.098\nentropy = 0.65\nsamples = 6\nvalue = [0, 5, 1]\nclass = F", fillcolor="#61ea9a"] ;
180 -> 181 ;
182 [label="entropy = 0.0\nsamples = 5\nvalue = [0, 5, 0]\nclass = F", fillcolor="#39e581"] ;
181 -> 182 ;
183 [label="entropy = 0.0\nsamples = 1\nvalue = [0, 0, 1]\nclass = I", fillcolor="#8139e5"] ;
181 -> 183 ;
184 [label="entropy = 0.0\nsamples = 2\nvalue = [0, 0, 2]\nclass = I", fillcolor="#8139e5"] ;
180 -> 184 ;
185 [label="entropy = 0.0\nsamples = 14\nvalue = [0, 14, 0]\nclass = F", fillcolor="#39e581"] ;
179 -> 185 ;
186 [label="WholeWeight <= 0.166\nentropy = 0.918\nsamples = 3\nvalue = [0, 1, 2]\nclass = I", fillcolor="#c09cf2"] ;
176 -> 186 ;
187 [label="entropy = 0.0\nsamples = 2\nvalue = [0, 0, 2]\nclass = I", fillcolor="#8139e5"] ;
186 -> 187 ;
188 [label="entropy = 0.0\nsamples = 1\nvalue = [0, 1, 0]\nclass = F", fillcolor="#39e581"] ;
186 -> 188 ;
189 [label="entropy = 0.0\nsamples = 17\nvalue = [0, 17, 0]\nclass = F", fillcolor="#39e581"] ;
175 -> 189 ;
190 [label="Height <= 0.272\nentropy = 0.761\nsamples = 39\nvalue = [2, 33, 4]\nclass = F", fillcolor="#5be997"] ;
170 -> 190 ;
191 [label="ShuckedWeight <= 0.049\nentropy = 0.918\nsamples = 3\nvalue = [0, 1, 2]\nclass = I", fillcolor="#c09cf2"] ;
190 -> 191 ;
192 [label="entropy = 0.0\nsamples = 1\nvalue = [0, 1, 0]\nclass = F", fillcolor="#39e581"] ;
191 -> 192 ;
193 [label="entropy = 0.0\nsamples = 2\nvalue = [0, 0, 2]\nclass = I", fillcolor="#8139e5"] ;
191 -> 193 ;
194 [label="Height <= 0.318\nentropy = 0.614\nsamples = 36\nvalue = [2, 32, 2]\nclass = F", fillcolor="#50e890"] ;
190 -> 194 ;
195 [label="entropy = 0.0\nsamples = 15\nvalue = [0, 15, 0]\nclass = F", fillcolor="#39e581"] ;
194 -> 195 ;
196 [label="Height <= 0.322\nentropy = 0.893\nsamples = 21\nvalue = [2, 17, 2]\nclass = F", fillcolor="#63ea9c"] ;
194 -> 196 ;
197 [label="entropy = 0.0\nsamples = 1\nvalue = [1, 0, 0]\nclass = M", fillcolor="#e58139"] ;
196 -> 197 ;
198 [label="ShuckedWeight <= 0.074\nentropy = 0.748\nsamples = 20\nvalue = [1, 17, 2]\nclass = F", fillcolor="#5ae996"] ;
196 -> 198 ;
199 [label="ShuckedWeight <= 0.068\nentropy = 0.684\nsamples = 11\nvalue = [0, 9, 2]\nclass = F", fillcolor="#65eb9d"] ;
198 -> 199 ;
200 [label="entropy = 0.0\nsamples = 7\nvalue = [0, 7, 0]\nclass = F", fillcolor="#39e581"] ;
199 -> 200 ;
201 [label="VisceraWeight <= 0.108\nentropy = 1.0\nsamples = 4\nvalue = [0, 2, 2]\nclass = F", fillcolor="#ffffff"] ;
199 -> 201 ;
202 [label="entropy = 0.0\nsamples = 2\nvalue = [0, 2, 0]\nclass = F", fillcolor="#39e581"] ;
201 -> 202 ;
203 [label="entropy = 0.0\nsamples = 2\nvalue = [0, 0, 2]\nclass = I", fillcolor="#8139e5"] ;
201 -> 203 ;
204 [label="VisceraWeight <= 0.119\nentropy = 0.503\nsamples = 9\nvalue = [1, 8, 0]\nclass = F", fillcolor="#52e891"] ;
198 -> 204 ;
205 [label="VisceraWeight <= 0.116\nentropy = 0.811\nsamples = 4\nvalue = [1, 3, 0]\nclass = F", fillcolor="#7beeab"] ;
204 -> 205 ;
206 [label="entropy = 0.0\nsamples = 3\nvalue = [0, 3, 0]\nclass = F", fillcolor="#39e581"] ;
205 -> 206 ;
207 [label="entropy = 0.0\nsamples = 1\nvalue = [1, 0, 0]\nclass = M", fillcolor="#e58139"] ;
205 -> 207 ;
208 [label="entropy = 0.0\nsamples = 5\nvalue = [0, 5, 0]\nclass = F", fillcolor="#39e581"] ;
204 -> 208 ;
209 [label="Height <= 0.367\nentropy = 0.971\nsamples = 5\nvalue = [0, 2, 3]\nclass = I", fillcolor="#d5bdf6"] ;
169 -> 209 ;
210 [label="entropy = 0.0\nsamples = 2\nvalue = [0, 2, 0]\nclass = F", fillcolor="#39e581"] ;
209 -> 210 ;
211 [label="entropy = 0.0\nsamples = 3\nvalue = [0, 0, 3]\nclass = I", fillcolor="#8139e5"] ;
209 -> 211 ;
212 [label="Type <= 0.387\nentropy = 0.918\nsamples = 9\nvalue = [3, 6, 0]\nclass = F", fillcolor="#9cf2c0"] ;
76 -> 212 ;
213 [label="entropy = 0.0\nsamples = 5\nvalue = [0, 5, 0]\nclass = F", fillcolor="#39e581"] ;
212 -> 213 ;
214 [label="Type <= 0.43\nentropy = 0.811\nsamples = 4\nvalue = [3, 1, 0]\nclass = M", fillcolor="#eeab7b"] ;
212 -> 214 ;
215 [label="entropy = 0.0\nsamples = 3\nvalue = [3, 0, 0]\nclass = M", fillcolor="#e58139"] ;
214 -> 215 ;
216 [label="entropy = 0.0\nsamples = 1\nvalue = [0, 1, 0]\nclass = F", fillcolor="#39e581"] ;
214 -> 216 ;
217 [label="entropy = 0.0\nsamples = 29\nvalue = [0, 29, 0]\nclass = F", fillcolor="#39e581"] ;
75 -> 217 ;
218 [label="ShellWeight <= 7.5\nentropy = 0.918\nsamples = 12\nvalue = [4, 8, 0]\nclass = F", fillcolor="#9cf2c0"] ;
74 -> 218 ;
219 [label="entropy = 0.0\nsamples = 7\nvalue = [0, 7, 0]\nclass = F", fillcolor="#39e581"] ;
218 -> 219 ;
220 [label="VisceraWeight <= 0.107\nentropy = 0.722\nsamples = 5\nvalue = [4, 1, 0]\nclass = M", fillcolor="#eca06a"] ;
218 -> 220 ;
221 [label="Height <= 0.36\nentropy = 1.0\nsamples = 2\nvalue = [1, 1, 0]\nclass = M", fillcolor="#ffffff"] ;
220 -> 221 ;
222 [label="entropy = 0.0\nsamples = 1\nvalue = [1, 0, 0]\nclass = M", fillcolor="#e58139"] ;
221 -> 222 ;
223 [label="entropy = 0.0\nsamples = 1\nvalue = [0, 1, 0]\nclass = F", fillcolor="#39e581"] ;
221 -> 223 ;
224 [label="entropy = 0.0\nsamples = 3\nvalue = [3, 0, 0]\nclass = M", fillcolor="#e58139"] ;
220 -> 224 ;
225 [label="Type <= 0.477\nentropy = 0.744\nsamples = 52\nvalue = [0, 41, 11]\nclass = F", fillcolor="#6eeca3"] ;
73 -> 225 ;
226 [label="Diameter <= 0.102\nentropy = 0.68\nsamples = 50\nvalue = [0, 41, 9]\nclass = F", fillcolor="#64eb9d"] ;
225 -> 226 ;
227 [label="entropy = 0.0\nsamples = 12\nvalue = [0, 12, 0]\nclass = F", fillcolor="#39e581"] ;
226 -> 227 ;
228 [label="LongestShell <= 0.328\nentropy = 0.79\nsamples = 38\nvalue = [0, 29, 9]\nclass = F", fillcolor="#76eda8"] ;
226 -> 228 ;
229 [label="ShuckedWeight <= 0.093\nentropy = 0.918\nsamples = 6\nvalue = [0, 2, 4]\nclass = I", fillcolor="#c09cf2"] ;
228 -> 229 ;
230 [label="entropy = 0.0\nsamples = 4\nvalue = [0, 0, 4]\nclass = I", fillcolor="#8139e5"] ;
229 -> 230 ;
231 [label="entropy = 0.0\nsamples = 2\nvalue = [0, 2, 0]\nclass = F", fillcolor="#39e581"] ;
229 -> 231 ;
232 [label="ShuckedWeight <= 0.121\nentropy = 0.625\nsamples = 32\nvalue = [0, 27, 5]\nclass = F", fillcolor="#5eea98"] ;
228 -> 232 ;
233 [label="ShuckedWeight <= 0.089\nentropy = 0.48\nsamples = 29\nvalue = [0, 26, 3]\nclass = F", fillcolor="#50e890"] ;
232 -> 233 ;
234 [label="VisceraWeight <= 0.115\nentropy = 0.881\nsamples = 10\nvalue = [0, 7, 3]\nclass = F", fillcolor="#8ef0b7"] ;
233 -> 234 ;
235 [label="Type <= 0.433\nentropy = 0.544\nsamples = 8\nvalue = [0, 7, 1]\nclass = F", fillcolor="#55e993"] ;
234 -> 235 ;
236 [label="VisceraWeight <= 0.106\nentropy = 1.0\nsamples = 2\nvalue = [0, 1, 1]\nclass = F", fillcolor="#ffffff"] ;
235 -> 236 ;
237 [label="entropy = 0.0\nsamples = 1\nvalue = [0, 0, 1]\nclass = I", fillcolor="#8139e5"] ;
236 -> 237 ;
238 [label="entropy = 0.0\nsamples = 1\nvalue = [0, 1, 0]\nclass = F", fillcolor="#39e581"] ;
236 -> 238 ;
239 [label="entropy = 0.0\nsamples = 6\nvalue = [0, 6, 0]\nclass = F", fillcolor="#39e581"] ;
235 -> 239 ;
240 [label="entropy = 0.0\nsamples = 2\nvalue = [0, 0, 2]\nclass = I", fillcolor="#8139e5"] ;
234 -> 240 ;
241 [label="entropy = 0.0\nsamples = 19\nvalue = [0, 19, 0]\nclass = F", fillcolor="#39e581"] ;
233 -> 241 ;
242 [label="ShuckedWeight <= 0.128\nentropy = 0.918\nsamples = 3\nvalue = [0, 1, 2]\nclass = I", fillcolor="#c09cf2"] ;
232 -> 242 ;
243 [label="entropy = 0.0\nsamples = 2\nvalue = [0, 0, 2]\nclass = I", fillcolor="#8139e5"] ;
242 -> 243 ;
244 [label="entropy = 0.0\nsamples = 1\nvalue = [0, 1, 0]\nclass = F", fillcolor="#39e581"] ;
242 -> 244 ;
245 [label="entropy = 0.0\nsamples = 2\nvalue = [0, 0, 2]\nclass = I", fillcolor="#8139e5"] ;
225 -> 245 ;
246 [label="Height <= 0.639\nentropy = 1.448\nsamples = 331\nvalue = [60, 176, 95]\nclass = F", fillcolor="#bbf6d4"] ;
2 -> 246 ;
247 [label="Type <= 0.472\nentropy = 1.339\nsamples = 230\nvalue = [39, 142, 49]\nclass = F", fillcolor="#99f2be"] ;
246 -> 247 ;
248 [label="ShuckedWeight <= 0.099\nentropy = 1.531\nsamples = 88\nvalue = [23, 41, 24]\nclass = F", fillcolor="#caf8de"] ;
247 -> 248 ;
249 [label="WholeWeight <= 0.179\nentropy = 1.307\nsamples = 43\nvalue = [6, 27, 10]\nclass = F", fillcolor="#99f2be"] ;
248 -> 249 ;
250 [label="ShuckedWeight <= 0.087\nentropy = 1.406\nsamples = 20\nvalue = [6, 11, 3]\nclass = F", fillcolor="#b8f6d2"] ;
249 -> 250 ;
251 [label="Height <= 0.421\nentropy = 0.991\nsamples = 13\nvalue = [2, 10, 1]\nclass = F", fillcolor="#6feca3"] ;
250 -> 251 ;
252 [label="VisceraWeight <= 0.136\nentropy = 0.439\nsamples = 11\nvalue = [1, 10, 0]\nclass = F", fillcolor="#4de88e"] ;
251 -> 252 ;
253 [label="WholeWeight <= 0.164\nentropy = 0.811\nsamples = 4\nvalue = [1, 3, 0]\nclass = F", fillcolor="#7beeab"] ;
252 -> 253 ;
254 [label="entropy = 0.0\nsamples = 1\nvalue = [1, 0, 0]\nclass = M", fillcolor="#e58139"] ;
253 -> 254 ;
255 [label="entropy = 0.0\nsamples = 3\nvalue = [0, 3, 0]\nclass = F", fillcolor="#39e581"] ;
253 -> 255 ;
256 [label="entropy = 0.0\nsamples = 7\nvalue = [0, 7, 0]\nclass = F", fillcolor="#39e581"] ;
252 -> 256 ;
257 [label="ShellWeight <= 7.5\nentropy = 1.0\nsamples = 2\nvalue = [1, 0, 1]\nclass = M", fillcolor="#ffffff"] ;
251 -> 257 ;
258 [label="entropy = 0.0\nsamples = 1\nvalue = [1, 0, 0]\nclass = M", fillcolor="#e58139"] ;
257 -> 258 ;
259 [label="entropy = 0.0\nsamples = 1\nvalue = [0, 0, 1]\nclass = I", fillcolor="#8139e5"] ;
257 -> 259 ;
260 [label="VisceraWeight <= 0.16\nentropy = 1.379\nsamples = 7\nvalue = [4, 1, 2]\nclass = M", fillcolor="#f5cdb0"] ;
250 -> 260 ;
261 [label="Type <= 0.433\nentropy = 0.918\nsamples = 6\nvalue = [4, 0, 2]\nclass = M", fillcolor="#f2c09c"] ;
260 -> 261 ;
262 [label="Height <= 0.398\nentropy = 0.918\nsamples = 3\nvalue = [1, 0, 2]\nclass = I", fillcolor="#c09cf2"] ;
261 -> 262 ;
263 [label="entropy = 0.0\nsamples = 1\nvalue = [1, 0, 0]\nclass = M", fillcolor="#e58139"] ;
262 -> 263 ;
264 [label="entropy = 0.0\nsamples = 2\nvalue = [0, 0, 2]\nclass = I", fillcolor="#8139e5"] ;
262 -> 264 ;
265 [label="entropy = 0.0\nsamples = 3\nvalue = [3, 0, 0]\nclass = M", fillcolor="#e58139"] ;
261 -> 265 ;
266 [label="entropy = 0.0\nsamples = 1\nvalue = [0, 1, 0]\nclass = F", fillcolor="#39e581"] ;
260 -> 266 ;
267 [label="Diameter <= 0.122\nentropy = 0.887\nsamples = 23\nvalue = [0, 16, 7]\nclass = F", fillcolor="#90f0b8"] ;
249 -> 267 ;
268 [label="Type <= 0.447\nentropy = 0.977\nsamples = 17\nvalue = [0, 10, 7]\nclass = F", fillcolor="#c4f7d9"] ;
267 -> 268 ;
269 [label="entropy = 0.0\nsamples = 3\nvalue = [0, 0, 3]\nclass = I", fillcolor="#8139e5"] ;
268 -> 269 ;
270 [label="WholeWeight <= 0.264\nentropy = 0.863\nsamples = 14\nvalue = [0, 10, 4]\nclass = F", fillcolor="#88efb3"] ;
268 -> 270 ;
271 [label="Diameter <= 0.107\nentropy = 0.65\nsamples = 12\nvalue = [0, 10, 2]\nclass = F", fillcolor="#61ea9a"] ;
270 -> 271 ;
272 [label="Height <= 0.463\nentropy = 1.0\nsamples = 4\nvalue = [0, 2, 2]\nclass = F", fillcolor="#ffffff"] ;
271 -> 272 ;
273 [label="entropy = 0.0\nsamples = 2\nvalue = [0, 2, 0]\nclass = F", fillcolor="#39e581"] ;
272 -> 273 ;
274 [label="entropy = 0.0\nsamples = 2\nvalue = [0, 0, 2]\nclass = I", fillcolor="#8139e5"] ;
272 -> 274 ;
275 [label="entropy = 0.0\nsamples = 8\nvalue = [0, 8, 0]\nclass = F", fillcolor="#39e581"] ;
271 -> 275 ;
276 [label="entropy = 0.0\nsamples = 2\nvalue = [0, 0, 2]\nclass = I", fillcolor="#8139e5"] ;
270 -> 276 ;
277 [label="entropy = 0.0\nsamples = 6\nvalue = [0, 6, 0]\nclass = F", fillcolor="#39e581"] ;
267 -> 277 ;
278 [label="WholeWeight <= 0.196\nentropy = 1.579\nsamples = 45\nvalue = [17, 14, 14]\nclass = M", fillcolor="#fcf3ec"] ;
248 -> 278 ;
279 [label="LongestShell <= 0.358\nentropy = 1.198\nsamples = 13\nvalue = [9, 2, 2]\nclass = M", fillcolor="#eeaf81"] ;
278 -> 279 ;
280 [label="Type <= 0.453\nentropy = 0.722\nsamples = 10\nvalue = [8, 0, 2]\nclass = M", fillcolor="#eca06a"] ;
279 -> 280 ;
281 [label="ShuckedWeight <= 0.101\nentropy = 1.0\nsamples = 4\nvalue = [2, 0, 2]\nclass = M", fillcolor="#ffffff"] ;
280 -> 281 ;
282 [label="entropy = 0.0\nsamples = 2\nvalue = [2, 0, 0]\nclass = M", fillcolor="#e58139"] ;
281 -> 282 ;
283 [label="entropy = 0.0\nsamples = 2\nvalue = [0, 0, 2]\nclass = I", fillcolor="#8139e5"] ;
281 -> 283 ;
284 [label="entropy = 0.0\nsamples = 6\nvalue = [6, 0, 0]\nclass = M", fillcolor="#e58139"] ;
280 -> 284 ;
285 [label="LongestShell <= 0.37\nentropy = 0.918\nsamples = 3\nvalue = [1, 2, 0]\nclass = F", fillcolor="#9cf2c0"] ;
279 -> 285 ;
286 [label="entropy = 0.0\nsamples = 2\nvalue = [0, 2, 0]\nclass = F", fillcolor="#39e581"] ;
285 -> 286 ;
287 [label="entropy = 0.0\nsamples = 1\nvalue = [1, 0, 0]\nclass = M", fillcolor="#e58139"] ;
285 -> 287 ;
288 [label="WholeWeight <= 0.27\nentropy = 1.561\nsamples = 32\nvalue = [8, 12, 12]\nclass = F", fillcolor="#ffffff"] ;
278 -> 288 ;
289 [label="WholeWeight <= 0.242\nentropy = 1.462\nsamples = 25\nvalue = [4, 12, 9]\nclass = F", fillcolor="#dafae7"] ;
288 -> 289 ;
290 [label="ShuckedWeight <= 0.11\nentropy = 1.447\nsamples = 17\nvalue = [3, 5, 9]\nclass = I", fillcolor="#d5bdf6"] ;
289 -> 290 ;
291 [label="Type <= 0.458\nentropy = 1.485\nsamples = 10\nvalue = [2, 5, 3]\nclass = F", fillcolor="#c6f8db"] ;
290 -> 291 ;
292 [label="WholeWeight <= 0.204\nentropy = 0.971\nsamples = 5\nvalue = [0, 2, 3]\nclass = I", fillcolor="#d5bdf6"] ;
291 -> 292 ;
293 [label="entropy = 0.0\nsamples = 2\nvalue = [0, 2, 0]\nclass = F", fillcolor="#39e581"] ;
292 -> 293 ;
294 [label="entropy = 0.0\nsamples = 3\nvalue = [0, 0, 3]\nclass = I", fillcolor="#8139e5"] ;
292 -> 294 ;
295 [label="Type <= 0.463\nentropy = 0.971\nsamples = 5\nvalue = [2, 3, 0]\nclass = F", fillcolor="#bdf6d5"] ;
291 -> 295 ;
296 [label="entropy = 0.0\nsamples = 2\nvalue = [2, 0, 0]\nclass = M", fillcolor="#e58139"] ;
295 -> 296 ;
297 [label="entropy = 0.0\nsamples = 3\nvalue = [0, 3, 0]\nclass = F", fillcolor="#39e581"] ;
295 -> 297 ;
298 [label="ShellWeight <= 6.5\nentropy = 0.592\nsamples = 7\nvalue = [1, 0, 6]\nclass = I", fillcolor="#965ae9"] ;
290 -> 298 ;
299 [label="entropy = 0.0\nsamples = 1\nvalue = [1, 0, 0]\nclass = M", fillcolor="#e58139"] ;
298 -> 299 ;
300 [label="entropy = 0.0\nsamples = 6\nvalue = [0, 0, 6]\nclass = I", fillcolor="#8139e5"] ;
298 -> 300 ;
301 [label="Diameter <= 0.133\nentropy = 0.544\nsamples = 8\nvalue = [1, 7, 0]\nclass = F", fillcolor="#55e993"] ;
289 -> 301 ;
302 [label="entropy = 0.0\nsamples = 7\nvalue = [0, 7, 0]\nclass = F", fillcolor="#39e581"] ;
301 -> 302 ;
303 [label="entropy = 0.0\nsamples = 1\nvalue = [1, 0, 0]\nclass = M", fillcolor="#e58139"] ;
301 -> 303 ;
304 [label="Type <= 0.463\nentropy = 0.985\nsamples = 7\nvalue = [4, 0, 3]\nclass = M", fillcolor="#f8e0ce"] ;
288 -> 304 ;
305 [label="entropy = 0.0\nsamples = 3\nvalue = [3, 0, 0]\nclass = M", fillcolor="#e58139"] ;
304 -> 305 ;
306 [label="LongestShell <= 0.37\nentropy = 0.811\nsamples = 4\nvalue = [1, 0, 3]\nclass = I", fillcolor="#ab7bee"] ;
304 -> 306 ;
307 [label="entropy = 0.0\nsamples = 2\nvalue = [0, 0, 2]\nclass = I", fillcolor="#8139e5"] ;
306 -> 307 ;
308 [label="VisceraWeight <= 0.153\nentropy = 1.0\nsamples = 2\nvalue = [1, 0, 1]\nclass = M", fillcolor="#ffffff"] ;
306 -> 308 ;
309 [label="entropy = 0.0\nsamples = 1\nvalue = [1, 0, 0]\nclass = M", fillcolor="#e58139"] ;
308 -> 309 ;
310 [label="entropy = 0.0\nsamples = 1\nvalue = [0, 0, 1]\nclass = I", fillcolor="#8139e5"] ;
308 -> 310 ;
311 [label="WholeWeight <= 0.221\nentropy = 1.146\nsamples = 142\nvalue = [16, 101, 25]\nclass = F", fillcolor="#7eeead"] ;
247 -> 311 ;
312 [label="ShuckedWeight <= 0.077\nentropy = 0.235\nsamples = 26\nvalue = [1, 25, 0]\nclass = F", fillcolor="#41e686"] ;
311 -> 312 ;
313 [label="entropy = 0.0\nsamples = 1\nvalue = [1, 0, 0]\nclass = M", fillcolor="#e58139"] ;
312 -> 313 ;
314 [label="entropy = 0.0\nsamples = 25\nvalue = [0, 25, 0]\nclass = F", fillcolor="#39e581"] ;
312 -> 314 ;
315 [label="ShuckedWeight <= 0.107\nentropy = 1.258\nsamples = 116\nvalue = [15, 76, 25]\nclass = F", fillcolor="#90f0b8"] ;
311 -> 315 ;
316 [label="Diameter <= 0.107\nentropy = 1.196\nsamples = 26\nvalue = [1, 13, 12]\nclass = F", fillcolor="#f1fdf6"] ;
315 -> 316 ;
317 [label="VisceraWeight <= 0.147\nentropy = 1.371\nsamples = 5\nvalue = [1, 1, 3]\nclass = I", fillcolor="#c09cf2"] ;
316 -> 317 ;
318 [label="ShuckedWeight <= 0.096\nentropy = 0.811\nsamples = 4\nvalue = [0, 1, 3]\nclass = I", fillcolor="#ab7bee"] ;
317 -> 318 ;
319 [label="entropy = 0.0\nsamples = 1\nvalue = [0, 1, 0]\nclass = F", fillcolor="#39e581"] ;
318 -> 319 ;
320 [label="entropy = 0.0\nsamples = 3\nvalue = [0, 0, 3]\nclass = I", fillcolor="#8139e5"] ;
318 -> 320 ;
321 [label="entropy = 0.0\nsamples = 1\nvalue = [1, 0, 0]\nclass = M", fillcolor="#e58139"] ;
317 -> 321 ;
322 [label="VisceraWeight <= 0.152\nentropy = 0.985\nsamples = 21\nvalue = [0, 12, 9]\nclass = F", fillcolor="#cef8e0"] ;
316 -> 322 ;
323 [label="ShuckedWeight <= 0.102\nentropy = 0.779\nsamples = 13\nvalue = [0, 10, 3]\nclass = F", fillcolor="#74eda7"] ;
322 -> 323 ;
324 [label="VisceraWeight <= 0.148\nentropy = 1.0\nsamples = 6\nvalue = [0, 3, 3]\nclass = F", fillcolor="#ffffff"] ;
323 -> 324 ;
325 [label="Height <= 0.489\nentropy = 0.811\nsamples = 4\nvalue = [0, 3, 1]\nclass = F", fillcolor="#7beeab"] ;
324 -> 325 ;
326 [label="entropy = 0.0\nsamples = 1\nvalue = [0, 0, 1]\nclass = I", fillcolor="#8139e5"] ;
325 -> 326 ;
327 [label="entropy = 0.0\nsamples = 3\nvalue = [0, 3, 0]\nclass = F", fillcolor="#39e581"] ;
325 -> 327 ;
328 [label="entropy = 0.0\nsamples = 2\nvalue = [0, 0, 2]\nclass = I", fillcolor="#8139e5"] ;
324 -> 328 ;
329 [label="entropy = 0.0\nsamples = 7\nvalue = [0, 7, 0]\nclass = F", fillcolor="#39e581"] ;
323 -> 329 ;
330 [label="Diameter <= 0.127\nentropy = 0.811\nsamples = 8\nvalue = [0, 2, 6]\nclass = I", fillcolor="#ab7bee"] ;
322 -> 330 ;
331 [label="WholeWeight <= 0.279\nentropy = 1.0\nsamples = 4\nvalue = [0, 2, 2]\nclass = F", fillcolor="#ffffff"] ;
330 -> 331 ;
332 [label="entropy = 0.0\nsamples = 2\nvalue = [0, 2, 0]\nclass = F", fillcolor="#39e581"] ;
331 -> 332 ;
333 [label="entropy = 0.0\nsamples = 2\nvalue = [0, 0, 2]\nclass = I", fillcolor="#8139e5"] ;
331 -> 333 ;
334 [label="entropy = 0.0\nsamples = 4\nvalue = [0, 0, 4]\nclass = I", fillcolor="#8139e5"] ;
330 -> 334 ;
335 [label="VisceraWeight <= 0.156\nentropy = 1.181\nsamples = 90\nvalue = [14, 63, 13]\nclass = F", fillcolor="#7feeae"] ;
315 -> 335 ;
336 [label="ShuckedWeight <= 0.116\nentropy = 1.54\nsamples = 31\nvalue = [8, 14, 9]\nclass = F", fillcolor="#d2f9e2"] ;
335 -> 336 ;
337 [label="ShellWeight <= 6.5\nentropy = 0.918\nsamples = 9\nvalue = [3, 6, 0]\nclass = F", fillcolor="#9cf2c0"] ;
336 -> 337 ;
338 [label="entropy = 0.0\nsamples = 2\nvalue = [2, 0, 0]\nclass = M", fillcolor="#e58139"] ;
337 -> 338 ;
339 [label="Height <= 0.585\nentropy = 0.592\nsamples = 7\nvalue = [1, 6, 0]\nclass = F", fillcolor="#5ae996"] ;
337 -> 339 ;
340 [label="entropy = 0.0\nsamples = 6\nvalue = [0, 6, 0]\nclass = F", fillcolor="#39e581"] ;
339 -> 340 ;
341 [label="entropy = 0.0\nsamples = 1\nvalue = [1, 0, 0]\nclass = M", fillcolor="#e58139"] ;
339 -> 341 ;
342 [label="LongestShell <= 0.398\nentropy = 1.544\nsamples = 22\nvalue = [5, 8, 9]\nclass = I", fillcolor="#f6f1fd"] ;
336 -> 342 ;
343 [label="WholeWeight <= 0.239\nentropy = 1.557\nsamples = 19\nvalue = [5, 8, 6]\nclass = F", fillcolor="#e1fbec"] ;
342 -> 343 ;
344 [label="entropy = 0.0\nsamples = 3\nvalue = [0, 3, 0]\nclass = F", fillcolor="#39e581"] ;
343 -> 344 ;
345 [label="WholeWeight <= 0.304\nentropy = 1.579\nsamples = 16\nvalue = [5, 5, 6]\nclass = I", fillcolor="#f4edfd"] ;
343 -> 345 ;
346 [label="ShuckedWeight <= 0.136\nentropy = 1.483\nsamples = 12\nvalue = [5, 2, 5]\nclass = M", fillcolor="#ffffff"] ;
345 -> 346 ;
347 [label="WholeWeight <= 0.252\nentropy = 0.918\nsamples = 6\nvalue = [4, 0, 2]\nclass = M", fillcolor="#f2c09c"] ;
346 -> 347 ;
348 [label="entropy = 0.0\nsamples = 2\nvalue = [0, 0, 2]\nclass = I", fillcolor="#8139e5"] ;
347 -> 348 ;
349 [label="entropy = 0.0\nsamples = 4\nvalue = [4, 0, 0]\nclass = M", fillcolor="#e58139"] ;
347 -> 349 ;
350 [label="WholeWeight <= 0.248\nentropy = 1.459\nsamples = 6\nvalue = [1, 2, 3]\nclass = I", fillcolor="#e0cef8"] ;
346 -> 350 ;
351 [label="entropy = 0.0\nsamples = 1\nvalue = [1, 0, 0]\nclass = M", fillcolor="#e58139"] ;
350 -> 351 ;
352 [label="Diameter <= 0.117\nentropy = 0.971\nsamples = 5\nvalue = [0, 2, 3]\nclass = I", fillcolor="#d5bdf6"] ;
350 -> 352 ;
353 [label="entropy = 0.0\nsamples = 2\nvalue = [0, 0, 2]\nclass = I", fillcolor="#8139e5"] ;
352 -> 353 ;
354 [label="Height <= 0.615\nentropy = 0.918\nsamples = 3\nvalue = [0, 2, 1]\nclass = F", fillcolor="#9cf2c0"] ;
352 -> 354 ;
355 [label="entropy = 0.0\nsamples = 2\nvalue = [0, 2, 0]\nclass = F", fillcolor="#39e581"] ;
354 -> 355 ;
356 [label="entropy = 0.0\nsamples = 1\nvalue = [0, 0, 1]\nclass = I", fillcolor="#8139e5"] ;
354 -> 356 ;
357 [label="ShuckedWeight <= 0.119\nentropy = 0.811\nsamples = 4\nvalue = [0, 3, 1]\nclass = F", fillcolor="#7beeab"] ;
345 -> 357 ;
358 [label="entropy = 0.0\nsamples = 1\nvalue = [0, 0, 1]\nclass = I", fillcolor="#8139e5"] ;
357 -> 358 ;
359 [label="entropy = 0.0\nsamples = 3\nvalue = [0, 3, 0]\nclass = F", fillcolor="#39e581"] ;
357 -> 359 ;
360 [label="entropy = 0.0\nsamples = 3\nvalue = [0, 0, 3]\nclass = I", fillcolor="#8139e5"] ;
342 -> 360 ;
361 [label="ShuckedWeight <= 0.134\nentropy = 0.821\nsamples = 59\nvalue = [6, 49, 4]\nclass = F", fillcolor="#5eea99"] ;
335 -> 361 ;
362 [label="WholeWeight <= 0.222\nentropy = 0.406\nsamples = 37\nvalue = [3, 34, 0]\nclass = F", fillcolor="#4ae78c"] ;
361 -> 362 ;
363 [label="entropy = 0.0\nsamples = 1\nvalue = [1, 0, 0]\nclass = M", fillcolor="#e58139"] ;
362 -> 363 ;
364 [label="Height <= 0.611\nentropy = 0.31\nsamples = 36\nvalue = [2, 34, 0]\nclass = F", fillcolor="#45e788"] ;
362 -> 364 ;
365 [label="entropy = 0.0\nsamples = 28\nvalue = [0, 28, 0]\nclass = F", fillcolor="#39e581"] ;
364 -> 365 ;
366 [label="WholeWeight <= 0.291\nentropy = 0.811\nsamples = 8\nvalue = [2, 6, 0]\nclass = F", fillcolor="#7beeab"] ;
364 -> 366 ;
367 [label="VisceraWeight <= 0.186\nentropy = 0.918\nsamples = 3\nvalue = [2, 1, 0]\nclass = M", fillcolor="#f2c09c"] ;
366 -> 367 ;
368 [label="entropy = 0.0\nsamples = 2\nvalue = [2, 0, 0]\nclass = M", fillcolor="#e58139"] ;
367 -> 368 ;
369 [label="entropy = 0.0\nsamples = 1\nvalue = [0, 1, 0]\nclass = F", fillcolor="#39e581"] ;
367 -> 369 ;
370 [label="entropy = 0.0\nsamples = 5\nvalue = [0, 5, 0]\nclass = F", fillcolor="#39e581"] ;
366 -> 370 ;
371 [label="WholeWeight <= 0.252\nentropy = 1.216\nsamples = 22\nvalue = [3, 15, 4]\nclass = F", fillcolor="#86efb2"] ;
361 -> 371 ;
372 [label="WholeWeight <= 0.248\nentropy = 0.985\nsamples = 7\nvalue = [0, 3, 4]\nclass = I", fillcolor="#e0cef8"] ;
371 -> 372 ;
373 [label="VisceraWeight <= 0.19\nentropy = 0.811\nsamples = 4\nvalue = [0, 3, 1]\nclass = F", fillcolor="#7beeab"] ;
372 -> 373 ;
374 [label="entropy = 0.0\nsamples = 3\nvalue = [0, 3, 0]\nclass = F", fillcolor="#39e581"] ;
373 -> 374 ;
375 [label="entropy = 0.0\nsamples = 1\nvalue = [0, 0, 1]\nclass = I", fillcolor="#8139e5"] ;
373 -> 375 ;
376 [label="entropy = 0.0\nsamples = 3\nvalue = [0, 0, 3]\nclass = I", fillcolor="#8139e5"] ;
372 -> 376 ;
377 [label="LongestShell <= 0.387\nentropy = 0.722\nsamples = 15\nvalue = [3, 12, 0]\nclass = F", fillcolor="#6aeca0"] ;
371 -> 377 ;
378 [label="WholeWeight <= 0.266\nentropy = 1.0\nsamples = 6\nvalue = [3, 3, 0]\nclass = M", fillcolor="#ffffff"] ;
377 -> 378 ;
379 [label="entropy = 0.0\nsamples = 2\nvalue = [0, 2, 0]\nclass = F", fillcolor="#39e581"] ;
378 -> 379 ;
380 [label="WholeWeight <= 0.282\nentropy = 0.811\nsamples = 4\nvalue = [3, 1, 0]\nclass = M", fillcolor="#eeab7b"] ;
378 -> 380 ;
381 [label="entropy = 0.0\nsamples = 3\nvalue = [3, 0, 0]\nclass = M", fillcolor="#e58139"] ;
380 -> 381 ;
382 [label="entropy = 0.0\nsamples = 1\nvalue = [0, 1, 0]\nclass = F", fillcolor="#39e581"] ;
380 -> 382 ;
383 [label="entropy = 0.0\nsamples = 9\nvalue = [0, 9, 0]\nclass = F", fillcolor="#39e581"] ;
377 -> 383 ;
384 [label="ShellWeight <= 7.5\nentropy = 1.517\nsamples = 101\nvalue = [21, 34, 46]\nclass = I", fillcolor="#e8dcfa"] ;
246 -> 384 ;
385 [label="Type <= 0.477\nentropy = 1.179\nsamples = 30\nvalue = [4, 5, 21]\nclass = I", fillcolor="#ae80ee"] ;
384 -> 385 ;
386 [label="entropy = 0.0\nsamples = 2\nvalue = [2, 0, 0]\nclass = M", fillcolor="#e58139"] ;
385 -> 386 ;
387 [label="ShuckedWeight <= 0.158\nentropy = 1.027\nsamples = 28\nvalue = [2, 5, 21]\nclass = I", fillcolor="#a775ed"] ;
385 -> 387 ;
388 [label="WholeWeight <= 0.417\nentropy = 0.323\nsamples = 17\nvalue = [0, 1, 16]\nclass = I", fillcolor="#8945e7"] ;
387 -> 388 ;
389 [label="entropy = 0.0\nsamples = 16\nvalue = [0, 0, 16]\nclass = I", fillcolor="#8139e5"] ;
388 -> 389 ;
390 [label="entropy = 0.0\nsamples = 1\nvalue = [0, 1, 0]\nclass = F", fillcolor="#39e581"] ;
388 -> 390 ;
391 [label="VisceraWeight <= 0.189\nentropy = 1.495\nsamples = 11\nvalue = [2, 4, 5]\nclass = I", fillcolor="#ede3fb"] ;
387 -> 391 ;
392 [label="Type <= 0.527\nentropy = 1.0\nsamples = 8\nvalue = [0, 4, 4]\nclass = F", fillcolor="#ffffff"] ;
391 -> 392 ;
393 [label="entropy = 0.0\nsamples = 3\nvalue = [0, 3, 0]\nclass = F", fillcolor="#39e581"] ;
392 -> 393 ;
394 [label="Height <= 0.682\nentropy = 0.722\nsamples = 5\nvalue = [0, 1, 4]\nclass = I", fillcolor="#a06aec"] ;
392 -> 394 ;
395 [label="WholeWeight <= 0.277\nentropy = 1.0\nsamples = 2\nvalue = [0, 1, 1]\nclass = F", fillcolor="#ffffff"] ;
394 -> 395 ;
396 [label="entropy = 0.0\nsamples = 1\nvalue = [0, 0, 1]\nclass = I", fillcolor="#8139e5"] ;
395 -> 396 ;
397 [label="entropy = 0.0\nsamples = 1\nvalue = [0, 1, 0]\nclass = F", fillcolor="#39e581"] ;
395 -> 397 ;
398 [label="entropy = 0.0\nsamples = 3\nvalue = [0, 0, 3]\nclass = I", fillcolor="#8139e5"] ;
394 -> 398 ;
399 [label="Height <= 0.785\nentropy = 0.918\nsamples = 3\nvalue = [2, 0, 1]\nclass = M", fillcolor="#f2c09c"] ;
391 -> 399 ;
400 [label="entropy = 0.0\nsamples = 2\nvalue = [2, 0, 0]\nclass = M", fillcolor="#e58139"] ;
399 -> 400 ;
401 [label="entropy = 0.0\nsamples = 1\nvalue = [0, 0, 1]\nclass = I", fillcolor="#8139e5"] ;
399 -> 401 ;
402 [label="ShuckedWeight <= 0.161\nentropy = 1.552\nsamples = 71\nvalue = [17, 29, 25]\nclass = F", fillcolor="#eefdf4"] ;
384 -> 402 ;
403 [label="WholeWeight <= 0.315\nentropy = 1.414\nsamples = 39\nvalue = [7, 22, 10]\nclass = F", fillcolor="#adf4cb"] ;
402 -> 403 ;
404 [label="WholeWeight <= 0.296\nentropy = 1.371\nsamples = 10\nvalue = [6, 2, 2]\nclass = M", fillcolor="#f2c09c"] ;
403 -> 404 ;
405 [label="WholeWeight <= 0.274\nentropy = 1.0\nsamples = 4\nvalue = [2, 0, 2]\nclass = M", fillcolor="#ffffff"] ;
404 -> 405 ;
406 [label="entropy = 0.0\nsamples = 1\nvalue = [1, 0, 0]\nclass = M", fillcolor="#e58139"] ;
405 -> 406 ;
407 [label="VisceraWeight <= 0.186\nentropy = 0.918\nsamples = 3\nvalue = [1, 0, 2]\nclass = I", fillcolor="#c09cf2"] ;
405 -> 407 ;
408 [label="entropy = 0.0\nsamples = 1\nvalue = [1, 0, 0]\nclass = M", fillcolor="#e58139"] ;
407 -> 408 ;
409 [label="entropy = 0.0\nsamples = 2\nvalue = [0, 0, 2]\nclass = I", fillcolor="#8139e5"] ;
407 -> 409 ;
410 [label="ShuckedWeight <= 0.113\nentropy = 0.918\nsamples = 6\nvalue = [4, 2, 0]\nclass = M", fillcolor="#f2c09c"] ;
404 -> 410 ;
411 [label="entropy = 0.0\nsamples = 1\nvalue = [0, 1, 0]\nclass = F", fillcolor="#39e581"] ;
410 -> 411 ;
412 [label="Diameter <= 0.142\nentropy = 0.722\nsamples = 5\nvalue = [4, 1, 0]\nclass = M", fillcolor="#eca06a"] ;
410 -> 412 ;
413 [label="entropy = 0.0\nsamples = 3\nvalue = [3, 0, 0]\nclass = M", fillcolor="#e58139"] ;
412 -> 413 ;
414 [label="ShuckedWeight <= 0.153\nentropy = 1.0\nsamples = 2\nvalue = [1, 1, 0]\nclass = M", fillcolor="#ffffff"] ;
412 -> 414 ;
415 [label="entropy = 0.0\nsamples = 1\nvalue = [1, 0, 0]\nclass = M", fillcolor="#e58139"] ;
414 -> 415 ;
416 [label="entropy = 0.0\nsamples = 1\nvalue = [0, 1, 0]\nclass = F", fillcolor="#39e581"] ;
414 -> 416 ;
417 [label="VisceraWeight <= 0.154\nentropy = 1.05\nsamples = 29\nvalue = [1, 20, 8]\nclass = F", fillcolor="#8ef0b7"] ;
403 -> 417 ;
418 [label="VisceraWeight <= 0.147\nentropy = 0.918\nsamples = 3\nvalue = [1, 0, 2]\nclass = I", fillcolor="#c09cf2"] ;
417 -> 418 ;
419 [label="entropy = 0.0\nsamples = 2\nvalue = [0, 0, 2]\nclass = I", fillcolor="#8139e5"] ;
418 -> 419 ;
420 [label="entropy = 0.0\nsamples = 1\nvalue = [1, 0, 0]\nclass = M", fillcolor="#e58139"] ;
418 -> 420 ;
421 [label="LongestShell <= 0.41\nentropy = 0.779\nsamples = 26\nvalue = [0, 20, 6]\nclass = F", fillcolor="#74eda7"] ;
417 -> 421 ;
422 [label="Height <= 0.718\nentropy = 0.954\nsamples = 16\nvalue = [0, 10, 6]\nclass = F", fillcolor="#b0f5cd"] ;
421 -> 422 ;
423 [label="ShuckedWeight <= 0.124\nentropy = 0.684\nsamples = 11\nvalue = [0, 9, 2]\nclass = F", fillcolor="#65eb9d"] ;
422 -> 423 ;
424 [label="entropy = 0.0\nsamples = 1\nvalue = [0, 0, 1]\nclass = I", fillcolor="#8139e5"] ;
423 -> 424 ;
425 [label="Diameter <= 0.148\nentropy = 0.469\nsamples = 10\nvalue = [0, 9, 1]\nclass = F", fillcolor="#4fe88f"] ;
423 -> 425 ;
426 [label="entropy = 0.0\nsamples = 8\nvalue = [0, 8, 0]\nclass = F", fillcolor="#39e581"] ;
425 -> 426 ;
427 [label="LongestShell <= 0.397\nentropy = 1.0\nsamples = 2\nvalue = [0, 1, 1]\nclass = F", fillcolor="#ffffff"] ;
425 -> 427 ;
428 [label="entropy = 0.0\nsamples = 1\nvalue = [0, 1, 0]\nclass = F", fillcolor="#39e581"] ;
427 -> 428 ;
429 [label="entropy = 0.0\nsamples = 1\nvalue = [0, 0, 1]\nclass = I", fillcolor="#8139e5"] ;
427 -> 429 ;
430 [label="Diameter <= 0.142\nentropy = 0.722\nsamples = 5\nvalue = [0, 1, 4]\nclass = I", fillcolor="#a06aec"] ;
422 -> 430 ;
431 [label="entropy = 0.0\nsamples = 4\nvalue = [0, 0, 4]\nclass = I", fillcolor="#8139e5"] ;
430 -> 431 ;
432 [label="entropy = 0.0\nsamples = 1\nvalue = [0, 1, 0]\nclass = F", fillcolor="#39e581"] ;
430 -> 432 ;
433 [label="entropy = 0.0\nsamples = 10\nvalue = [0, 10, 0]\nclass = F", fillcolor="#39e581"] ;
421 -> 433 ;
434 [label="VisceraWeight <= 0.198\nentropy = 1.516\nsamples = 32\nvalue = [10, 7, 15]\nclass = I", fillcolor="#e2d2f9"] ;
402 -> 434 ;
435 [label="Type <= 0.562\nentropy = 0.98\nsamples = 12\nvalue = [5, 0, 7]\nclass = I", fillcolor="#dbc6f8"] ;
434 -> 435 ;
436 [label="Diameter <= 0.133\nentropy = 0.881\nsamples = 10\nvalue = [3, 0, 7]\nclass = I", fillcolor="#b78ef0"] ;
435 -> 436 ;
437 [label="entropy = 0.0\nsamples = 6\nvalue = [0, 0, 6]\nclass = I", fillcolor="#8139e5"] ;
436 -> 437 ;
438 [label="Height <= 0.793\nentropy = 0.811\nsamples = 4\nvalue = [3, 0, 1]\nclass = M", fillcolor="#eeab7b"] ;
436 -> 438 ;
439 [label="entropy = 0.0\nsamples = 3\nvalue = [3, 0, 0]\nclass = M", fillcolor="#e58139"] ;
438 -> 439 ;
440 [label="entropy = 0.0\nsamples = 1\nvalue = [0, 0, 1]\nclass = I", fillcolor="#8139e5"] ;
438 -> 440 ;
441 [label="entropy = 0.0\nsamples = 2\nvalue = [2, 0, 0]\nclass = M", fillcolor="#e58139"] ;
435 -> 441 ;
442 [label="ShuckedWeight <= 0.174\nentropy = 1.559\nsamples = 20\nvalue = [5, 7, 8]\nclass = I", fillcolor="#f5f0fd"] ;
434 -> 442 ;
443 [label="VisceraWeight <= 0.21\nentropy = 0.65\nsamples = 6\nvalue = [0, 1, 5]\nclass = I", fillcolor="#9a61ea"] ;
442 -> 443 ;
444 [label="entropy = 0.0\nsamples = 1\nvalue = [0, 1, 0]\nclass = F", fillcolor="#39e581"] ;
443 -> 444 ;
445 [label="entropy = 0.0\nsamples = 5\nvalue = [0, 0, 5]\nclass = I", fillcolor="#8139e5"] ;
443 -> 445 ;
446 [label="Diameter <= 0.142\nentropy = 1.531\nsamples = 14\nvalue = [5, 6, 3]\nclass = F", fillcolor="#e9fcf1"] ;
442 -> 446 ;
447 [label="Type <= 0.532\nentropy = 1.0\nsamples = 8\nvalue = [4, 4, 0]\nclass = M", fillcolor="#ffffff"] ;
446 -> 447 ;
448 [label="entropy = 0.0\nsamples = 3\nvalue = [3, 0, 0]\nclass = M", fillcolor="#e58139"] ;
447 -> 448 ;
449 [label="LongestShell <= 0.44\nentropy = 0.722\nsamples = 5\nvalue = [1, 4, 0]\nclass = F", fillcolor="#6aeca0"] ;
447 -> 449 ;
450 [label="entropy = 0.0\nsamples = 4\nvalue = [0, 4, 0]\nclass = F", fillcolor="#39e581"] ;
449 -> 450 ;
451 [label="entropy = 0.0\nsamples = 1\nvalue = [1, 0, 0]\nclass = M", fillcolor="#e58139"] ;
449 -> 451 ;
452 [label="VisceraWeight <= 0.245\nentropy = 1.459\nsamples = 6\nvalue = [1, 2, 3]\nclass = I", fillcolor="#e0cef8"] ;
446 -> 452 ;
453 [label="LongestShell <= 0.44\nentropy = 0.971\nsamples = 5\nvalue = [0, 2, 3]\nclass = I", fillcolor="#d5bdf6"] ;
452 -> 453 ;
454 [label="Type <= 0.53\nentropy = 0.918\nsamples = 3\nvalue = [0, 2, 1]\nclass = F", fillcolor="#9cf2c0"] ;
453 -> 454 ;
455 [label="entropy = 0.0\nsamples = 1\nvalue = [0, 0, 1]\nclass = I", fillcolor="#8139e5"] ;
454 -> 455 ;
456 [label="entropy = 0.0\nsamples = 2\nvalue = [0, 2, 0]\nclass = F", fillcolor="#39e581"] ;
454 -> 456 ;
457 [label="entropy = 0.0\nsamples = 2\nvalue = [0, 0, 2]\nclass = I", fillcolor="#8139e5"] ;
453 -> 457 ;
458 [label="entropy = 0.0\nsamples = 1\nvalue = [1, 0, 0]\nclass = M", fillcolor="#e58139"] ;
452 -> 458 ;
459 [label="ShellWeight <= 9.5\nentropy = 1.585\nsamples = 705\nvalue = [229, 234, 242]\nclass = I", fillcolor="#fdfcff"] ;
1 -> 459 ;
460 [label="WholeWeight <= 0.142\nentropy = 1.517\nsamples = 249\nvalue = [54, 116, 79]\nclass = F", fillcolor="#d4f9e4"] ;
459 -> 460 ;
461 [label="VisceraWeight <= 0.082\nentropy = 1.271\nsamples = 35\nvalue = [3, 11, 21]\nclass = I", fillcolor="#caacf4"] ;
460 -> 461 ;
462 [label="ShuckedWeight <= 0.059\nentropy = 1.422\nsamples = 23\nvalue = [3, 9, 11]\nclass = I", fillcolor="#ede3fb"] ;
461 -> 462 ;
463 [label="ShuckedWeight <= 0.048\nentropy = 1.406\nsamples = 20\nvalue = [3, 6, 11]\nclass = I", fillcolor="#d2b8f6"] ;
462 -> 463 ;
464 [label="Type <= 0.355\nentropy = 0.961\nsamples = 13\nvalue = [0, 5, 8]\nclass = I", fillcolor="#d0b5f5"] ;
463 -> 464 ;
465 [label="Height <= 0.185\nentropy = 0.845\nsamples = 11\nvalue = [0, 3, 8]\nclass = I", fillcolor="#b083ef"] ;
464 -> 465 ;
466 [label="WholeWeight <= 0.053\nentropy = 1.0\nsamples = 6\nvalue = [0, 3, 3]\nclass = F", fillcolor="#ffffff"] ;
465 -> 466 ;
467 [label="entropy = 0.0\nsamples = 3\nvalue = [0, 0, 3]\nclass = I", fillcolor="#8139e5"] ;
466 -> 467 ;
468 [label="entropy = 0.0\nsamples = 3\nvalue = [0, 3, 0]\nclass = F", fillcolor="#39e581"] ;
466 -> 468 ;
469 [label="entropy = 0.0\nsamples = 5\nvalue = [0, 0, 5]\nclass = I", fillcolor="#8139e5"] ;
465 -> 469 ;
470 [label="entropy = 0.0\nsamples = 2\nvalue = [0, 2, 0]\nclass = F", fillcolor="#39e581"] ;
464 -> 470 ;
471 [label="VisceraWeight <= 0.078\nentropy = 1.449\nsamples = 7\nvalue = [3, 1, 3]\nclass = M", fillcolor="#ffffff"] ;
463 -> 471 ;
472 [label="LongestShell <= 0.265\nentropy = 1.0\nsamples = 6\nvalue = [3, 0, 3]\nclass = M", fillcolor="#ffffff"] ;
471 -> 472 ;
473 [label="entropy = 0.0\nsamples = 2\nvalue = [2, 0, 0]\nclass = M", fillcolor="#e58139"] ;
472 -> 473 ;
474 [label="Height <= 0.242\nentropy = 0.811\nsamples = 4\nvalue = [1, 0, 3]\nclass = I", fillcolor="#ab7bee"] ;
472 -> 474 ;
475 [label="entropy = 0.0\nsamples = 3\nvalue = [0, 0, 3]\nclass = I", fillcolor="#8139e5"] ;
474 -> 475 ;
476 [label="entropy = 0.0\nsamples = 1\nvalue = [1, 0, 0]\nclass = M", fillcolor="#e58139"] ;
474 -> 476 ;
477 [label="entropy = 0.0\nsamples = 1\nvalue = [0, 1, 0]\nclass = F", fillcolor="#39e581"] ;
471 -> 477 ;
478 [label="entropy = 0.0\nsamples = 3\nvalue = [0, 3, 0]\nclass = F", fillcolor="#39e581"] ;
462 -> 478 ;
479 [label="VisceraWeight <= 0.112\nentropy = 0.65\nsamples = 12\nvalue = [0, 2, 10]\nclass = I", fillcolor="#9a61ea"] ;
461 -> 479 ;
480 [label="entropy = 0.0\nsamples = 8\nvalue = [0, 0, 8]\nclass = I", fillcolor="#8139e5"] ;
479 -> 480 ;
481 [label="Height <= 0.383\nentropy = 1.0\nsamples = 4\nvalue = [0, 2, 2]\nclass = F", fillcolor="#ffffff"] ;
479 -> 481 ;
482 [label="entropy = 0.0\nsamples = 2\nvalue = [0, 2, 0]\nclass = F", fillcolor="#39e581"] ;
481 -> 482 ;
483 [label="entropy = 0.0\nsamples = 2\nvalue = [0, 0, 2]\nclass = I", fillcolor="#8139e5"] ;
481 -> 483 ;
484 [label="Type <= 0.577\nentropy = 1.508\nsamples = 214\nvalue = [51, 105, 58]\nclass = F", fillcolor="#c3f7d9"] ;
460 -> 484 ;
485 [label="Height <= 0.783\nentropy = 1.523\nsamples = 207\nvalue = [51, 98, 58]\nclass = F", fillcolor="#caf8dd"] ;
484 -> 485 ;
486 [label="Type <= 0.543\nentropy = 1.496\nsamples = 193\nvalue = [45, 97, 51]\nclass = F", fillcolor="#bff7d6"] ;
485 -> 486 ;
487 [label="Diameter <= 0.148\nentropy = 1.505\nsamples = 171\nvalue = [37, 83, 51]\nclass = F", fillcolor="#caf8dd"] ;
486 -> 487 ;
488 [label="Diameter <= 0.138\nentropy = 1.464\nsamples = 160\nvalue = [29, 82, 49]\nclass = F", fillcolor="#c4f7da"] ;
487 -> 488 ;
489 [label="ShuckedWeight <= 0.127\nentropy = 1.486\nsamples = 141\nvalue = [29, 71, 41]\nclass = F", fillcolor="#c4f7d9"] ;
488 -> 489 ;
490 [label="Type <= 0.472\nentropy = 1.371\nsamples = 91\nvalue = [15, 54, 22]\nclass = F", fillcolor="#a3f3c5"] ;
489 -> 490 ;
491 [label="WholeWeight <= 0.224\nentropy = 1.555\nsamples = 49\nvalue = [13, 21, 15]\nclass = F", fillcolor="#dcfae9"] ;
490 -> 491 ;
492 [label="ShuckedWeight <= 0.089\nentropy = 1.527\nsamples = 45\nvalue = [13, 21, 11]\nclass = F", fillcolor="#cef8e0"] ;
491 -> 492 ;
493 [label="Height <= 0.381\nentropy = 1.236\nsamples = 20\nvalue = [2, 13, 5]\nclass = F", fillcolor="#95f1bc"] ;
492 -> 493 ;
494 [label="Diameter <= 0.107\nentropy = 1.157\nsamples = 10\nvalue = [2, 7, 1]\nclass = F", fillcolor="#83efb0"] ;
493 -> 494 ;
495 [label="WholeWeight <= 0.146\nentropy = 0.65\nsamples = 6\nvalue = [0, 5, 1]\nclass = F", fillcolor="#61ea9a"] ;
494 -> 495 ;
496 [label="Type <= 0.372\nentropy = 1.0\nsamples = 2\nvalue = [0, 1, 1]\nclass = F", fillcolor="#ffffff"] ;
495 -> 496 ;
497 [label="entropy = 0.0\nsamples = 1\nvalue = [0, 1, 0]\nclass = F", fillcolor="#39e581"] ;
496 -> 497 ;
498 [label="entropy = 0.0\nsamples = 1\nvalue = [0, 0, 1]\nclass = I", fillcolor="#8139e5"] ;
496 -> 498 ;
499 [label="entropy = 0.0\nsamples = 4\nvalue = [0, 4, 0]\nclass = F", fillcolor="#39e581"] ;
495 -> 499 ;
500 [label="Diameter <= 0.113\nentropy = 1.0\nsamples = 4\nvalue = [2, 2, 0]\nclass = M", fillcolor="#ffffff"] ;
494 -> 500 ;
501 [label="entropy = 0.0\nsamples = 2\nvalue = [2, 0, 0]\nclass = M", fillcolor="#e58139"] ;
500 -> 501 ;
502 [label="entropy = 0.0\nsamples = 2\nvalue = [0, 2, 0]\nclass = F", fillcolor="#39e581"] ;
500 -> 502 ;
503 [label="LongestShell <= 0.325\nentropy = 0.971\nsamples = 10\nvalue = [0, 6, 4]\nclass = F", fillcolor="#bdf6d5"] ;
493 -> 503 ;
504 [label="entropy = 0.0\nsamples = 2\nvalue = [0, 0, 2]\nclass = I", fillcolor="#8139e5"] ;
503 -> 504 ;
505 [label="WholeWeight <= 0.15\nentropy = 0.811\nsamples = 8\nvalue = [0, 6, 2]\nclass = F", fillcolor="#7beeab"] ;
503 -> 505 ;
506 [label="entropy = 0.0\nsamples = 1\nvalue = [0, 0, 1]\nclass = I", fillcolor="#8139e5"] ;
505 -> 506 ;
507 [label="Height <= 0.453\nentropy = 0.592\nsamples = 7\nvalue = [0, 6, 1]\nclass = F", fillcolor="#5ae996"] ;
505 -> 507 ;
508 [label="entropy = 0.0\nsamples = 6\nvalue = [0, 6, 0]\nclass = F", fillcolor="#39e581"] ;
507 -> 508 ;
509 [label="entropy = 0.0\nsamples = 1\nvalue = [0, 0, 1]\nclass = I", fillcolor="#8139e5"] ;
507 -> 509 ;
510 [label="LongestShell <= 0.368\nentropy = 1.541\nsamples = 25\nvalue = [11, 8, 6]\nclass = M", fillcolor="#fae9dc"] ;
492 -> 510 ;
511 [label="VisceraWeight <= 0.153\nentropy = 1.497\nsamples = 22\nvalue = [11, 5, 6]\nclass = M", fillcolor="#f7d8c1"] ;
510 -> 511 ;
512 [label="LongestShell <= 0.347\nentropy = 1.415\nsamples = 18\nvalue = [10, 5, 3]\nclass = M", fillcolor="#f5cfb3"] ;
511 -> 512 ;
513 [label="LongestShell <= 0.333\nentropy = 1.295\nsamples = 10\nvalue = [6, 1, 3]\nclass = M", fillcolor="#f4c9aa"] ;
512 -> 513 ;
514 [label="Height <= 0.409\nentropy = 0.722\nsamples = 5\nvalue = [4, 1, 0]\nclass = M", fillcolor="#eca06a"] ;
513 -> 514 ;
515 [label="VisceraWeight <= 0.105\nentropy = 1.0\nsamples = 2\nvalue = [1, 1, 0]\nclass = M", fillcolor="#ffffff"] ;
514 -> 515 ;
516 [label="entropy = 0.0\nsamples = 1\nvalue = [1, 0, 0]\nclass = M", fillcolor="#e58139"] ;
515 -> 516 ;
517 [label="entropy = 0.0\nsamples = 1\nvalue = [0, 1, 0]\nclass = F", fillcolor="#39e581"] ;
515 -> 517 ;
518 [label="entropy = 0.0\nsamples = 3\nvalue = [3, 0, 0]\nclass = M", fillcolor="#e58139"] ;
514 -> 518 ;
519 [label="Type <= 0.447\nentropy = 0.971\nsamples = 5\nvalue = [2, 0, 3]\nclass = I", fillcolor="#d5bdf6"] ;
513 -> 519 ;
520 [label="entropy = 0.0\nsamples = 3\nvalue = [0, 0, 3]\nclass = I", fillcolor="#8139e5"] ;
519 -> 520 ;
521 [label="entropy = 0.0\nsamples = 2\nvalue = [2, 0, 0]\nclass = M", fillcolor="#e58139"] ;
519 -> 521 ;
522 [label="VisceraWeight <= 0.133\nentropy = 1.0\nsamples = 8\nvalue = [4, 4, 0]\nclass = M", fillcolor="#ffffff"] ;
512 -> 522 ;
523 [label="entropy = 0.0\nsamples = 3\nvalue = [0, 3, 0]\nclass = F", fillcolor="#39e581"] ;
522 -> 523 ;
524 [label="WholeWeight <= 0.154\nentropy = 0.722\nsamples = 5\nvalue = [4, 1, 0]\nclass = M", fillcolor="#eca06a"] ;
522 -> 524 ;
525 [label="entropy = 0.0\nsamples = 1\nvalue = [0, 1, 0]\nclass = F", fillcolor="#39e581"] ;
524 -> 525 ;
526 [label="entropy = 0.0\nsamples = 4\nvalue = [4, 0, 0]\nclass = M", fillcolor="#e58139"] ;
524 -> 526 ;
527 [label="Height <= 0.517\nentropy = 0.811\nsamples = 4\nvalue = [1, 0, 3]\nclass = I", fillcolor="#ab7bee"] ;
511 -> 527 ;
528 [label="entropy = 0.0\nsamples = 3\nvalue = [0, 0, 3]\nclass = I", fillcolor="#8139e5"] ;
527 -> 528 ;
529 [label="entropy = 0.0\nsamples = 1\nvalue = [1, 0, 0]\nclass = M", fillcolor="#e58139"] ;
527 -> 529 ;
530 [label="entropy = 0.0\nsamples = 3\nvalue = [0, 3, 0]\nclass = F", fillcolor="#39e581"] ;
510 -> 530 ;
531 [label="entropy = 0.0\nsamples = 4\nvalue = [0, 0, 4]\nclass = I", fillcolor="#8139e5"] ;
491 -> 531 ;
532 [label="ShuckedWeight <= 0.105\nentropy = 0.913\nsamples = 42\nvalue = [2, 33, 7]\nclass = F", fillcolor="#6ceca1"] ;
490 -> 532 ;
533 [label="entropy = 0.0\nsamples = 15\nvalue = [0, 15, 0]\nclass = F", fillcolor="#39e581"] ;
532 -> 533 ;
534 [label="Type <= 0.507\nentropy = 1.173\nsamples = 27\nvalue = [2, 18, 7]\nclass = F", fillcolor="#92f1ba"] ;
532 -> 534 ;
535 [label="Height <= 0.569\nentropy = 1.419\nsamples = 16\nvalue = [2, 7, 7]\nclass = F", fillcolor="#ffffff"] ;
534 -> 535 ;
536 [label="VisceraWeight <= 0.144\nentropy = 1.42\nsamples = 13\nvalue = [2, 7, 4]\nclass = F", fillcolor="#bdf6d5"] ;
535 -> 536 ;
537 [label="entropy = 0.0\nsamples = 3\nvalue = [0, 3, 0]\nclass = F", fillcolor="#39e581"] ;
536 -> 537 ;
538 [label="VisceraWeight <= 0.168\nentropy = 1.522\nsamples = 10\nvalue = [2, 4, 4]\nclass = F", fillcolor="#ffffff"] ;
536 -> 538 ;
539 [label="ShuckedWeight <= 0.106\nentropy = 1.252\nsamples = 6\nvalue = [1, 1, 4]\nclass = I", fillcolor="#b388ef"] ;
538 -> 539 ;
540 [label="WholeWeight <= 0.226\nentropy = 1.0\nsamples = 2\nvalue = [1, 1, 0]\nclass = M", fillcolor="#ffffff"] ;
539 -> 540 ;
541 [label="entropy = 0.0\nsamples = 1\nvalue = [1, 0, 0]\nclass = M", fillcolor="#e58139"] ;
540 -> 541 ;
542 [label="entropy = 0.0\nsamples = 1\nvalue = [0, 1, 0]\nclass = F", fillcolor="#39e581"] ;
540 -> 542 ;
543 [label="entropy = 0.0\nsamples = 4\nvalue = [0, 0, 4]\nclass = I", fillcolor="#8139e5"] ;
539 -> 543 ;
544 [label="Diameter <= 0.11\nentropy = 0.811\nsamples = 4\nvalue = [1, 3, 0]\nclass = F", fillcolor="#7beeab"] ;
538 -> 544 ;
545 [label="entropy = 0.0\nsamples = 1\nvalue = [1, 0, 0]\nclass = M", fillcolor="#e58139"] ;
544 -> 545 ;
546 [label="entropy = 0.0\nsamples = 3\nvalue = [0, 3, 0]\nclass = F", fillcolor="#39e581"] ;
544 -> 546 ;
547 [label="entropy = 0.0\nsamples = 3\nvalue = [0, 0, 3]\nclass = I", fillcolor="#8139e5"] ;
535 -> 547 ;
548 [label="entropy = 0.0\nsamples = 11\nvalue = [0, 11, 0]\nclass = F", fillcolor="#39e581"] ;
534 -> 548 ;
549 [label="Type <= 0.517\nentropy = 1.574\nsamples = 50\nvalue = [14, 17, 19]\nclass = I", fillcolor="#f7f3fd"] ;
489 -> 549 ;
550 [label="WholeWeight <= 0.288\nentropy = 1.469\nsamples = 31\nvalue = [9, 6, 16]\nclass = I", fillcolor="#d7c0f7"] ;
549 -> 550 ;
551 [label="ShuckedWeight <= 0.133\nentropy = 1.581\nsamples = 19\nvalue = [7, 6, 6]\nclass = M", fillcolor="#fdf5f0"] ;
550 -> 551 ;
552 [label="LongestShell <= 0.398\nentropy = 0.722\nsamples = 5\nvalue = [4, 0, 1]\nclass = M", fillcolor="#eca06a"] ;
551 -> 552 ;
553 [label="entropy = 0.0\nsamples = 3\nvalue = [3, 0, 0]\nclass = M", fillcolor="#e58139"] ;
552 -> 553 ;
554 [label="ShuckedWeight <= 0.127\nentropy = 1.0\nsamples = 2\nvalue = [1, 0, 1]\nclass = M", fillcolor="#ffffff"] ;
552 -> 554 ;
555 [label="entropy = 0.0\nsamples = 1\nvalue = [1, 0, 0]\nclass = M", fillcolor="#e58139"] ;
554 -> 555 ;
556 [label="entropy = 0.0\nsamples = 1\nvalue = [0, 0, 1]\nclass = I", fillcolor="#8139e5"] ;
554 -> 556 ;
557 [label="WholeWeight <= 0.233\nentropy = 1.531\nsamples = 14\nvalue = [3, 6, 5]\nclass = F", fillcolor="#e9fcf1"] ;
551 -> 557 ;
558 [label="WholeWeight <= 0.179\nentropy = 1.459\nsamples = 6\nvalue = [3, 2, 1]\nclass = M", fillcolor="#f8e0ce"] ;
557 -> 558 ;
559 [label="entropy = 0.0\nsamples = 1\nvalue = [0, 0, 1]\nclass = I", fillcolor="#8139e5"] ;
558 -> 559 ;
560 [label="Height <= 0.576\nentropy = 0.971\nsamples = 5\nvalue = [3, 2, 0]\nclass = M", fillcolor="#f6d5bd"] ;
558 -> 560 ;
561 [label="WholeWeight <= 0.225\nentropy = 0.918\nsamples = 3\nvalue = [1, 2, 0]\nclass = F", fillcolor="#9cf2c0"] ;
560 -> 561 ;
562 [label="entropy = 0.0\nsamples = 2\nvalue = [0, 2, 0]\nclass = F", fillcolor="#39e581"] ;
561 -> 562 ;
563 [label="entropy = 0.0\nsamples = 1\nvalue = [1, 0, 0]\nclass = M", fillcolor="#e58139"] ;
561 -> 563 ;
564 [label="entropy = 0.0\nsamples = 2\nvalue = [2, 0, 0]\nclass = M", fillcolor="#e58139"] ;
560 -> 564 ;
565 [label="LongestShell <= 0.385\nentropy = 1.0\nsamples = 8\nvalue = [0, 4, 4]\nclass = F", fillcolor="#ffffff"] ;
557 -> 565 ;
566 [label="entropy = 0.0\nsamples = 2\nvalue = [0, 0, 2]\nclass = I", fillcolor="#8139e5"] ;
565 -> 566 ;
567 [label="ShuckedWeight <= 0.137\nentropy = 0.918\nsamples = 6\nvalue = [0, 4, 2]\nclass = F", fillcolor="#9cf2c0"] ;
565 -> 567 ;
568 [label="WholeWeight <= 0.236\nentropy = 0.918\nsamples = 3\nvalue = [0, 1, 2]\nclass = I", fillcolor="#c09cf2"] ;
567 -> 568 ;
569 [label="entropy = 0.0\nsamples = 1\nvalue = [0, 1, 0]\nclass = F", fillcolor="#39e581"] ;
568 -> 569 ;
570 [label="entropy = 0.0\nsamples = 2\nvalue = [0, 0, 2]\nclass = I", fillcolor="#8139e5"] ;
568 -> 570 ;
571 [label="entropy = 0.0\nsamples = 3\nvalue = [0, 3, 0]\nclass = F", fillcolor="#39e581"] ;
567 -> 571 ;
572 [label="ShuckedWeight <= 0.141\nentropy = 0.65\nsamples = 12\nvalue = [2, 0, 10]\nclass = I", fillcolor="#9a61ea"] ;
550 -> 572 ;
573 [label="Height <= 0.664\nentropy = 1.0\nsamples = 4\nvalue = [2, 0, 2]\nclass = M", fillcolor="#ffffff"] ;
572 -> 573 ;
574 [label="entropy = 0.0\nsamples = 2\nvalue = [0, 0, 2]\nclass = I", fillcolor="#8139e5"] ;
573 -> 574 ;
575 [label="entropy = 0.0\nsamples = 2\nvalue = [2, 0, 0]\nclass = M", fillcolor="#e58139"] ;
573 -> 575 ;
576 [label="entropy = 0.0\nsamples = 8\nvalue = [0, 0, 8]\nclass = I", fillcolor="#8139e5"] ;
572 -> 576 ;
577 [label="VisceraWeight <= 0.185\nentropy = 1.384\nsamples = 19\nvalue = [5, 11, 3]\nclass = F", fillcolor="#aaf4c9"] ;
549 -> 577 ;
578 [label="ShuckedWeight <= 0.146\nentropy = 0.971\nsamples = 5\nvalue = [0, 3, 2]\nclass = F", fillcolor="#bdf6d5"] ;
577 -> 578 ;
579 [label="entropy = 0.0\nsamples = 2\nvalue = [0, 2, 0]\nclass = F", fillcolor="#39e581"] ;
578 -> 579 ;
580 [label="LongestShell <= 0.395\nentropy = 0.918\nsamples = 3\nvalue = [0, 1, 2]\nclass = I", fillcolor="#c09cf2"] ;
578 -> 580 ;
581 [label="entropy = 0.0\nsamples = 1\nvalue = [0, 1, 0]\nclass = F", fillcolor="#39e581"] ;
580 -> 581 ;
582 [label="entropy = 0.0\nsamples = 2\nvalue = [0, 0, 2]\nclass = I", fillcolor="#8139e5"] ;
580 -> 582 ;
583 [label="LongestShell <= 0.422\nentropy = 1.264\nsamples = 14\nvalue = [5, 8, 1]\nclass = F", fillcolor="#bdf6d5"] ;
577 -> 583 ;
584 [label="VisceraWeight <= 0.2\nentropy = 1.0\nsamples = 10\nvalue = [5, 5, 0]\nclass = M", fillcolor="#ffffff"] ;
583 -> 584 ;
585 [label="ShuckedWeight <= 0.156\nentropy = 0.863\nsamples = 7\nvalue = [2, 5, 0]\nclass = F", fillcolor="#88efb3"] ;
584 -> 585 ;
586 [label="entropy = 0.0\nsamples = 4\nvalue = [0, 4, 0]\nclass = F", fillcolor="#39e581"] ;
585 -> 586 ;
587 [label="LongestShell <= 0.41\nentropy = 0.918\nsamples = 3\nvalue = [2, 1, 0]\nclass = M", fillcolor="#f2c09c"] ;
585 -> 587 ;
588 [label="entropy = 0.0\nsamples = 2\nvalue = [2, 0, 0]\nclass = M", fillcolor="#e58139"] ;
587 -> 588 ;
589 [label="entropy = 0.0\nsamples = 1\nvalue = [0, 1, 0]\nclass = F", fillcolor="#39e581"] ;
587 -> 589 ;
590 [label="entropy = 0.0\nsamples = 3\nvalue = [3, 0, 0]\nclass = M", fillcolor="#e58139"] ;
584 -> 590 ;
591 [label="ShuckedWeight <= 0.141\nentropy = 0.811\nsamples = 4\nvalue = [0, 3, 1]\nclass = F", fillcolor="#7beeab"] ;
583 -> 591 ;
592 [label="entropy = 0.0\nsamples = 1\nvalue = [0, 0, 1]\nclass = I", fillcolor="#8139e5"] ;
591 -> 592 ;
593 [label="entropy = 0.0\nsamples = 3\nvalue = [0, 3, 0]\nclass = F", fillcolor="#39e581"] ;
591 -> 593 ;
594 [label="Type <= 0.522\nentropy = 0.982\nsamples = 19\nvalue = [0, 11, 8]\nclass = F", fillcolor="#c9f8dd"] ;
488 -> 594 ;
595 [label="LongestShell <= 0.407\nentropy = 0.98\nsamples = 12\nvalue = [0, 5, 7]\nclass = I", fillcolor="#dbc6f8"] ;
594 -> 595 ;
596 [label="Height <= 0.597\nentropy = 0.881\nsamples = 10\nvalue = [0, 3, 7]\nclass = I", fillcolor="#b78ef0"] ;
595 -> 596 ;
597 [label="WholeWeight <= 0.221\nentropy = 0.971\nsamples = 5\nvalue = [0, 3, 2]\nclass = F", fillcolor="#bdf6d5"] ;
596 -> 597 ;
598 [label="entropy = 0.0\nsamples = 2\nvalue = [0, 0, 2]\nclass = I", fillcolor="#8139e5"] ;
597 -> 598 ;
599 [label="entropy = 0.0\nsamples = 3\nvalue = [0, 3, 0]\nclass = F", fillcolor="#39e581"] ;
597 -> 599 ;
600 [label="entropy = 0.0\nsamples = 5\nvalue = [0, 0, 5]\nclass = I", fillcolor="#8139e5"] ;
596 -> 600 ;
601 [label="entropy = 0.0\nsamples = 2\nvalue = [0, 2, 0]\nclass = F", fillcolor="#39e581"] ;
595 -> 601 ;
602 [label="WholeWeight <= 0.325\nentropy = 0.592\nsamples = 7\nvalue = [0, 6, 1]\nclass = F", fillcolor="#5ae996"] ;
594 -> 602 ;
603 [label="entropy = 0.0\nsamples = 6\nvalue = [0, 6, 0]\nclass = F", fillcolor="#39e581"] ;
602 -> 603 ;
604 [label="entropy = 0.0\nsamples = 1\nvalue = [0, 0, 1]\nclass = I", fillcolor="#8139e5"] ;
602 -> 604 ;
605 [label="ShuckedWeight <= 0.15\nentropy = 1.096\nsamples = 11\nvalue = [8, 1, 2]\nclass = M", fillcolor="#eeab7b"] ;
487 -> 605 ;
606 [label="LongestShell <= 0.385\nentropy = 1.522\nsamples = 5\nvalue = [2, 1, 2]\nclass = M", fillcolor="#ffffff"] ;
605 -> 606 ;
607 [label="entropy = 0.0\nsamples = 2\nvalue = [2, 0, 0]\nclass = M", fillcolor="#e58139"] ;
606 -> 607 ;
608 [label="Height <= 0.721\nentropy = 0.918\nsamples = 3\nvalue = [0, 1, 2]\nclass = I", fillcolor="#c09cf2"] ;
606 -> 608 ;
609 [label="entropy = 0.0\nsamples = 2\nvalue = [0, 0, 2]\nclass = I", fillcolor="#8139e5"] ;
608 -> 609 ;
610 [label="entropy = 0.0\nsamples = 1\nvalue = [0, 1, 0]\nclass = F", fillcolor="#39e581"] ;
608 -> 610 ;
611 [label="entropy = 0.0\nsamples = 6\nvalue = [6, 0, 0]\nclass = M", fillcolor="#e58139"] ;
605 -> 611 ;
612 [label="Type <= 0.553\nentropy = 0.946\nsamples = 22\nvalue = [8, 14, 0]\nclass = F", fillcolor="#aaf4c9"] ;
486 -> 612 ;
613 [label="ShuckedWeight <= 0.156\nentropy = 0.946\nsamples = 11\nvalue = [7, 4, 0]\nclass = M", fillcolor="#f4c9aa"] ;
612 -> 613 ;
614 [label="Diameter <= 0.127\nentropy = 0.722\nsamples = 5\nvalue = [1, 4, 0]\nclass = F", fillcolor="#6aeca0"] ;
613 -> 614 ;
615 [label="entropy = 0.0\nsamples = 1\nvalue = [1, 0, 0]\nclass = M", fillcolor="#e58139"] ;
614 -> 615 ;
616 [label="entropy = 0.0\nsamples = 4\nvalue = [0, 4, 0]\nclass = F", fillcolor="#39e581"] ;
614 -> 616 ;
617 [label="entropy = 0.0\nsamples = 6\nvalue = [6, 0, 0]\nclass = M", fillcolor="#e58139"] ;
613 -> 617 ;
618 [label="LongestShell <= 0.453\nentropy = 0.439\nsamples = 11\nvalue = [1, 10, 0]\nclass = F", fillcolor="#4de88e"] ;
612 -> 618 ;
619 [label="entropy = 0.0\nsamples = 10\nvalue = [0, 10, 0]\nclass = F", fillcolor="#39e581"] ;
618 -> 619 ;
620 [label="entropy = 0.0\nsamples = 1\nvalue = [1, 0, 0]\nclass = M", fillcolor="#e58139"] ;
618 -> 620 ;
621 [label="Height <= 0.795\nentropy = 1.296\nsamples = 14\nvalue = [6, 1, 7]\nclass = I", fillcolor="#efe6fc"] ;
485 -> 621 ;
622 [label="Height <= 0.784\nentropy = 0.592\nsamples = 7\nvalue = [1, 0, 6]\nclass = I", fillcolor="#965ae9"] ;
621 -> 622 ;
623 [label="entropy = 0.0\nsamples = 1\nvalue = [1, 0, 0]\nclass = M", fillcolor="#e58139"] ;
622 -> 623 ;
624 [label="entropy = 0.0\nsamples = 6\nvalue = [0, 0, 6]\nclass = I", fillcolor="#8139e5"] ;
622 -> 624 ;
625 [label="Diameter <= 0.115\nentropy = 1.149\nsamples = 7\nvalue = [5, 1, 1]\nclass = M", fillcolor="#eeab7b"] ;
621 -> 625 ;
626 [label="entropy = 0.0\nsamples = 1\nvalue = [0, 0, 1]\nclass = I", fillcolor="#8139e5"] ;
625 -> 626 ;
627 [label="LongestShell <= 0.442\nentropy = 0.65\nsamples = 6\nvalue = [5, 1, 0]\nclass = M", fillcolor="#ea9a61"] ;
625 -> 627 ;
628 [label="entropy = 0.0\nsamples = 5\nvalue = [5, 0, 0]\nclass = M", fillcolor="#e58139"] ;
627 -> 628 ;
629 [label="entropy = 0.0\nsamples = 1\nvalue = [0, 1, 0]\nclass = F", fillcolor="#39e581"] ;
627 -> 629 ;
630 [label="entropy = 0.0\nsamples = 7\nvalue = [0, 7, 0]\nclass = F", fillcolor="#39e581"] ;
484 -> 630 ;
631 [label="Type <= 0.358\nentropy = 1.565\nsamples = 456\nvalue = [175, 118, 163]\nclass = M", fillcolor="#fefaf7"] ;
459 -> 631 ;
632 [label="ShuckedWeight <= 0.038\nentropy = 0.764\nsamples = 18\nvalue = [0, 4, 14]\nclass = I", fillcolor="#a572ec"] ;
631 -> 632 ;
633 [label="WholeWeight <= 0.063\nentropy = 0.971\nsamples = 10\nvalue = [0, 4, 6]\nclass = I", fillcolor="#d5bdf6"] ;
632 -> 633 ;
634 [label="entropy = 0.0\nsamples = 5\nvalue = [0, 0, 5]\nclass = I", fillcolor="#8139e5"] ;
633 -> 634 ;
635 [label="VisceraWeight <= 0.057\nentropy = 0.722\nsamples = 5\nvalue = [0, 4, 1]\nclass = F", fillcolor="#6aeca0"] ;
633 -> 635 ;
636 [label="VisceraWeight <= 0.053\nentropy = 1.0\nsamples = 2\nvalue = [0, 1, 1]\nclass = F", fillcolor="#ffffff"] ;
635 -> 636 ;
637 [label="entropy = 0.0\nsamples = 1\nvalue = [0, 1, 0]\nclass = F", fillcolor="#39e581"] ;
636 -> 637 ;
638 [label="entropy = 0.0\nsamples = 1\nvalue = [0, 0, 1]\nclass = I", fillcolor="#8139e5"] ;
636 -> 638 ;
639 [label="entropy = 0.0\nsamples = 3\nvalue = [0, 3, 0]\nclass = F", fillcolor="#39e581"] ;
635 -> 639 ;
640 [label="entropy = 0.0\nsamples = 8\nvalue = [0, 0, 8]\nclass = I", fillcolor="#8139e5"] ;
632 -> 640 ;
641 [label="WholeWeight <= 0.352\nentropy = 1.563\nsamples = 438\nvalue = [175, 114, 149]\nclass = M", fillcolor="#fdf4ed"] ;
631 -> 641 ;
642 [label="Type <= 0.548\nentropy = 1.552\nsamples = 419\nvalue = [172, 101, 146]\nclass = M", fillcolor="#fdf3ec"] ;
641 -> 642 ;
643 [label="VisceraWeight <= 0.197\nentropy = 1.539\nsamples = 380\nvalue = [164, 87, 129]\nclass = M", fillcolor="#fbede3"] ;
642 -> 643 ;
644 [label="Type <= 0.517\nentropy = 1.572\nsamples = 239\nvalue = [93, 67, 79]\nclass = M", fillcolor="#fdf4ee"] ;
643 -> 644 ;
645 [label="VisceraWeight <= 0.173\nentropy = 1.555\nsamples = 214\nvalue = [86, 52, 76]\nclass = M", fillcolor="#fdf6f1"] ;
644 -> 645 ;
646 [label="Diameter <= 0.088\nentropy = 1.577\nsamples = 157\nvalue = [60, 47, 50]\nclass = M", fillcolor="#fdf3ec"] ;
645 -> 646 ;
647 [label="entropy = 0.0\nsamples = 3\nvalue = [0, 0, 3]\nclass = I", fillcolor="#8139e5"] ;
646 -> 647 ;
648 [label="VisceraWeight <= 0.142\nentropy = 1.575\nsamples = 154\nvalue = [60, 47, 47]\nclass = M", fillcolor="#fcf0e7"] ;
646 -> 648 ;
649 [label="ShuckedWeight <= 0.106\nentropy = 1.52\nsamples = 83\nvalue = [39, 25, 19]\nclass = M", fillcolor="#f9e1cf"] ;
648 -> 649 ;
650 [label="WholeWeight <= 0.073\nentropy = 1.559\nsamples = 66\nvalue = [28, 19, 19]\nclass = M", fillcolor="#fae7d9"] ;
649 -> 650 ;
651 [label="entropy = 0.0\nsamples = 2\nvalue = [0, 0, 2]\nclass = I", fillcolor="#8139e5"] ;
650 -> 651 ;
652 [label="Height <= 0.232\nentropy = 1.55\nsamples = 64\nvalue = [28, 19, 17]\nclass = M", fillcolor="#fae6d7"] ;
650 -> 652 ;
653 [label="entropy = 0.0\nsamples = 3\nvalue = [3, 0, 0]\nclass = M", fillcolor="#e58139"] ;
652 -> 653 ;
654 [label="ShuckedWeight <= 0.06\nentropy = 1.565\nsamples = 61\nvalue = [25, 19, 17]\nclass = M", fillcolor="#fbede3"] ;
652 -> 654 ;
655 [label="VisceraWeight <= 0.095\nentropy = 1.419\nsamples = 16\nvalue = [2, 7, 7]\nclass = F", fillcolor="#ffffff"] ;
654 -> 655 ;
656 [label="ShuckedWeight <= 0.051\nentropy = 1.299\nsamples = 8\nvalue = [2, 5, 1]\nclass = F", fillcolor="#9cf2c0"] ;
655 -> 656 ;
657 [label="Height <= 0.252\nentropy = 1.0\nsamples = 2\nvalue = [1, 0, 1]\nclass = M", fillcolor="#ffffff"] ;
656 -> 657 ;
658 [label="entropy = 0.0\nsamples = 1\nvalue = [0, 0, 1]\nclass = I", fillcolor="#8139e5"] ;
657 -> 658 ;
659 [label="entropy = 0.0\nsamples = 1\nvalue = [1, 0, 0]\nclass = M", fillcolor="#e58139"] ;
657 -> 659 ;
660 [label="WholeWeight <= 0.131\nentropy = 0.65\nsamples = 6\nvalue = [1, 5, 0]\nclass = F", fillcolor="#61ea9a"] ;
656 -> 660 ;
661 [label="entropy = 0.0\nsamples = 5\nvalue = [0, 5, 0]\nclass = F", fillcolor="#39e581"] ;
660 -> 661 ;
662 [label="entropy = 0.0\nsamples = 1\nvalue = [1, 0, 0]\nclass = M", fillcolor="#e58139"] ;
660 -> 662 ;
663 [label="WholeWeight <= 0.139\nentropy = 0.811\nsamples = 8\nvalue = [0, 2, 6]\nclass = I", fillcolor="#ab7bee"] ;
655 -> 663 ;
664 [label="entropy = 0.0\nsamples = 6\nvalue = [0, 0, 6]\nclass = I", fillcolor="#8139e5"] ;
663 -> 664 ;
665 [label="entropy = 0.0\nsamples = 2\nvalue = [0, 2, 0]\nclass = F", fillcolor="#39e581"] ;
663 -> 665 ;
666 [label="LongestShell <= 0.293\nentropy = 1.486\nsamples = 45\nvalue = [23, 12, 10]\nclass = M", fillcolor="#f6d5bd"] ;
654 -> 666 ;
667 [label="entropy = 0.0\nsamples = 2\nvalue = [0, 0, 2]\nclass = I", fillcolor="#8139e5"] ;
666 -> 667 ;
668 [label="ShuckedWeight <= 0.075\nentropy = 1.448\nsamples = 43\nvalue = [23, 12, 8]\nclass = M", fillcolor="#f6d2b9"] ;
666 -> 668 ;
669 [label="VisceraWeight <= 0.111\nentropy = 0.971\nsamples = 15\nvalue = [9, 6, 0]\nclass = M", fillcolor="#f6d5bd"] ;
668 -> 669 ;
670 [label="Diameter <= 0.102\nentropy = 0.544\nsamples = 8\nvalue = [7, 1, 0]\nclass = M", fillcolor="#e99355"] ;
669 -> 670 ;
671 [label="ShellWeight <= 10.5\nentropy = 0.918\nsamples = 3\nvalue = [2, 1, 0]\nclass = M", fillcolor="#f2c09c"] ;
670 -> 671 ;
672 [label="entropy = 0.0\nsamples = 1\nvalue = [0, 1, 0]\nclass = F", fillcolor="#39e581"] ;
671 -> 672 ;
673 [label="entropy = 0.0\nsamples = 2\nvalue = [2, 0, 0]\nclass = M", fillcolor="#e58139"] ;
671 -> 673 ;
674 [label="entropy = 0.0\nsamples = 5\nvalue = [5, 0, 0]\nclass = M", fillcolor="#e58139"] ;
670 -> 674 ;
675 [label="ShellWeight <= 10.5\nentropy = 0.863\nsamples = 7\nvalue = [2, 5, 0]\nclass = F", fillcolor="#88efb3"] ;
669 -> 675 ;
676 [label="LongestShell <= 0.308\nentropy = 0.918\nsamples = 3\nvalue = [2, 1, 0]\nclass = M", fillcolor="#f2c09c"] ;
675 -> 676 ;
677 [label="entropy = 0.0\nsamples = 1\nvalue = [0, 1, 0]\nclass = F", fillcolor="#39e581"] ;
676 -> 677 ;
678 [label="entropy = 0.0\nsamples = 2\nvalue = [2, 0, 0]\nclass = M", fillcolor="#e58139"] ;
676 -> 678 ;
679 [label="entropy = 0.0\nsamples = 4\nvalue = [0, 4, 0]\nclass = F", fillcolor="#39e581"] ;
675 -> 679 ;
680 [label="Height <= 0.35\nentropy = 1.493\nsamples = 28\nvalue = [14, 6, 8]\nclass = M", fillcolor="#f7d9c4"] ;
668 -> 680 ;
681 [label="ShuckedWeight <= 0.084\nentropy = 0.971\nsamples = 5\nvalue = [0, 2, 3]\nclass = I", fillcolor="#d5bdf6"] ;
680 -> 681 ;
682 [label="Type <= 0.405\nentropy = 0.918\nsamples = 3\nvalue = [0, 2, 1]\nclass = F", fillcolor="#9cf2c0"] ;
681 -> 682 ;
683 [label="entropy = 0.0\nsamples = 1\nvalue = [0, 0, 1]\nclass = I", fillcolor="#8139e5"] ;
682 -> 683 ;
684 [label="entropy = 0.0\nsamples = 2\nvalue = [0, 2, 0]\nclass = F", fillcolor="#39e581"] ;
682 -> 684 ;
685 [label="entropy = 0.0\nsamples = 2\nvalue = [0, 0, 2]\nclass = I", fillcolor="#8139e5"] ;
681 -> 685 ;
686 [label="Diameter <= 0.133\nentropy = 1.353\nsamples = 23\nvalue = [14, 4, 5]\nclass = M", fillcolor="#f2c09c"] ;
680 -> 686 ;
687 [label="ShuckedWeight <= 0.088\nentropy = 1.053\nsamples = 18\nvalue = [13, 1, 4]\nclass = M", fillcolor="#eeae80"] ;
686 -> 687 ;
688 [label="VisceraWeight <= 0.122\nentropy = 1.361\nsamples = 10\nvalue = [5, 1, 4]\nclass = M", fillcolor="#fbeade"] ;
687 -> 688 ;
689 [label="Type <= 0.433\nentropy = 0.811\nsamples = 4\nvalue = [3, 1, 0]\nclass = M", fillcolor="#eeab7b"] ;
688 -> 689 ;
690 [label="entropy = 0.0\nsamples = 3\nvalue = [3, 0, 0]\nclass = M", fillcolor="#e58139"] ;
689 -> 690 ;
691 [label="entropy = 0.0\nsamples = 1\nvalue = [0, 1, 0]\nclass = F", fillcolor="#39e581"] ;
689 -> 691 ;
692 [label="Height <= 0.431\nentropy = 0.918\nsamples = 6\nvalue = [2, 0, 4]\nclass = I", fillcolor="#c09cf2"] ;
688 -> 692 ;
693 [label="entropy = 0.0\nsamples = 4\nvalue = [0, 0, 4]\nclass = I", fillcolor="#8139e5"] ;
692 -> 693 ;
694 [label="entropy = 0.0\nsamples = 2\nvalue = [2, 0, 0]\nclass = M", fillcolor="#e58139"] ;
692 -> 694 ;
695 [label="entropy = 0.0\nsamples = 8\nvalue = [8, 0, 0]\nclass = M", fillcolor="#e58139"] ;
687 -> 695 ;
696 [label="LongestShell <= 0.335\nentropy = 1.371\nsamples = 5\nvalue = [1, 3, 1]\nclass = F", fillcolor="#9cf2c0"] ;
686 -> 696 ;
697 [label="entropy = 0.0\nsamples = 1\nvalue = [1, 0, 0]\nclass = M", fillcolor="#e58139"] ;
696 -> 697 ;
698 [label="VisceraWeight <= 0.113\nentropy = 0.811\nsamples = 4\nvalue = [0, 3, 1]\nclass = F", fillcolor="#7beeab"] ;
696 -> 698 ;
699 [label="entropy = 0.0\nsamples = 1\nvalue = [0, 0, 1]\nclass = I", fillcolor="#8139e5"] ;
698 -> 699 ;
700 [label="entropy = 0.0\nsamples = 3\nvalue = [0, 3, 0]\nclass = F", fillcolor="#39e581"] ;
698 -> 700 ;
701 [label="LongestShell <= 0.347\nentropy = 0.937\nsamples = 17\nvalue = [11, 6, 0]\nclass = M", fillcolor="#f3c6a5"] ;
649 -> 701 ;
702 [label="entropy = 0.0\nsamples = 7\nvalue = [7, 0, 0]\nclass = M", fillcolor="#e58139"] ;
701 -> 702 ;
703 [label="ShuckedWeight <= 0.138\nentropy = 0.971\nsamples = 10\nvalue = [4, 6, 0]\nclass = F", fillcolor="#bdf6d5"] ;
701 -> 703 ;
704 [label="Type <= 0.458\nentropy = 0.811\nsamples = 8\nvalue = [2, 6, 0]\nclass = F", fillcolor="#7beeab"] ;
703 -> 704 ;
705 [label="Type <= 0.453\nentropy = 1.0\nsamples = 4\nvalue = [2, 2, 0]\nclass = M", fillcolor="#ffffff"] ;
704 -> 705 ;
706 [label="entropy = 0.0\nsamples = 2\nvalue = [0, 2, 0]\nclass = F", fillcolor="#39e581"] ;
705 -> 706 ;
707 [label="entropy = 0.0\nsamples = 2\nvalue = [2, 0, 0]\nclass = M", fillcolor="#e58139"] ;
705 -> 707 ;
708 [label="entropy = 0.0\nsamples = 4\nvalue = [0, 4, 0]\nclass = F", fillcolor="#39e581"] ;
704 -> 708 ;
709 [label="entropy = 0.0\nsamples = 2\nvalue = [2, 0, 0]\nclass = M", fillcolor="#e58139"] ;
703 -> 709 ;
710 [label="ShuckedWeight <= 0.081\nentropy = 1.573\nsamples = 71\nvalue = [21, 22, 28]\nclass = I", fillcolor="#f0e7fc"] ;
648 -> 710 ;
711 [label="Height <= 0.458\nentropy = 0.918\nsamples = 6\nvalue = [0, 4, 2]\nclass = F", fillcolor="#9cf2c0"] ;
710 -> 711 ;
712 [label="entropy = 0.0\nsamples = 4\nvalue = [0, 4, 0]\nclass = F", fillcolor="#39e581"] ;
711 -> 712 ;
713 [label="entropy = 0.0\nsamples = 2\nvalue = [0, 0, 2]\nclass = I", fillcolor="#8139e5"] ;
711 -> 713 ;
714 [label="Type <= 0.468\nentropy = 1.568\nsamples = 65\nvalue = [21, 18, 26]\nclass = I", fillcolor="#f1e8fc"] ;
710 -> 714 ;
715 [label="WholeWeight <= 0.19\nentropy = 1.314\nsamples = 29\nvalue = [9, 3, 17]\nclass = I", fillcolor="#cdb0f5"] ;
714 -> 715 ;
716 [label="Diameter <= 0.145\nentropy = 0.811\nsamples = 16\nvalue = [4, 0, 12]\nclass = I", fillcolor="#ab7bee"] ;
715 -> 716 ;
717 [label="VisceraWeight <= 0.148\nentropy = 0.592\nsamples = 14\nvalue = [2, 0, 12]\nclass = I", fillcolor="#965ae9"] ;
716 -> 717 ;
718 [label="WholeWeight <= 0.177\nentropy = 0.918\nsamples = 6\nvalue = [2, 0, 4]\nclass = I", fillcolor="#c09cf2"] ;
717 -> 718 ;
719 [label="entropy = 0.0\nsamples = 4\nvalue = [0, 0, 4]\nclass = I", fillcolor="#8139e5"] ;
718 -> 719 ;
720 [label="entropy = 0.0\nsamples = 2\nvalue = [2, 0, 0]\nclass = M", fillcolor="#e58139"] ;
718 -> 720 ;
721 [label="entropy = 0.0\nsamples = 8\nvalue = [0, 0, 8]\nclass = I", fillcolor="#8139e5"] ;
717 -> 721 ;
722 [label="entropy = 0.0\nsamples = 2\nvalue = [2, 0, 0]\nclass = M", fillcolor="#e58139"] ;
716 -> 722 ;
723 [label="WholeWeight <= 0.2\nentropy = 1.549\nsamples = 13\nvalue = [5, 3, 5]\nclass = M", fillcolor="#ffffff"] ;
715 -> 723 ;
724 [label="Type <= 0.463\nentropy = 0.971\nsamples = 5\nvalue = [2, 3, 0]\nclass = F", fillcolor="#bdf6d5"] ;
723 -> 724 ;
725 [label="entropy = 0.0\nsamples = 3\nvalue = [0, 3, 0]\nclass = F", fillcolor="#39e581"] ;
724 -> 725 ;
726 [label="entropy = 0.0\nsamples = 2\nvalue = [2, 0, 0]\nclass = M", fillcolor="#e58139"] ;
724 -> 726 ;
727 [label="WholeWeight <= 0.219\nentropy = 0.954\nsamples = 8\nvalue = [3, 0, 5]\nclass = I", fillcolor="#cdb0f5"] ;
723 -> 727 ;
728 [label="entropy = 0.0\nsamples = 4\nvalue = [0, 0, 4]\nclass = I", fillcolor="#8139e5"] ;
727 -> 728 ;
729 [label="Diameter <= 0.122\nentropy = 0.811\nsamples = 4\nvalue = [3, 0, 1]\nclass = M", fillcolor="#eeab7b"] ;
727 -> 729 ;
730 [label="entropy = 0.0\nsamples = 1\nvalue = [0, 0, 1]\nclass = I", fillcolor="#8139e5"] ;
729 -> 730 ;
731 [label="entropy = 0.0\nsamples = 3\nvalue = [3, 0, 0]\nclass = M", fillcolor="#e58139"] ;
729 -> 731 ;
732 [label="LongestShell <= 0.352\nentropy = 1.555\nsamples = 36\nvalue = [12, 15, 9]\nclass = F", fillcolor="#e6fcef"] ;
714 -> 732 ;
733 [label="entropy = 0.0\nsamples = 3\nvalue = [0, 3, 0]\nclass = F", fillcolor="#39e581"] ;
732 -> 733 ;
734 [label="Diameter <= 0.127\nentropy = 1.573\nsamples = 33\nvalue = [12, 12, 9]\nclass = M", fillcolor="#ffffff"] ;
732 -> 734 ;
735 [label="WholeWeight <= 0.209\nentropy = 1.366\nsamples = 16\nvalue = [5, 9, 2]\nclass = F", fillcolor="#b7f6d1"] ;
734 -> 735 ;
736 [label="VisceraWeight <= 0.155\nentropy = 0.65\nsamples = 6\nvalue = [0, 5, 1]\nclass = F", fillcolor="#61ea9a"] ;
735 -> 736 ;
737 [label="Type <= 0.483\nentropy = 1.0\nsamples = 2\nvalue = [0, 1, 1]\nclass = F", fillcolor="#ffffff"] ;
736 -> 737 ;
738 [label="entropy = 0.0\nsamples = 1\nvalue = [0, 1, 0]\nclass = F", fillcolor="#39e581"] ;
737 -> 738 ;
739 [label="entropy = 0.0\nsamples = 1\nvalue = [0, 0, 1]\nclass = I", fillcolor="#8139e5"] ;
737 -> 739 ;
740 [label="entropy = 0.0\nsamples = 4\nvalue = [0, 4, 0]\nclass = F", fillcolor="#39e581"] ;
736 -> 740 ;
741 [label="ShuckedWeight <= 0.123\nentropy = 1.361\nsamples = 10\nvalue = [5, 4, 1]\nclass = M", fillcolor="#fbeade"] ;
735 -> 741 ;
742 [label="ShuckedWeight <= 0.101\nentropy = 0.65\nsamples = 6\nvalue = [5, 1, 0]\nclass = M", fillcolor="#ea9a61"] ;
741 -> 742 ;
743 [label="VisceraWeight <= 0.159\nentropy = 1.0\nsamples = 2\nvalue = [1, 1, 0]\nclass = M", fillcolor="#ffffff"] ;
742 -> 743 ;
744 [label="entropy = 0.0\nsamples = 1\nvalue = [1, 0, 0]\nclass = M", fillcolor="#e58139"] ;
743 -> 744 ;
745 [label="entropy = 0.0\nsamples = 1\nvalue = [0, 1, 0]\nclass = F", fillcolor="#39e581"] ;
743 -> 745 ;
746 [label="entropy = 0.0\nsamples = 4\nvalue = [4, 0, 0]\nclass = M", fillcolor="#e58139"] ;
742 -> 746 ;
747 [label="VisceraWeight <= 0.171\nentropy = 0.811\nsamples = 4\nvalue = [0, 3, 1]\nclass = F", fillcolor="#7beeab"] ;
741 -> 747 ;
748 [label="entropy = 0.0\nsamples = 3\nvalue = [0, 3, 0]\nclass = F", fillcolor="#39e581"] ;
747 -> 748 ;
749 [label="entropy = 0.0\nsamples = 1\nvalue = [0, 0, 1]\nclass = I", fillcolor="#8139e5"] ;
747 -> 749 ;
750 [label="WholeWeight <= 0.2\nentropy = 1.496\nsamples = 17\nvalue = [7, 3, 7]\nclass = M", fillcolor="#ffffff"] ;
734 -> 750 ;
751 [label="WholeWeight <= 0.174\nentropy = 0.65\nsamples = 6\nvalue = [5, 0, 1]\nclass = M", fillcolor="#ea9a61"] ;
750 -> 751 ;
752 [label="LongestShell <= 0.358\nentropy = 1.0\nsamples = 2\nvalue = [1, 0, 1]\nclass = M", fillcolor="#ffffff"] ;
751 -> 752 ;
753 [label="entropy = 0.0\nsamples = 1\nvalue = [1, 0, 0]\nclass = M", fillcolor="#e58139"] ;
752 -> 753 ;
754 [label="entropy = 0.0\nsamples = 1\nvalue = [0, 0, 1]\nclass = I", fillcolor="#8139e5"] ;
752 -> 754 ;
755 [label="entropy = 0.0\nsamples = 4\nvalue = [4, 0, 0]\nclass = M", fillcolor="#e58139"] ;
751 -> 755 ;
756 [label="Type <= 0.502\nentropy = 1.435\nsamples = 11\nvalue = [2, 3, 6]\nclass = I", fillcolor="#d0b5f5"] ;
750 -> 756 ;
757 [label="Height <= 0.577\nentropy = 0.954\nsamples = 8\nvalue = [0, 3, 5]\nclass = I", fillcolor="#cdb0f5"] ;
756 -> 757 ;
758 [label="Height <= 0.508\nentropy = 0.65\nsamples = 6\nvalue = [0, 1, 5]\nclass = I", fillcolor="#9a61ea"] ;
757 -> 758 ;
759 [label="entropy = 0.0\nsamples = 1\nvalue = [0, 1, 0]\nclass = F", fillcolor="#39e581"] ;
758 -> 759 ;
760 [label="entropy = 0.0\nsamples = 5\nvalue = [0, 0, 5]\nclass = I", fillcolor="#8139e5"] ;
758 -> 760 ;
761 [label="entropy = 0.0\nsamples = 2\nvalue = [0, 2, 0]\nclass = F", fillcolor="#39e581"] ;
757 -> 761 ;
762 [label="Height <= 0.656\nentropy = 0.918\nsamples = 3\nvalue = [2, 0, 1]\nclass = M", fillcolor="#f2c09c"] ;
756 -> 762 ;
763 [label="entropy = 0.0\nsamples = 2\nvalue = [2, 0, 0]\nclass = M", fillcolor="#e58139"] ;
762 -> 763 ;
764 [label="entropy = 0.0\nsamples = 1\nvalue = [0, 0, 1]\nclass = I", fillcolor="#8139e5"] ;
762 -> 764 ;
765 [label="ShuckedWeight <= 0.141\nentropy = 1.341\nsamples = 57\nvalue = [26, 5, 26]\nclass = M", fillcolor="#ffffff"] ;
645 -> 765 ;
766 [label="Diameter <= 0.142\nentropy = 1.344\nsamples = 39\nvalue = [23, 5, 11]\nclass = M", fillcolor="#f4c9aa"] ;
765 -> 766 ;
767 [label="LongestShell <= 0.347\nentropy = 1.432\nsamples = 29\nvalue = [14, 4, 11]\nclass = M", fillcolor="#fbeade"] ;
766 -> 767 ;
768 [label="ShuckedWeight <= 0.104\nentropy = 0.918\nsamples = 3\nvalue = [0, 2, 1]\nclass = F", fillcolor="#9cf2c0"] ;
767 -> 768 ;
769 [label="entropy = 0.0\nsamples = 2\nvalue = [0, 2, 0]\nclass = F", fillcolor="#39e581"] ;
768 -> 769 ;
770 [label="entropy = 0.0\nsamples = 1\nvalue = [0, 0, 1]\nclass = I", fillcolor="#8139e5"] ;
768 -> 770 ;
771 [label="Diameter <= 0.138\nentropy = 1.296\nsamples = 26\nvalue = [14, 2, 10]\nclass = M", fillcolor="#f8e0ce"] ;
767 -> 771 ;
772 [label="Diameter <= 0.133\nentropy = 0.985\nsamples = 21\nvalue = [12, 0, 9]\nclass = M", fillcolor="#f8e0ce"] ;
771 -> 772 ;
773 [label="Type <= 0.483\nentropy = 0.896\nsamples = 16\nvalue = [11, 0, 5]\nclass = M", fillcolor="#f1ba93"] ;
772 -> 773 ;
774 [label="WholeWeight <= 0.252\nentropy = 0.985\nsamples = 7\nvalue = [3, 0, 4]\nclass = I", fillcolor="#e0cef8"] ;
773 -> 774 ;
775 [label="ShellWeight <= 10.5\nentropy = 0.971\nsamples = 5\nvalue = [3, 0, 2]\nclass = M", fillcolor="#f6d5bd"] ;
774 -> 775 ;
776 [label="entropy = 0.0\nsamples = 2\nvalue = [2, 0, 0]\nclass = M", fillcolor="#e58139"] ;
775 -> 776 ;
777 [label="ShellWeight <= 13.0\nentropy = 0.918\nsamples = 3\nvalue = [1, 0, 2]\nclass = I", fillcolor="#c09cf2"] ;
775 -> 777 ;
778 [label="entropy = 0.0\nsamples = 2\nvalue = [0, 0, 2]\nclass = I", fillcolor="#8139e5"] ;
777 -> 778 ;
779 [label="entropy = 0.0\nsamples = 1\nvalue = [1, 0, 0]\nclass = M", fillcolor="#e58139"] ;
777 -> 779 ;
780 [label="entropy = 0.0\nsamples = 2\nvalue = [0, 0, 2]\nclass = I", fillcolor="#8139e5"] ;
774 -> 780 ;
781 [label="Type <= 0.512\nentropy = 0.503\nsamples = 9\nvalue = [8, 0, 1]\nclass = M", fillcolor="#e89152"] ;
773 -> 781 ;
782 [label="entropy = 0.0\nsamples = 8\nvalue = [8, 0, 0]\nclass = M", fillcolor="#e58139"] ;
781 -> 782 ;
783 [label="entropy = 0.0\nsamples = 1\nvalue = [0, 0, 1]\nclass = I", fillcolor="#8139e5"] ;
781 -> 783 ;
784 [label="WholeWeight <= 0.216\nentropy = 0.722\nsamples = 5\nvalue = [1, 0, 4]\nclass = I", fillcolor="#a06aec"] ;
772 -> 784 ;
785 [label="entropy = 0.0\nsamples = 1\nvalue = [1, 0, 0]\nclass = M", fillcolor="#e58139"] ;
784 -> 785 ;
786 [label="entropy = 0.0\nsamples = 4\nvalue = [0, 0, 4]\nclass = I", fillcolor="#8139e5"] ;
784 -> 786 ;
787 [label="ShellWeight <= 10.5\nentropy = 1.522\nsamples = 5\nvalue = [2, 2, 1]\nclass = M", fillcolor="#ffffff"] ;
771 -> 787 ;
788 [label="entropy = 0.0\nsamples = 2\nvalue = [2, 0, 0]\nclass = M", fillcolor="#e58139"] ;
787 -> 788 ;
789 [label="Type <= 0.463\nentropy = 0.918\nsamples = 3\nvalue = [0, 2, 1]\nclass = F", fillcolor="#9cf2c0"] ;
787 -> 789 ;
790 [label="entropy = 0.0\nsamples = 1\nvalue = [0, 0, 1]\nclass = I", fillcolor="#8139e5"] ;
789 -> 790 ;
791 [label="entropy = 0.0\nsamples = 2\nvalue = [0, 2, 0]\nclass = F", fillcolor="#39e581"] ;
789 -> 791 ;
792 [label="WholeWeight <= 0.269\nentropy = 0.469\nsamples = 10\nvalue = [9, 1, 0]\nclass = M", fillcolor="#e88f4f"] ;
766 -> 792 ;
793 [label="entropy = 0.0\nsamples = 9\nvalue = [9, 0, 0]\nclass = M", fillcolor="#e58139"] ;
792 -> 793 ;
794 [label="entropy = 0.0\nsamples = 1\nvalue = [0, 1, 0]\nclass = F", fillcolor="#39e581"] ;
792 -> 794 ;
795 [label="Diameter <= 0.135\nentropy = 0.65\nsamples = 18\nvalue = [3, 0, 15]\nclass = I", fillcolor="#9a61ea"] ;
765 -> 795 ;
796 [label="Type <= 0.487\nentropy = 0.918\nsamples = 9\nvalue = [3, 0, 6]\nclass = I", fillcolor="#c09cf2"] ;
795 -> 796 ;
797 [label="entropy = 0.0\nsamples = 3\nvalue = [0, 0, 3]\nclass = I", fillcolor="#8139e5"] ;
796 -> 797 ;
798 [label="Diameter <= 0.127\nentropy = 1.0\nsamples = 6\nvalue = [3, 0, 3]\nclass = M", fillcolor="#ffffff"] ;
796 -> 798 ;
799 [label="ShuckedWeight <= 0.155\nentropy = 0.811\nsamples = 4\nvalue = [1, 0, 3]\nclass = I", fillcolor="#ab7bee"] ;
798 -> 799 ;
800 [label="entropy = 0.0\nsamples = 1\nvalue = [1, 0, 0]\nclass = M", fillcolor="#e58139"] ;
799 -> 800 ;
801 [label="entropy = 0.0\nsamples = 3\nvalue = [0, 0, 3]\nclass = I", fillcolor="#8139e5"] ;
799 -> 801 ;
802 [label="entropy = 0.0\nsamples = 2\nvalue = [2, 0, 0]\nclass = M", fillcolor="#e58139"] ;
798 -> 802 ;
803 [label="entropy = 0.0\nsamples = 9\nvalue = [0, 0, 9]\nclass = I", fillcolor="#8139e5"] ;
795 -> 803 ;
804 [label="Diameter <= 0.133\nentropy = 1.323\nsamples = 25\nvalue = [7, 15, 3]\nclass = F", fillcolor="#a7f3c7"] ;
644 -> 804 ;
805 [label="ShuckedWeight <= 0.139\nentropy = 1.0\nsamples = 12\nvalue = [6, 6, 0]\nclass = M", fillcolor="#ffffff"] ;
804 -> 805 ;
806 [label="entropy = 0.0\nsamples = 3\nvalue = [0, 3, 0]\nclass = F", fillcolor="#39e581"] ;
805 -> 806 ;
807 [label="ShellWeight <= 10.5\nentropy = 0.918\nsamples = 9\nvalue = [6, 3, 0]\nclass = M", fillcolor="#f2c09c"] ;
805 -> 807 ;
808 [label="VisceraWeight <= 0.178\nentropy = 0.811\nsamples = 4\nvalue = [1, 3, 0]\nclass = F", fillcolor="#7beeab"] ;
807 -> 808 ;
809 [label="entropy = 0.0\nsamples = 3\nvalue = [0, 3, 0]\nclass = F", fillcolor="#39e581"] ;
808 -> 809 ;
810 [label="entropy = 0.0\nsamples = 1\nvalue = [1, 0, 0]\nclass = M", fillcolor="#e58139"] ;
808 -> 810 ;
811 [label="entropy = 0.0\nsamples = 5\nvalue = [5, 0, 0]\nclass = M", fillcolor="#e58139"] ;
807 -> 811 ;
812 [label="LongestShell <= 0.428\nentropy = 1.14\nsamples = 13\nvalue = [1, 9, 3]\nclass = F", fillcolor="#88efb3"] ;
804 -> 812 ;
813 [label="ShuckedWeight <= 0.156\nentropy = 0.811\nsamples = 12\nvalue = [0, 9, 3]\nclass = F", fillcolor="#7beeab"] ;
812 -> 813 ;
814 [label="entropy = 0.0\nsamples = 6\nvalue = [0, 6, 0]\nclass = F", fillcolor="#39e581"] ;
813 -> 814 ;
815 [label="Diameter <= 0.145\nentropy = 1.0\nsamples = 6\nvalue = [0, 3, 3]\nclass = F", fillcolor="#ffffff"] ;
813 -> 815 ;
816 [label="entropy = 0.0\nsamples = 2\nvalue = [0, 0, 2]\nclass = I", fillcolor="#8139e5"] ;
815 -> 816 ;
817 [label="ShellWeight <= 10.5\nentropy = 0.811\nsamples = 4\nvalue = [0, 3, 1]\nclass = F", fillcolor="#7beeab"] ;
815 -> 817 ;
818 [label="entropy = 0.0\nsamples = 3\nvalue = [0, 3, 0]\nclass = F", fillcolor="#39e581"] ;
817 -> 818 ;
819 [label="entropy = 0.0\nsamples = 1\nvalue = [0, 0, 1]\nclass = I", fillcolor="#8139e5"] ;
817 -> 819 ;
820 [label="entropy = 0.0\nsamples = 1\nvalue = [1, 0, 0]\nclass = M", fillcolor="#e58139"] ;
812 -> 820 ;
821 [label="ShellWeight <= 15.5\nentropy = 1.428\nsamples = 141\nvalue = [71, 20, 50]\nclass = M", fillcolor="#f9e2d1"] ;
643 -> 821 ;
822 [label="WholeWeight <= 0.265\nentropy = 1.465\nsamples = 124\nvalue = [59, 20, 45]\nclass = M", fillcolor="#fae9dc"] ;
821 -> 822 ;
823 [label="Type <= 0.493\nentropy = 1.432\nsamples = 57\nvalue = [21, 8, 28]\nclass = I", fillcolor="#e7d9fa"] ;
822 -> 823 ;
824 [label="LongestShell <= 0.363\nentropy = 1.122\nsamples = 16\nvalue = [11, 1, 4]\nclass = M", fillcolor="#f0b68c"] ;
823 -> 824 ;
825 [label="entropy = 0.0\nsamples = 2\nvalue = [0, 0, 2]\nclass = I", fillcolor="#8139e5"] ;
824 -> 825 ;
826 [label="VisceraWeight <= 0.253\nentropy = 0.946\nsamples = 14\nvalue = [11, 1, 2]\nclass = M", fillcolor="#eca06b"] ;
824 -> 826 ;
827 [label="ShuckedWeight <= 0.097\nentropy = 0.439\nsamples = 11\nvalue = [10, 0, 1]\nclass = M", fillcolor="#e88e4d"] ;
826 -> 827 ;
828 [label="entropy = 0.0\nsamples = 1\nvalue = [0, 0, 1]\nclass = I", fillcolor="#8139e5"] ;
827 -> 828 ;
829 [label="entropy = 0.0\nsamples = 10\nvalue = [10, 0, 0]\nclass = M", fillcolor="#e58139"] ;
827 -> 829 ;
830 [label="Height <= 0.639\nentropy = 1.585\nsamples = 3\nvalue = [1, 1, 1]\nclass = M", fillcolor="#ffffff"] ;
826 -> 830 ;
831 [label="entropy = 0.0\nsamples = 1\nvalue = [0, 1, 0]\nclass = F", fillcolor="#39e581"] ;
830 -> 831 ;
832 [label="ShellWeight <= 12.0\nentropy = 1.0\nsamples = 2\nvalue = [1, 0, 1]\nclass = M", fillcolor="#ffffff"] ;
830 -> 832 ;
833 [label="entropy = 0.0\nsamples = 1\nvalue = [1, 0, 0]\nclass = M", fillcolor="#e58139"] ;
832 -> 833 ;
834 [label="entropy = 0.0\nsamples = 1\nvalue = [0, 0, 1]\nclass = I", fillcolor="#8139e5"] ;
832 -> 834 ;
835 [label="ShuckedWeight <= 0.165\nentropy = 1.384\nsamples = 41\nvalue = [10, 7, 24]\nclass = I", fillcolor="#c6a6f3"] ;
823 -> 835 ;
836 [label="LongestShell <= 0.403\nentropy = 1.338\nsamples = 28\nvalue = [4, 7, 17]\nclass = I", fillcolor="#c3a1f3"] ;
835 -> 836 ;
837 [label="ShuckedWeight <= 0.156\nentropy = 1.42\nsamples = 13\nvalue = [4, 2, 7]\nclass = I", fillcolor="#d5bdf6"] ;
836 -> 837 ;
838 [label="WholeWeight <= 0.185\nentropy = 1.281\nsamples = 12\nvalue = [4, 1, 7]\nclass = I", fillcolor="#d0b5f5"] ;
837 -> 838 ;
839 [label="entropy = 0.0\nsamples = 1\nvalue = [0, 1, 0]\nclass = F", fillcolor="#39e581"] ;
838 -> 839 ;
