digraph Tree {
node [shape=box, style="filled, rounded", color="black", fontname="helvetica"] ;
edge [fontname="helvetica"] ;
0 [label="Height <= 0.81\nentropy = 1.582\nsamples = 3341\nvalue = [1065, 1060, 1216]\nclass = I", fillcolor="#f7f2fd"] ;
1 [label="ShellWeight <= 8.5\nentropy = 1.414\nsamples = 1688\nvalue = [317, 958, 413]\nclass = F", fillcolor="#aaf4c9"] ;
0 -> 1 [labeldistance=2.5, labelangle=45, headlabel="True"] ;
2 [label="VisceraWeight <= 0.126\nentropy = 1.076\nsamples = 983\nvalue = [88, 724, 171]\nclass = F", fillcolor="#78eda9"] ;
1 -> 2 ;
3 [label="Height <= 0.139\nentropy = 0.767\nsamples = 652\nvalue = [28, 548, 76]\nclass = F", fillcolor="#5dea98"] ;
2 -> 3 ;
4 [label="ShellWeight <= 6.5\nentropy = 0.629\nsamples = 187\nvalue = [1, 160, 26]\nclass = F", fillcolor="#5ae996"] ;
3 -> 4 ;
5 [label="WholeWeight <= 0.047\nentropy = 0.542\nsamples = 160\nvalue = [1, 142, 17]\nclass = F", fillcolor="#52e891"] ;
4 -> 5 ;
6 [label="Type <= 0.257\nentropy = 0.636\nsamples = 126\nvalue = [1, 108, 17]\nclass = F", fillcolor="#5ae996"] ;
5 -> 6 ;
7 [label="ShuckedWeight <= 0.014\nentropy = 0.496\nsamples = 92\nvalue = [0, 82, 10]\nclass = F", fillcolor="#51e890"] ;
6 -> 7 ;
8 [label="VisceraWeight <= 0.025\nentropy = 0.608\nsamples = 67\nvalue = [0, 57, 10]\nclass = F", fillcolor="#5cea97"] ;
7 -> 8 ;
9 [label="VisceraWeight <= 0.012\nentropy = 0.575\nsamples = 66\nvalue = [0, 57, 9]\nclass = F", fillcolor="#58e995"] ;
8 -> 9 ;
10 [label="Diameter <= 0.037\nentropy = 0.732\nsamples = 39\nvalue = [0, 31, 8]\nclass = F", fillcolor="#6ceca2"] ;
9 -> 10 ;
11 [label="ShellWeight <= 4.5\nentropy = 0.323\nsamples = 17\nvalue = [0, 16, 1]\nclass = F", fillcolor="#45e789"] ;
10 -> 11 ;
12 [label="entropy = 0.0\nsamples = 14\nvalue = [0, 14, 0]\nclass = F", fillcolor="#39e581"] ;
11 -> 12 ;
13 [label="Type <= 0.157\nentropy = 0.918\nsamples = 3\nvalue = [0, 2, 1]\nclass = F", fillcolor="#9cf2c0"] ;
11 -> 13 ;
14 [label="entropy = 0.0\nsamples = 1\nvalue = [0, 0, 1]\nclass = I", fillcolor="#8139e5"] ;
13 -> 14 ;
15 [label="entropy = 0.0\nsamples = 2\nvalue = [0, 2, 0]\nclass = F", fillcolor="#39e581"] ;
13 -> 15 ;
16 [label="WholeWeight <= 0.012\nentropy = 0.902\nsamples = 22\nvalue = [0, 15, 7]\nclass = F", fillcolor="#95f1bc"] ;
10 -> 16 ;
17 [label="Diameter <= 0.043\nentropy = 1.0\nsamples = 10\nvalue = [0, 5, 5]\nclass = F", fillcolor="#ffffff"] ;
16 -> 17 ;
18 [label="ShuckedWeight <= 0.008\nentropy = 0.722\nsamples = 5\nvalue = [0, 1, 4]\nclass = I", fillcolor="#a06aec"] ;
17 -> 18 ;
19 [label="entropy = 0.0\nsamples = 4\nvalue = [0, 0, 4]\nclass = I", fillcolor="#8139e5"] ;
18 -> 19 ;
20 [label="entropy = 0.0\nsamples = 1\nvalue = [0, 1, 0]\nclass = F", fillcolor="#39e581"] ;
18 -> 20 ;
21 [label="LongestShell <= 0.14\nentropy = 0.722\nsamples = 5\nvalue = [0, 4, 1]\nclass = F", fillcolor="#6aeca0"] ;
17 -> 21 ;
22 [label="entropy = 0.0\nsamples = 4\nvalue = [0, 4, 0]\nclass = F", fillcolor="#39e581"] ;
21 -> 22 ;
23 [label="entropy = 0.0\nsamples = 1\nvalue = [0, 0, 1]\nclass = I", fillcolor="#8139e5"] ;
21 -> 23 ;
24 [label="WholeWeight <= 0.014\nentropy = 0.65\nsamples = 12\nvalue = [0, 10, 2]\nclass = F", fillcolor="#61ea9a"] ;
16 -> 24 ;
25 [label="entropy = 0.0\nsamples = 7\nvalue = [0, 7, 0]\nclass = F", fillcolor="#39e581"] ;
24 -> 25 ;
26 [label="ShuckedWeight <= 0.008\nentropy = 0.971\nsamples = 5\nvalue = [0, 3, 2]\nclass = F", fillcolor="#bdf6d5"] ;
24 -> 26 ;
27 [label="entropy = 0.0\nsamples = 2\nvalue = [0, 2, 0]\nclass = F", fillcolor="#39e581"] ;
26 -> 27 ;
28 [label="Height <= 0.041\nentropy = 0.918\nsamples = 3\nvalue = [0, 1, 2]\nclass = I", fillcolor="#c09cf2"] ;
26 -> 28 ;
29 [label="entropy = 0.0\nsamples = 2\nvalue = [0, 0, 2]\nclass = I", fillcolor="#8139e5"] ;
28 -> 29 ;
30 [label="entropy = 0.0\nsamples = 1\nvalue = [0, 1, 0]\nclass = F", fillcolor="#39e581"] ;
28 -> 30 ;
31 [label="Type <= 0.242\nentropy = 0.229\nsamples = 27\nvalue = [0, 26, 1]\nclass = F", fillcolor="#41e686"] ;
9 -> 31 ;
32 [label="entropy = 0.0\nsamples = 23\nvalue = [0, 23, 0]\nclass = F", fillcolor="#39e581"] ;
31 -> 32 ;
33 [label="WholeWeight <= 0.026\nentropy = 0.811\nsamples = 4\nvalue = [0, 3, 1]\nclass = F", fillcolor="#7beeab"] ;
31 -> 33 ;
34 [label="entropy = 0.0\nsamples = 1\nvalue = [0, 0, 1]\nclass = I", fillcolor="#8139e5"] ;
33 -> 34 ;
35 [label="entropy = 0.0\nsamples = 3\nvalue = [0, 3, 0]\nclass = F", fillcolor="#39e581"] ;
33 -> 35 ;
36 [label="entropy = 0.0\nsamples = 1\nvalue = [0, 0, 1]\nclass = I", fillcolor="#8139e5"] ;
8 -> 36 ;
37 [label="entropy = 0.0\nsamples = 25\nvalue = [0, 25, 0]\nclass = F", fillcolor="#39e581"] ;
7 -> 37 ;
38 [label="VisceraWeight <= 0.025\nentropy = 0.915\nsamples = 34\nvalue = [1, 26, 7]\nclass = F", fillcolor="#74eda6"] ;
6 -> 38 ;
39 [label="entropy = 0.0\nsamples = 1\nvalue = [1, 0, 0]\nclass = M", fillcolor="#e58139"] ;
38 -> 39 ;
40 [label="ShuckedWeight <= 0.02\nentropy = 0.746\nsamples = 33\nvalue = [0, 26, 7]\nclass = F", fillcolor="#6eeca3"] ;
38 -> 40 ;
41 [label="Type <= 0.273\nentropy = 0.971\nsamples = 5\nvalue = [0, 2, 3]\nclass = I", fillcolor="#d5bdf6"] ;
40 -> 41 ;
42 [label="Diameter <= 0.075\nentropy = 0.918\nsamples = 3\nvalue = [0, 2, 1]\nclass = F", fillcolor="#9cf2c0"] ;
41 -> 42 ;
43 [label="entropy = 0.0\nsamples = 2\nvalue = [0, 2, 0]\nclass = F", fillcolor="#39e581"] ;
42 -> 43 ;
44 [label="entropy = 0.0\nsamples = 1\nvalue = [0, 0, 1]\nclass = I", fillcolor="#8139e5"] ;
42 -> 44 ;
45 [label="entropy = 0.0\nsamples = 2\nvalue = [0, 0, 2]\nclass = I", fillcolor="#8139e5"] ;
41 -> 45 ;
46 [label="Diameter <= 0.073\nentropy = 0.592\nsamples = 28\nvalue = [0, 24, 4]\nclass = F", fillcolor="#5ae996"] ;
40 -> 46 ;
47 [label="Type <= 0.262\nentropy = 0.286\nsamples = 20\nvalue = [0, 19, 1]\nclass = F", fillcolor="#43e688"] ;
46 -> 47 ;
48 [label="entropy = 0.0\nsamples = 1\nvalue = [0, 0, 1]\nclass = I", fillcolor="#8139e5"] ;
47 -> 48 ;
49 [label="entropy = 0.0\nsamples = 19\nvalue = [0, 19, 0]\nclass = F", fillcolor="#39e581"] ;
47 -> 49 ;
50 [label="ShuckedWeight <= 0.028\nentropy = 0.954\nsamples = 8\nvalue = [0, 5, 3]\nclass = F", fillcolor="#b0f5cd"] ;
46 -> 50 ;
51 [label="LongestShell <= 0.205\nentropy = 0.971\nsamples = 5\nvalue = [0, 2, 3]\nclass = I", fillcolor="#d5bdf6"] ;
50 -> 51 ;
52 [label="entropy = 0.0\nsamples = 2\nvalue = [0, 0, 2]\nclass = I", fillcolor="#8139e5"] ;
51 -> 52 ;
53 [label="Type <= 0.282\nentropy = 0.918\nsamples = 3\nvalue = [0, 2, 1]\nclass = F", fillcolor="#9cf2c0"] ;
51 -> 53 ;
54 [label="entropy = 0.0\nsamples = 2\nvalue = [0, 2, 0]\nclass = F", fillcolor="#39e581"] ;
53 -> 54 ;
55 [label="entropy = 0.0\nsamples = 1\nvalue = [0, 0, 1]\nclass = I", fillcolor="#8139e5"] ;
53 -> 55 ;
56 [label="entropy = 0.0\nsamples = 3\nvalue = [0, 3, 0]\nclass = F", fillcolor="#39e581"] ;
50 -> 56 ;
57 [label="entropy = 0.0\nsamples = 34\nvalue = [0, 34, 0]\nclass = F", fillcolor="#39e581"] ;
5 -> 57 ;
58 [label="Type <= 0.312\nentropy = 0.918\nsamples = 27\nvalue = [0, 18, 9]\nclass = F", fillcolor="#9cf2c0"] ;
4 -> 58 ;
59 [label="VisceraWeight <= 0.038\nentropy = 0.985\nsamples = 21\nvalue = [0, 12, 9]\nclass = F", fillcolor="#cef8e0"] ;
58 -> 59 ;
60 [label="ShuckedWeight <= 0.012\nentropy = 0.837\nsamples = 15\nvalue = [0, 11, 4]\nclass = F", fillcolor="#81eeaf"] ;
59 -> 60 ;
61 [label="entropy = 0.0\nsamples = 2\nvalue = [0, 0, 2]\nclass = I", fillcolor="#8139e5"] ;
60 -> 61 ;
62 [label="Height <= 0.105\nentropy = 0.619\nsamples = 13\nvalue = [0, 11, 2]\nclass = F", fillcolor="#5dea98"] ;
60 -> 62 ;
63 [label="entropy = 0.0\nsamples = 8\nvalue = [0, 8, 0]\nclass = F", fillcolor="#39e581"] ;
62 -> 63 ;
64 [label="Height <= 0.109\nentropy = 0.971\nsamples = 5\nvalue = [0, 3, 2]\nclass = F", fillcolor="#bdf6d5"] ;
62 -> 64 ;
65 [label="entropy = 0.0\nsamples = 2\nvalue = [0, 0, 2]\nclass = I", fillcolor="#8139e5"] ;
64 -> 65 ;
66 [label="entropy = 0.0\nsamples = 3\nvalue = [0, 3, 0]\nclass = F", fillcolor="#39e581"] ;
64 -> 66 ;
67 [label="Height <= 0.116\nentropy = 0.65\nsamples = 6\nvalue = [0, 1, 5]\nclass = I", fillcolor="#9a61ea"] ;
59 -> 67 ;
68 [label="entropy = 0.0\nsamples = 1\nvalue = [0, 1, 0]\nclass = F", fillcolor="#39e581"] ;
67 -> 68 ;
69 [label="entropy = 0.0\nsamples = 5\nvalue = [0, 0, 5]\nclass = I", fillcolor="#8139e5"] ;
67 -> 69 ;
70 [label="entropy = 0.0\nsamples = 6\nvalue = [0, 6, 0]\nclass = F", fillcolor="#39e581"] ;
58 -> 70 ;
71 [label="ShuckedWeight <= 0.024\nentropy = 0.802\nsamples = 465\nvalue = [27, 388, 50]\nclass = F", fillcolor="#5eea98"] ;
3 -> 71 ;
72 [label="entropy = 0.0\nsamples = 2\nvalue = [2, 0, 0]\nclass = M", fillcolor="#e58139"] ;
71 -> 72 ;
73 [label="WholeWeight <= 0.193\nentropy = 0.788\nsamples = 463\nvalue = [25, 388, 50]\nclass = F", fillcolor="#5dea98"] ;
71 -> 73 ;
74 [label="ShuckedWeight <= 0.095\nentropy = 0.774\nsamples = 411\nvalue = [25, 347, 39]\nclass = F", fillcolor="#5be997"] ;
73 -> 74 ;
75 [label="WholeWeight <= 0.173\nentropy = 0.751\nsamples = 399\nvalue = [21, 339, 39]\nclass = F", fillcolor="#5ae996"] ;
74 -> 75 ;
76 [label="Diameter <= 0.122\nentropy = 0.791\nsamples = 370\nvalue = [21, 310, 39]\nclass = F", fillcolor="#5dea98"] ;
75 -> 76 ;
77 [label="Type <= 0.387\nentropy = 0.771\nsamples = 361\nvalue = [18, 304, 39]\nclass = F", fillcolor="#5cea97"] ;
76 -> 77 ;
78 [label="VisceraWeight <= 0.091\nentropy = 0.886\nsamples = 220\nvalue = [16, 178, 26]\nclass = F", fillcolor="#64eb9c"] ;
77 -> 78 ;
79 [label="WholeWeight <= 0.107\nentropy = 0.821\nsamples = 212\nvalue = [14, 176, 22]\nclass = F", fillcolor="#5fea99"] ;
78 -> 79 ;
80 [label="VisceraWeight <= 0.069\nentropy = 0.85\nsamples = 175\nvalue = [10, 143, 22]\nclass = F", fillcolor="#62ea9b"] ;
79 -> 80 ;
81 [label="ShuckedWeight <= 0.033\nentropy = 0.69\nsamples = 122\nvalue = [7, 106, 9]\nclass = F", fillcolor="#55e993"] ;
80 -> 81 ;
82 [label="entropy = 0.0\nsamples = 25\nvalue = [0, 25, 0]\nclass = F", fillcolor="#39e581"] ;
81 -> 82 ;
83 [label="Type <= 0.352\nentropy = 0.809\nsamples = 97\nvalue = [7, 81, 9]\nclass = F", fillcolor="#5dea98"] ;
81 -> 83 ;
84 [label="ShellWeight <= 5.5\nentropy = 0.985\nsamples = 67\nvalue = [6, 52, 9]\nclass = F", fillcolor="#6ceca2"] ;
83 -> 84 ;
85 [label="entropy = 0.0\nsamples = 10\nvalue = [0, 10, 0]\nclass = F", fillcolor="#39e581"] ;
84 -> 85 ;
86 [label="LongestShell <= 0.222\nentropy = 1.087\nsamples = 57\nvalue = [6, 42, 9]\nclass = F", fillcolor="#77eda8"] ;
84 -> 86 ;
87 [label="WholeWeight <= 0.068\nentropy = 1.0\nsamples = 2\nvalue = [1, 0, 1]\nclass = M", fillcolor="#ffffff"] ;
86 -> 87 ;
88 [label="entropy = 0.0\nsamples = 1\nvalue = [0, 0, 1]\nclass = I", fillcolor="#8139e5"] ;
87 -> 88 ;
89 [label="entropy = 0.0\nsamples = 1\nvalue = [1, 0, 0]\nclass = M", fillcolor="#e58139"] ;
87 -> 89 ;
90 [label="Type <= 0.308\nentropy = 1.016\nsamples = 55\nvalue = [5, 42, 8]\nclass = F", fillcolor="#70eca4"] ;
86 -> 90 ;
91 [label="ShellWeight <= 6.5\nentropy = 1.5\nsamples = 4\nvalue = [2, 1, 1]\nclass = M", fillcolor="#f6d5bd"] ;
90 -> 91 ;
92 [label="Height <= 0.154\nentropy = 1.0\nsamples = 2\nvalue = [0, 1, 1]\nclass = F", fillcolor="#ffffff"] ;
91 -> 92 ;
93 [label="entropy = 0.0\nsamples = 1\nvalue = [0, 1, 0]\nclass = F", fillcolor="#39e581"] ;
92 -> 93 ;
94 [label="entropy = 0.0\nsamples = 1\nvalue = [0, 0, 1]\nclass = I", fillcolor="#8139e5"] ;
92 -> 94 ;
95 [label="entropy = 0.0\nsamples = 2\nvalue = [2, 0, 0]\nclass = M", fillcolor="#e58139"] ;
91 -> 95 ;
96 [label="Diameter <= 0.088\nentropy = 0.887\nsamples = 51\nvalue = [3, 41, 7]\nclass = F", fillcolor="#66eb9e"] ;
90 -> 96 ;
97 [label="ShuckedWeight <= 0.039\nentropy = 0.544\nsamples = 32\nvalue = [0, 28, 4]\nclass = F", fillcolor="#55e993"] ;
96 -> 97 ;
98 [label="ShellWeight <= 7.5\nentropy = 0.764\nsamples = 18\nvalue = [0, 14, 4]\nclass = F", fillcolor="#72eca5"] ;
97 -> 98 ;
99 [label="LongestShell <= 0.242\nentropy = 0.672\nsamples = 17\nvalue = [0, 14, 3]\nclass = F", fillcolor="#63eb9c"] ;
98 -> 99 ;
100 [label="Diameter <= 0.078\nentropy = 0.954\nsamples = 8\nvalue = [0, 5, 3]\nclass = F", fillcolor="#b0f5cd"] ;
99 -> 100 ;
101 [label="entropy = 0.0\nsamples = 4\nvalue = [0, 4, 0]\nclass = F", fillcolor="#39e581"] ;
100 -> 101 ;
102 [label="LongestShell <= 0.233\nentropy = 0.811\nsamples = 4\nvalue = [0, 1, 3]\nclass = I", fillcolor="#ab7bee"] ;
100 -> 102 ;
103 [label="entropy = 0.0\nsamples = 1\nvalue = [0, 1, 0]\nclass = F", fillcolor="#39e581"] ;
102 -> 103 ;
104 [label="entropy = 0.0\nsamples = 3\nvalue = [0, 0, 3]\nclass = I", fillcolor="#8139e5"] ;
102 -> 104 ;
105 [label="entropy = 0.0\nsamples = 9\nvalue = [0, 9, 0]\nclass = F", fillcolor="#39e581"] ;
99 -> 105 ;
106 [label="entropy = 0.0\nsamples = 1\nvalue = [0, 0, 1]\nclass = I", fillcolor="#8139e5"] ;
98 -> 106 ;
107 [label="entropy = 0.0\nsamples = 14\nvalue = [0, 14, 0]\nclass = F", fillcolor="#39e581"] ;
97 -> 107 ;
108 [label="Height <= 0.185\nentropy = 1.216\nsamples = 19\nvalue = [3, 13, 3]\nclass = F", fillcolor="#83efb0"] ;
96 -> 108 ;
109 [label="WholeWeight <= 0.056\nentropy = 0.503\nsamples = 9\nvalue = [0, 8, 1]\nclass = F", fillcolor="#52e891"] ;
108 -> 109 ;
110 [label="entropy = 0.0\nsamples = 1\nvalue = [0, 0, 1]\nclass = I", fillcolor="#8139e5"] ;
109 -> 110 ;
111 [label="entropy = 0.0\nsamples = 8\nvalue = [0, 8, 0]\nclass = F", fillcolor="#39e581"] ;
109 -> 111 ;
112 [label="WholeWeight <= 0.086\nentropy = 1.485\nsamples = 10\nvalue = [3, 5, 2]\nclass = F", fillcolor="#c6f8db"] ;
108 -> 112 ;
113 [label="Height <= 0.204\nentropy = 1.371\nsamples = 5\nvalue = [3, 1, 1]\nclass = M", fillcolor="#f2c09c"] ;
112 -> 113 ;
114 [label="Diameter <= 0.093\nentropy = 0.811\nsamples = 4\nvalue = [3, 0, 1]\nclass = M", fillcolor="#eeab7b"] ;
113 -> 114 ;
115 [label="entropy = 0.0\nsamples = 3\nvalue = [3, 0, 0]\nclass = M", fillcolor="#e58139"] ;
114 -> 115 ;
116 [label="entropy = 0.0\nsamples = 1\nvalue = [0, 0, 1]\nclass = I", fillcolor="#8139e5"] ;
114 -> 116 ;
117 [label="entropy = 0.0\nsamples = 1\nvalue = [0, 1, 0]\nclass = F", fillcolor="#39e581"] ;
113 -> 117 ;
118 [label="ShuckedWeight <= 0.057\nentropy = 0.722\nsamples = 5\nvalue = [0, 4, 1]\nclass = F", fillcolor="#6aeca0"] ;
112 -> 118 ;
119 [label="entropy = 0.0\nsamples = 4\nvalue = [0, 4, 0]\nclass = F", fillcolor="#39e581"] ;
118 -> 119 ;
120 [label="entropy = 0.0\nsamples = 1\nvalue = [0, 0, 1]\nclass = I", fillcolor="#8139e5"] ;
118 -> 120 ;
121 [label="Height <= 0.189\nentropy = 0.211\nsamples = 30\nvalue = [1, 29, 0]\nclass = F", fillcolor="#40e685"] ;
83 -> 121 ;
122 [label="Height <= 0.188\nentropy = 0.722\nsamples = 5\nvalue = [1, 4, 0]\nclass = F", fillcolor="#6aeca0"] ;
121 -> 122 ;
123 [label="entropy = 0.0\nsamples = 4\nvalue = [0, 4, 0]\nclass = F", fillcolor="#39e581"] ;
122 -> 123 ;
124 [label="entropy = 0.0\nsamples = 1\nvalue = [1, 0, 0]\nclass = M", fillcolor="#e58139"] ;
122 -> 124 ;
125 [label="entropy = 0.0\nsamples = 25\nvalue = [0, 25, 0]\nclass = F", fillcolor="#39e581"] ;
121 -> 125 ;
126 [label="LongestShell <= 0.282\nentropy = 1.094\nsamples = 53\nvalue = [3, 37, 13]\nclass = F", fillcolor="#88efb3"] ;
80 -> 126 ;
127 [label="Height <= 0.218\nentropy = 1.267\nsamples = 37\nvalue = [3, 22, 12]\nclass = F", fillcolor="#b0f5cd"] ;
126 -> 127 ;
128 [label="LongestShell <= 0.273\nentropy = 0.696\nsamples = 16\nvalue = [0, 13, 3]\nclass = F", fillcolor="#67eb9e"] ;
127 -> 128 ;
129 [label="ShuckedWeight <= 0.049\nentropy = 0.918\nsamples = 9\nvalue = [0, 6, 3]\nclass = F", fillcolor="#9cf2c0"] ;
128 -> 129 ;
130 [label="entropy = 0.0\nsamples = 4\nvalue = [0, 4, 0]\nclass = F", fillcolor="#39e581"] ;
129 -> 130 ;
131 [label="ShuckedWeight <= 0.054\nentropy = 0.971\nsamples = 5\nvalue = [0, 2, 3]\nclass = I", fillcolor="#d5bdf6"] ;
129 -> 131 ;
132 [label="entropy = 0.0\nsamples = 3\nvalue = [0, 0, 3]\nclass = I", fillcolor="#8139e5"] ;
131 -> 132 ;
133 [label="entropy = 0.0\nsamples = 2\nvalue = [0, 2, 0]\nclass = F", fillcolor="#39e581"] ;
131 -> 133 ;
134 [label="entropy = 0.0\nsamples = 7\nvalue = [0, 7, 0]\nclass = F", fillcolor="#39e581"] ;
128 -> 134 ;
135 [label="WholeWeight <= 0.087\nentropy = 1.449\nsamples = 21\nvalue = [3, 9, 9]\nclass = F", fillcolor="#ffffff"] ;
127 -> 135 ;
136 [label="entropy = 0.0\nsamples = 5\nvalue = [0, 0, 5]\nclass = I", fillcolor="#8139e5"] ;
135 -> 136 ;
137 [label="Height <= 0.251\nentropy = 1.42\nsamples = 16\nvalue = [3, 9, 4]\nclass = F", fillcolor="#acf4ca"] ;
135 -> 137 ;
138 [label="Type <= 0.368\nentropy = 1.14\nsamples = 13\nvalue = [3, 9, 1]\nclass = F", fillcolor="#88efb3"] ;
137 -> 138 ;
139 [label="WholeWeight <= 0.099\nentropy = 0.544\nsamples = 8\nvalue = [0, 7, 1]\nclass = F", fillcolor="#55e993"] ;
138 -> 139 ;
140 [label="entropy = 0.0\nsamples = 6\nvalue = [0, 6, 0]\nclass = F", fillcolor="#39e581"] ;
139 -> 140 ;
141 [label="WholeWeight <= 0.102\nentropy = 1.0\nsamples = 2\nvalue = [0, 1, 1]\nclass = F", fillcolor="#ffffff"] ;
139 -> 141 ;
142 [label="entropy = 0.0\nsamples = 1\nvalue = [0, 0, 1]\nclass = I", fillcolor="#8139e5"] ;
141 -> 142 ;
143 [label="entropy = 0.0\nsamples = 1\nvalue = [0, 1, 0]\nclass = F", fillcolor="#39e581"] ;
141 -> 143 ;
144 [label="ShellWeight <= 7.5\nentropy = 0.971\nsamples = 5\nvalue = [3, 2, 0]\nclass = M", fillcolor="#f6d5bd"] ;
138 -> 144 ;
145 [label="WholeWeight <= 0.099\nentropy = 0.918\nsamples = 3\nvalue = [1, 2, 0]\nclass = F", fillcolor="#9cf2c0"] ;
144 -> 145 ;
146 [label="entropy = 0.0\nsamples = 2\nvalue = [0, 2, 0]\nclass = F", fillcolor="#39e581"] ;
145 -> 146 ;
147 [label="entropy = 0.0\nsamples = 1\nvalue = [1, 0, 0]\nclass = M", fillcolor="#e58139"] ;
145 -> 147 ;
148 [label="entropy = 0.0\nsamples = 2\nvalue = [2, 0, 0]\nclass = M", fillcolor="#e58139"] ;
144 -> 148 ;
149 [label="entropy = 0.0\nsamples = 3\nvalue = [0, 0, 3]\nclass = I", fillcolor="#8139e5"] ;
137 -> 149 ;
150 [label="LongestShell <= 0.297\nentropy = 0.337\nsamples = 16\nvalue = [0, 15, 1]\nclass = F", fillcolor="#46e789"] ;
126 -> 150 ;
151 [label="entropy = 0.0\nsamples = 14\nvalue = [0, 14, 0]\nclass = F", fillcolor="#39e581"] ;
150 -> 151 ;
152 [label="Type <= 0.377\nentropy = 1.0\nsamples = 2\nvalue = [0, 1, 1]\nclass = F", fillcolor="#ffffff"] ;
150 -> 152 ;
153 [label="entropy = 0.0\nsamples = 1\nvalue = [0, 1, 0]\nclass = F", fillcolor="#39e581"] ;
152 -> 153 ;
154 [label="entropy = 0.0\nsamples = 1\nvalue = [0, 0, 1]\nclass = I", fillcolor="#8139e5"] ;
152 -> 154 ;
155 [label="Height <= 0.267\nentropy = 0.494\nsamples = 37\nvalue = [4, 33, 0]\nclass = F", fillcolor="#51e890"] ;
79 -> 155 ;
156 [label="entropy = 0.0\nsamples = 21\nvalue = [0, 21, 0]\nclass = F", fillcolor="#39e581"] ;
155 -> 156 ;
157 [label="WholeWeight <= 0.117\nentropy = 0.811\nsamples = 16\nvalue = [4, 12, 0]\nclass = F", fillcolor="#7beeab"] ;
155 -> 157 ;
158 [label="entropy = 0.0\nsamples = 3\nvalue = [3, 0, 0]\nclass = M", fillcolor="#e58139"] ;
157 -> 158 ;
159 [label="ShuckedWeight <= 0.071\nentropy = 0.391\nsamples = 13\nvalue = [1, 12, 0]\nclass = F", fillcolor="#49e78c"] ;
157 -> 159 ;
160 [label="entropy = 0.0\nsamples = 12\nvalue = [0, 12, 0]\nclass = F", fillcolor="#39e581"] ;
159 -> 160 ;
161 [label="entropy = 0.0\nsamples = 1\nvalue = [1, 0, 0]\nclass = M", fillcolor="#e58139"] ;
159 -> 161 ;
162 [label="VisceraWeight <= 0.108\nentropy = 1.5\nsamples = 8\nvalue = [2, 2, 4]\nclass = I", fillcolor="#d5bdf6"] ;
78 -> 162 ;
163 [label="ShuckedWeight <= 0.057\nentropy = 0.918\nsamples = 6\nvalue = [2, 0, 4]\nclass = I", fillcolor="#c09cf2"] ;
162 -> 163 ;
164 [label="entropy = 0.0\nsamples = 3\nvalue = [0, 0, 3]\nclass = I", fillcolor="#8139e5"] ;
163 -> 164 ;
165 [label="Diameter <= 0.102\nentropy = 0.918\nsamples = 3\nvalue = [2, 0, 1]\nclass = M", fillcolor="#f2c09c"] ;
163 -> 165 ;
166 [label="entropy = 0.0\nsamples = 1\nvalue = [0, 0, 1]\nclass = I", fillcolor="#8139e5"] ;
165 -> 166 ;
167 [label="entropy = 0.0\nsamples = 2\nvalue = [2, 0, 0]\nclass = M", fillcolor="#e58139"] ;
165 -> 167 ;
168 [label="entropy = 0.0\nsamples = 2\nvalue = [0, 2, 0]\nclass = F", fillcolor="#39e581"] ;
162 -> 168 ;
169 [label="WholeWeight <= 0.17\nentropy = 0.549\nsamples = 141\nvalue = [2, 126, 13]\nclass = F", fillcolor="#50e890"] ;
77 -> 169 ;
170 [label="ShellWeight <= 7.5\nentropy = 0.488\nsamples = 136\nvalue = [2, 124, 10]\nclass = F", fillcolor="#4ce78d"] ;
169 -> 170 ;
171 [label="VisceraWeight <= 0.091\nentropy = 0.335\nsamples = 97\nvalue = [0, 91, 6]\nclass = F", fillcolor="#46e789"] ;
170 -> 171 ;
172 [label="entropy = 0.0\nsamples = 38\nvalue = [0, 38, 0]\nclass = F", fillcolor="#39e581"] ;
171 -> 172 ;
173 [label="Diameter <= 0.082\nentropy = 0.474\nsamples = 59\nvalue = [0, 53, 6]\nclass = F", fillcolor="#4fe88f"] ;
171 -> 173 ;
174 [label="entropy = 0.0\nsamples = 1\nvalue = [0, 0, 1]\nclass = I", fillcolor="#8139e5"] ;
173 -> 174 ;
175 [label="LongestShell <= 0.328\nentropy = 0.424\nsamples = 58\nvalue = [0, 53, 5]\nclass = F", fillcolor="#4ce78d"] ;
173 -> 175 ;
176 [label="ShuckedWeight <= 0.087\nentropy = 0.535\nsamples = 41\nvalue = [0, 36, 5]\nclass = F", fillcolor="#54e992"] ;
175 -> 176 ;
177 [label="WholeWeight <= 0.133\nentropy = 0.398\nsamples = 38\nvalue = [0, 35, 3]\nclass = F", fillcolor="#4ae78c"] ;
176 -> 177 ;
178 [label="entropy = 0.0\nsamples = 16\nvalue = [0, 16, 0]\nclass = F", fillcolor="#39e581"] ;
177 -> 178 ;
179 [label="Height <= 0.331\nentropy = 0.575\nsamples = 22\nvalue = [0, 19, 3]\nclass = F", fillcolor="#58e995"] ;
177 -> 179 ;
180 [label="Height <= 0.324\nentropy = 0.954\nsamples = 8\nvalue = [0, 5, 3]\nclass = F", fillcolor="#b0f5cd"] ;
179 -> 180 ;
181 [label="VisceraWeight <= 0.098\nentropy = 0.65\nsamples = 6\nvalue = [0, 5, 1]\nclass = F", fillcolor="#61ea9a"] ;
180 -> 181 ;
182 [label="entropy = 0.0\nsamples = 5\nvalue = [0, 5, 0]\nclass = F", fillcolor="#39e581"] ;
181 -> 182 ;
183 [label="entropy = 0.0\nsamples = 1\nvalue = [0, 0, 1]\nclass = I", fillcolor="#8139e5"] ;
181 -> 183 ;
184 [label="entropy = 0.0\nsamples = 2\nvalue = [0, 0, 2]\nclass = I", fillcolor="#8139e5"] ;
180 -> 184 ;
185 [label="entropy = 0.0\nsamples = 14\nvalue = [0, 14, 0]\nclass = F", fillcolor="#39e581"] ;
179 -> 185 ;
186 [label="WholeWeight <= 0.166\nentropy = 0.918\nsamples = 3\nvalue = [0, 1, 2]\nclass = I", fillcolor="#c09cf2"] ;
176 -> 186 ;
187 [label="entropy = 0.0\nsamples = 2\nvalue = [0, 0, 2]\nclass = I", fillcolor="#8139e5"] ;
186 -> 187 ;
188 [label="entropy = 0.0\nsamples = 1\nvalue = [0, 1, 0]\nclass = F", fillcolor="#39e581"] ;
186 -> 188 ;
189 [label="entropy = 0.0\nsamples = 17\nvalue = [0, 17, 0]\nclass = F", fillcolor="#39e581"] ;
175 -> 189 ;
190 [label="Height <= 0.272\nentropy = 0.761\nsamples = 39\nvalue = [2, 33, 4]\nclass = F", fillcolor="#5be997"] ;
170 -> 190 ;
191 [label="Height <= 0.26\nentropy = 0.918\nsamples = 3\nvalue = [0, 1, 2]\nclass = I", fillcolor="#c09cf2"] ;
190 -> 191 ;
192 [label="entropy = 0.0\nsamples = 1\nvalue = [0, 1, 0]\nclass = F", fillcolor="#39e581"] ;
191 -> 192 ;
193 [label="entropy = 0.0\nsamples = 2\nvalue = [0, 0, 2]\nclass = I", fillcolor="#8139e5"] ;
191 -> 193 ;
194 [label="Height <= 0.318\nentropy = 0.614\nsamples = 36\nvalue = [2, 32, 2]\nclass = F", fillcolor="#50e890"] ;
190 -> 194 ;
195 [label="entropy = 0.0\nsamples = 15\nvalue = [0, 15, 0]\nclass = F", fillcolor="#39e581"] ;
194 -> 195 ;
196 [label="Height <= 0.322\nentropy = 0.893\nsamples = 21\nvalue = [2, 17, 2]\nclass = F", fillcolor="#63ea9c"] ;
194 -> 196 ;
197 [label="entropy = 0.0\nsamples = 1\nvalue = [1, 0, 0]\nclass = M", fillcolor="#e58139"] ;
196 -> 197 ;
198 [label="VisceraWeight <= 0.117\nentropy = 0.748\nsamples = 20\nvalue = [1, 17, 2]\nclass = F", fillcolor="#5ae996"] ;
196 -> 198 ;
199 [label="VisceraWeight <= 0.11\nentropy = 0.684\nsamples = 11\nvalue = [0, 9, 2]\nclass = F", fillcolor="#65eb9d"] ;
198 -> 199 ;
200 [label="entropy = 0.0\nsamples = 7\nvalue = [0, 7, 0]\nclass = F", fillcolor="#39e581"] ;
199 -> 200 ;
201 [label="ShuckedWeight <= 0.08\nentropy = 1.0\nsamples = 4\nvalue = [0, 2, 2]\nclass = F", fillcolor="#ffffff"] ;
199 -> 201 ;
202 [label="entropy = 0.0\nsamples = 2\nvalue = [0, 0, 2]\nclass = I", fillcolor="#8139e5"] ;
201 -> 202 ;
203 [label="entropy = 0.0\nsamples = 2\nvalue = [0, 2, 0]\nclass = F", fillcolor="#39e581"] ;
201 -> 203 ;
204 [label="VisceraWeight <= 0.118\nentropy = 0.503\nsamples = 9\nvalue = [1, 8, 0]\nclass = F", fillcolor="#52e891"] ;
198 -> 204 ;
205 [label="entropy = 0.0\nsamples = 1\nvalue = [1, 0, 0]\nclass = M", fillcolor="#e58139"] ;
204 -> 205 ;
206 [label="entropy = 0.0\nsamples = 8\nvalue = [0, 8, 0]\nclass = F", fillcolor="#39e581"] ;
204 -> 206 ;
207 [label="Height <= 0.367\nentropy = 0.971\nsamples = 5\nvalue = [0, 2, 3]\nclass = I", fillcolor="#d5bdf6"] ;
169 -> 207 ;
208 [label="entropy = 0.0\nsamples = 2\nvalue = [0, 2, 0]\nclass = F", fillcolor="#39e581"] ;
207 -> 208 ;
209 [label="entropy = 0.0\nsamples = 3\nvalue = [0, 0, 3]\nclass = I", fillcolor="#8139e5"] ;
207 -> 209 ;
210 [label="VisceraWeight <= 0.088\nentropy = 0.918\nsamples = 9\nvalue = [3, 6, 0]\nclass = F", fillcolor="#9cf2c0"] ;
76 -> 210 ;
211 [label="entropy = 0.0\nsamples = 5\nvalue = [0, 5, 0]\nclass = F", fillcolor="#39e581"] ;
210 -> 211 ;
212 [label="Height <= 0.394\nentropy = 0.811\nsamples = 4\nvalue = [3, 1, 0]\nclass = M", fillcolor="#eeab7b"] ;
210 -> 212 ;
213 [label="entropy = 0.0\nsamples = 3\nvalue = [3, 0, 0]\nclass = M", fillcolor="#e58139"] ;
212 -> 213 ;
214 [label="entropy = 0.0\nsamples = 1\nvalue = [0, 1, 0]\nclass = F", fillcolor="#39e581"] ;
212 -> 214 ;
215 [label="entropy = 0.0\nsamples = 29\nvalue = [0, 29, 0]\nclass = F", fillcolor="#39e581"] ;
75 -> 215 ;
216 [label="ShellWeight <= 7.5\nentropy = 0.918\nsamples = 12\nvalue = [4, 8, 0]\nclass = F", fillcolor="#9cf2c0"] ;
74 -> 216 ;
217 [label="entropy = 0.0\nsamples = 7\nvalue = [0, 7, 0]\nclass = F", fillcolor="#39e581"] ;
216 -> 217 ;
218 [label="VisceraWeight <= 0.107\nentropy = 0.722\nsamples = 5\nvalue = [4, 1, 0]\nclass = M", fillcolor="#eca06a"] ;
216 -> 218 ;
219 [label="Type <= 0.415\nentropy = 1.0\nsamples = 2\nvalue = [1, 1, 0]\nclass = M", fillcolor="#ffffff"] ;
218 -> 219 ;
220 [label="entropy = 0.0\nsamples = 1\nvalue = [1, 0, 0]\nclass = M", fillcolor="#e58139"] ;
219 -> 220 ;
221 [label="entropy = 0.0\nsamples = 1\nvalue = [0, 1, 0]\nclass = F", fillcolor="#39e581"] ;
219 -> 221 ;
222 [label="entropy = 0.0\nsamples = 3\nvalue = [3, 0, 0]\nclass = M", fillcolor="#e58139"] ;
218 -> 222 ;
223 [label="Type <= 0.477\nentropy = 0.744\nsamples = 52\nvalue = [0, 41, 11]\nclass = F", fillcolor="#6eeca3"] ;
73 -> 223 ;
224 [label="Diameter <= 0.102\nentropy = 0.68\nsamples = 50\nvalue = [0, 41, 9]\nclass = F", fillcolor="#64eb9d"] ;
223 -> 224 ;
225 [label="entropy = 0.0\nsamples = 12\nvalue = [0, 12, 0]\nclass = F", fillcolor="#39e581"] ;
224 -> 225 ;
226 [label="LongestShell <= 0.328\nentropy = 0.79\nsamples = 38\nvalue = [0, 29, 9]\nclass = F", fillcolor="#76eda8"] ;
224 -> 226 ;
227 [label="ShuckedWeight <= 0.093\nentropy = 0.918\nsamples = 6\nvalue = [0, 2, 4]\nclass = I", fillcolor="#c09cf2"] ;
226 -> 227 ;
228 [label="entropy = 0.0\nsamples = 4\nvalue = [0, 0, 4]\nclass = I", fillcolor="#8139e5"] ;
227 -> 228 ;
229 [label="entropy = 0.0\nsamples = 2\nvalue = [0, 2, 0]\nclass = F", fillcolor="#39e581"] ;
227 -> 229 ;
230 [label="ShuckedWeight <= 0.121\nentropy = 0.625\nsamples = 32\nvalue = [0, 27, 5]\nclass = F", fillcolor="#5eea98"] ;
226 -> 230 ;
231 [label="ShuckedWeight <= 0.089\nentropy = 0.48\nsamples = 29\nvalue = [0, 26, 3]\nclass = F", fillcolor="#50e890"] ;
230 -> 231 ;
232 [label="VisceraWeight <= 0.115\nentropy = 0.881\nsamples = 10\nvalue = [0, 7, 3]\nclass = F", fillcolor="#8ef0b7"] ;
231 -> 232 ;
233 [label="Type <= 0.433\nentropy = 0.544\nsamples = 8\nvalue = [0, 7, 1]\nclass = F", fillcolor="#55e993"] ;
232 -> 233 ;
234 [label="Height <= 0.419\nentropy = 1.0\nsamples = 2\nvalue = [0, 1, 1]\nclass = F", fillcolor="#ffffff"] ;
233 -> 234 ;
235 [label="entropy = 0.0\nsamples = 1\nvalue = [0, 0, 1]\nclass = I", fillcolor="#8139e5"] ;
234 -> 235 ;
236 [label="entropy = 0.0\nsamples = 1\nvalue = [0, 1, 0]\nclass = F", fillcolor="#39e581"] ;
234 -> 236 ;
237 [label="entropy = 0.0\nsamples = 6\nvalue = [0, 6, 0]\nclass = F", fillcolor="#39e581"] ;
233 -> 237 ;
238 [label="entropy = 0.0\nsamples = 2\nvalue = [0, 0, 2]\nclass = I", fillcolor="#8139e5"] ;
232 -> 238 ;
239 [label="entropy = 0.0\nsamples = 19\nvalue = [0, 19, 0]\nclass = F", fillcolor="#39e581"] ;
231 -> 239 ;
240 [label="Type <= 0.47\nentropy = 0.918\nsamples = 3\nvalue = [0, 1, 2]\nclass = I", fillcolor="#c09cf2"] ;
230 -> 240 ;
241 [label="entropy = 0.0\nsamples = 2\nvalue = [0, 0, 2]\nclass = I", fillcolor="#8139e5"] ;
240 -> 241 ;
242 [label="entropy = 0.0\nsamples = 1\nvalue = [0, 1, 0]\nclass = F", fillcolor="#39e581"] ;
240 -> 242 ;
243 [label="entropy = 0.0\nsamples = 2\nvalue = [0, 0, 2]\nclass = I", fillcolor="#8139e5"] ;
223 -> 243 ;
244 [label="Height <= 0.639\nentropy = 1.448\nsamples = 331\nvalue = [60, 176, 95]\nclass = F", fillcolor="#bbf6d4"] ;
2 -> 244 ;
245 [label="Type <= 0.472\nentropy = 1.339\nsamples = 230\nvalue = [39, 142, 49]\nclass = F", fillcolor="#99f2be"] ;
244 -> 245 ;
246 [label="ShuckedWeight <= 0.099\nentropy = 1.531\nsamples = 88\nvalue = [23, 41, 24]\nclass = F", fillcolor="#caf8de"] ;
245 -> 246 ;
247 [label="WholeWeight <= 0.179\nentropy = 1.307\nsamples = 43\nvalue = [6, 27, 10]\nclass = F", fillcolor="#99f2be"] ;
246 -> 247 ;
248 [label="ShuckedWeight <= 0.087\nentropy = 1.406\nsamples = 20\nvalue = [6, 11, 3]\nclass = F", fillcolor="#b8f6d2"] ;
247 -> 248 ;
249 [label="Height <= 0.421\nentropy = 0.991\nsamples = 13\nvalue = [2, 10, 1]\nclass = F", fillcolor="#6feca3"] ;
248 -> 249 ;
250 [label="Height <= 0.405\nentropy = 0.439\nsamples = 11\nvalue = [1, 10, 0]\nclass = F", fillcolor="#4de88e"] ;
249 -> 250 ;
251 [label="entropy = 0.0\nsamples = 7\nvalue = [0, 7, 0]\nclass = F", fillcolor="#39e581"] ;
250 -> 251 ;
252 [label="LongestShell <= 0.343\nentropy = 0.811\nsamples = 4\nvalue = [1, 3, 0]\nclass = F", fillcolor="#7beeab"] ;
250 -> 252 ;
253 [label="entropy = 0.0\nsamples = 1\nvalue = [1, 0, 0]\nclass = M", fillcolor="#e58139"] ;
252 -> 253 ;
254 [label="entropy = 0.0\nsamples = 3\nvalue = [0, 3, 0]\nclass = F", fillcolor="#39e581"] ;
252 -> 254 ;
255 [label="VisceraWeight <= 0.163\nentropy = 1.0\nsamples = 2\nvalue = [1, 0, 1]\nclass = M", fillcolor="#ffffff"] ;
249 -> 255 ;
256 [label="entropy = 0.0\nsamples = 1\nvalue = [0, 0, 1]\nclass = I", fillcolor="#8139e5"] ;
255 -> 256 ;
257 [label="entropy = 0.0\nsamples = 1\nvalue = [1, 0, 0]\nclass = M", fillcolor="#e58139"] ;
255 -> 257 ;
258 [label="LongestShell <= 0.365\nentropy = 1.379\nsamples = 7\nvalue = [4, 1, 2]\nclass = M", fillcolor="#f5cdb0"] ;
248 -> 258 ;
259 [label="VisceraWeight <= 0.137\nentropy = 0.918\nsamples = 6\nvalue = [4, 0, 2]\nclass = M", fillcolor="#f2c09c"] ;
258 -> 259 ;
260 [label="Type <= 0.435\nentropy = 0.918\nsamples = 3\nvalue = [1, 0, 2]\nclass = I", fillcolor="#c09cf2"] ;
259 -> 260 ;
261 [label="entropy = 0.0\nsamples = 2\nvalue = [0, 0, 2]\nclass = I", fillcolor="#8139e5"] ;
260 -> 261 ;
262 [label="entropy = 0.0\nsamples = 1\nvalue = [1, 0, 0]\nclass = M", fillcolor="#e58139"] ;
260 -> 262 ;
263 [label="entropy = 0.0\nsamples = 3\nvalue = [3, 0, 0]\nclass = M", fillcolor="#e58139"] ;
259 -> 263 ;
264 [label="entropy = 0.0\nsamples = 1\nvalue = [0, 1, 0]\nclass = F", fillcolor="#39e581"] ;
258 -> 264 ;
265 [label="Diameter <= 0.122\nentropy = 0.887\nsamples = 23\nvalue = [0, 16, 7]\nclass = F", fillcolor="#90f0b8"] ;
247 -> 265 ;
266 [label="Type <= 0.447\nentropy = 0.977\nsamples = 17\nvalue = [0, 10, 7]\nclass = F", fillcolor="#c4f7d9"] ;
265 -> 266 ;
267 [label="entropy = 0.0\nsamples = 3\nvalue = [0, 0, 3]\nclass = I", fillcolor="#8139e5"] ;
266 -> 267 ;
268 [label="WholeWeight <= 0.264\nentropy = 0.863\nsamples = 14\nvalue = [0, 10, 4]\nclass = F", fillcolor="#88efb3"] ;
266 -> 268 ;
269 [label="Diameter <= 0.107\nentropy = 0.65\nsamples = 12\nvalue = [0, 10, 2]\nclass = F", fillcolor="#61ea9a"] ;
268 -> 269 ;
270 [label="Height <= 0.463\nentropy = 1.0\nsamples = 4\nvalue = [0, 2, 2]\nclass = F", fillcolor="#ffffff"] ;
269 -> 270 ;
271 [label="entropy = 0.0\nsamples = 2\nvalue = [0, 2, 0]\nclass = F", fillcolor="#39e581"] ;
270 -> 271 ;
272 [label="entropy = 0.0\nsamples = 2\nvalue = [0, 0, 2]\nclass = I", fillcolor="#8139e5"] ;
270 -> 272 ;
273 [label="entropy = 0.0\nsamples = 8\nvalue = [0, 8, 0]\nclass = F", fillcolor="#39e581"] ;
269 -> 273 ;
274 [label="entropy = 0.0\nsamples = 2\nvalue = [0, 0, 2]\nclass = I", fillcolor="#8139e5"] ;
268 -> 274 ;
275 [label="entropy = 0.0\nsamples = 6\nvalue = [0, 6, 0]\nclass = F", fillcolor="#39e581"] ;
265 -> 275 ;
276 [label="WholeWeight <= 0.196\nentropy = 1.579\nsamples = 45\nvalue = [17, 14, 14]\nclass = M", fillcolor="#fcf3ec"] ;
246 -> 276 ;
277 [label="LongestShell <= 0.358\nentropy = 1.198\nsamples = 13\nvalue = [9, 2, 2]\nclass = M", fillcolor="#eeaf81"] ;
276 -> 277 ;
278 [label="Type <= 0.453\nentropy = 0.722\nsamples = 10\nvalue = [8, 0, 2]\nclass = M", fillcolor="#eca06a"] ;
277 -> 278 ;
279 [label="Type <= 0.438\nentropy = 1.0\nsamples = 4\nvalue = [2, 0, 2]\nclass = M", fillcolor="#ffffff"] ;
278 -> 279 ;
280 [label="entropy = 0.0\nsamples = 2\nvalue = [2, 0, 0]\nclass = M", fillcolor="#e58139"] ;
279 -> 280 ;
281 [label="entropy = 0.0\nsamples = 2\nvalue = [0, 0, 2]\nclass = I", fillcolor="#8139e5"] ;
279 -> 281 ;
282 [label="entropy = 0.0\nsamples = 6\nvalue = [6, 0, 0]\nclass = M", fillcolor="#e58139"] ;
278 -> 282 ;
283 [label="LongestShell <= 0.37\nentropy = 0.918\nsamples = 3\nvalue = [1, 2, 0]\nclass = F", fillcolor="#9cf2c0"] ;
277 -> 283 ;
284 [label="entropy = 0.0\nsamples = 2\nvalue = [0, 2, 0]\nclass = F", fillcolor="#39e581"] ;
283 -> 284 ;
285 [label="entropy = 0.0\nsamples = 1\nvalue = [1, 0, 0]\nclass = M", fillcolor="#e58139"] ;
283 -> 285 ;
286 [label="WholeWeight <= 0.27\nentropy = 1.561\nsamples = 32\nvalue = [8, 12, 12]\nclass = F", fillcolor="#ffffff"] ;
276 -> 286 ;
287 [label="WholeWeight <= 0.242\nentropy = 1.462\nsamples = 25\nvalue = [4, 12, 9]\nclass = F", fillcolor="#dafae7"] ;
286 -> 287 ;
288 [label="ShuckedWeight <= 0.11\nentropy = 1.447\nsamples = 17\nvalue = [3, 5, 9]\nclass = I", fillcolor="#d5bdf6"] ;
287 -> 288 ;
289 [label="Type <= 0.458\nentropy = 1.485\nsamples = 10\nvalue = [2, 5, 3]\nclass = F", fillcolor="#c6f8db"] ;
288 -> 289 ;
290 [label="WholeWeight <= 0.204\nentropy = 0.971\nsamples = 5\nvalue = [0, 2, 3]\nclass = I", fillcolor="#d5bdf6"] ;
289 -> 290 ;
291 [label="entropy = 0.0\nsamples = 2\nvalue = [0, 2, 0]\nclass = F", fillcolor="#39e581"] ;
290 -> 291 ;
292 [label="entropy = 0.0\nsamples = 3\nvalue = [0, 0, 3]\nclass = I", fillcolor="#8139e5"] ;
290 -> 292 ;
293 [label="Type <= 0.463\nentropy = 0.971\nsamples = 5\nvalue = [2, 3, 0]\nclass = F", fillcolor="#bdf6d5"] ;
289 -> 293 ;
294 [label="entropy = 0.0\nsamples = 2\nvalue = [2, 0, 0]\nclass = M", fillcolor="#e58139"] ;
293 -> 294 ;
295 [label="entropy = 0.0\nsamples = 3\nvalue = [0, 3, 0]\nclass = F", fillcolor="#39e581"] ;
293 -> 295 ;
296 [label="ShellWeight <= 6.5\nentropy = 0.592\nsamples = 7\nvalue = [1, 0, 6]\nclass = I", fillcolor="#965ae9"] ;
288 -> 296 ;
297 [label="entropy = 0.0\nsamples = 1\nvalue = [1, 0, 0]\nclass = M", fillcolor="#e58139"] ;
296 -> 297 ;
298 [label="entropy = 0.0\nsamples = 6\nvalue = [0, 0, 6]\nclass = I", fillcolor="#8139e5"] ;
296 -> 298 ;
299 [label="ShuckedWeight <= 0.142\nentropy = 0.544\nsamples = 8\nvalue = [1, 7, 0]\nclass = F", fillcolor="#55e993"] ;
287 -> 299 ;
300 [label="entropy = 0.0\nsamples = 7\nvalue = [0, 7, 0]\nclass = F", fillcolor="#39e581"] ;
299 -> 300 ;
301 [label="entropy = 0.0\nsamples = 1\nvalue = [1, 0, 0]\nclass = M", fillcolor="#e58139"] ;
299 -> 301 ;
302 [label="Type <= 0.463\nentropy = 0.985\nsamples = 7\nvalue = [4, 0, 3]\nclass = M", fillcolor="#f8e0ce"] ;
286 -> 302 ;
303 [label="entropy = 0.0\nsamples = 3\nvalue = [3, 0, 0]\nclass = M", fillcolor="#e58139"] ;
302 -> 303 ;
304 [label="VisceraWeight <= 0.138\nentropy = 0.811\nsamples = 4\nvalue = [1, 0, 3]\nclass = I", fillcolor="#ab7bee"] ;
302 -> 304 ;
305 [label="Height <= 0.573\nentropy = 1.0\nsamples = 2\nvalue = [1, 0, 1]\nclass = M", fillcolor="#ffffff"] ;
304 -> 305 ;
306 [label="entropy = 0.0\nsamples = 1\nvalue = [0, 0, 1]\nclass = I", fillcolor="#8139e5"] ;
305 -> 306 ;
307 [label="entropy = 0.0\nsamples = 1\nvalue = [1, 0, 0]\nclass = M", fillcolor="#e58139"] ;
305 -> 307 ;
308 [label="entropy = 0.0\nsamples = 2\nvalue = [0, 0, 2]\nclass = I", fillcolor="#8139e5"] ;
304 -> 308 ;
309 [label="WholeWeight <= 0.221\nentropy = 1.146\nsamples = 142\nvalue = [16, 101, 25]\nclass = F", fillcolor="#7eeead"] ;
245 -> 309 ;
310 [label="ShuckedWeight <= 0.077\nentropy = 0.235\nsamples = 26\nvalue = [1, 25, 0]\nclass = F", fillcolor="#41e686"] ;
309 -> 310 ;
311 [label="entropy = 0.0\nsamples = 1\nvalue = [1, 0, 0]\nclass = M", fillcolor="#e58139"] ;
310 -> 311 ;
312 [label="entropy = 0.0\nsamples = 25\nvalue = [0, 25, 0]\nclass = F", fillcolor="#39e581"] ;
310 -> 312 ;
313 [label="ShuckedWeight <= 0.107\nentropy = 1.258\nsamples = 116\nvalue = [15, 76, 25]\nclass = F", fillcolor="#90f0b8"] ;
309 -> 313 ;
314 [label="Diameter <= 0.107\nentropy = 1.196\nsamples = 26\nvalue = [1, 13, 12]\nclass = F", fillcolor="#f1fdf6"] ;
313 -> 314 ;
315 [label="LongestShell <= 0.362\nentropy = 1.371\nsamples = 5\nvalue = [1, 1, 3]\nclass = I", fillcolor="#c09cf2"] ;
314 -> 315 ;
316 [label="entropy = 0.0\nsamples = 1\nvalue = [0, 1, 0]\nclass = F", fillcolor="#39e581"] ;
315 -> 316 ;
317 [label="VisceraWeight <= 0.147\nentropy = 0.811\nsamples = 4\nvalue = [1, 0, 3]\nclass = I", fillcolor="#ab7bee"] ;
315 -> 317 ;
318 [label="entropy = 0.0\nsamples = 3\nvalue = [0, 0, 3]\nclass = I", fillcolor="#8139e5"] ;
317 -> 318 ;
319 [label="entropy = 0.0\nsamples = 1\nvalue = [1, 0, 0]\nclass = M", fillcolor="#e58139"] ;
317 -> 319 ;
320 [label="VisceraWeight <= 0.152\nentropy = 0.985\nsamples = 21\nvalue = [0, 12, 9]\nclass = F", fillcolor="#cef8e0"] ;
314 -> 320 ;
321 [label="ShuckedWeight <= 0.102\nentropy = 0.779\nsamples = 13\nvalue = [0, 10, 3]\nclass = F", fillcolor="#74eda7"] ;
320 -> 321 ;
322 [label="Height <= 0.52\nentropy = 1.0\nsamples = 6\nvalue = [0, 3, 3]\nclass = F", fillcolor="#ffffff"] ;
321 -> 322 ;
323 [label="WholeWeight <= 0.236\nentropy = 0.811\nsamples = 4\nvalue = [0, 3, 1]\nclass = F", fillcolor="#7beeab"] ;
322 -> 323 ;
324 [label="entropy = 0.0\nsamples = 1\nvalue = [0, 0, 1]\nclass = I", fillcolor="#8139e5"] ;
323 -> 324 ;
325 [label="entropy = 0.0\nsamples = 3\nvalue = [0, 3, 0]\nclass = F", fillcolor="#39e581"] ;
323 -> 325 ;
326 [label="entropy = 0.0\nsamples = 2\nvalue = [0, 0, 2]\nclass = I", fillcolor="#8139e5"] ;
322 -> 326 ;
327 [label="entropy = 0.0\nsamples = 7\nvalue = [0, 7, 0]\nclass = F", fillcolor="#39e581"] ;
321 -> 327 ;
328 [label="Diameter <= 0.127\nentropy = 0.811\nsamples = 8\nvalue = [0, 2, 6]\nclass = I", fillcolor="#ab7bee"] ;
320 -> 328 ;
329 [label="WholeWeight <= 0.279\nentropy = 1.0\nsamples = 4\nvalue = [0, 2, 2]\nclass = F", fillcolor="#ffffff"] ;
328 -> 329 ;
330 [label="entropy = 0.0\nsamples = 2\nvalue = [0, 2, 0]\nclass = F", fillcolor="#39e581"] ;
329 -> 330 ;
331 [label="entropy = 0.0\nsamples = 2\nvalue = [0, 0, 2]\nclass = I", fillcolor="#8139e5"] ;
329 -> 331 ;
332 [label="entropy = 0.0\nsamples = 4\nvalue = [0, 0, 4]\nclass = I", fillcolor="#8139e5"] ;
328 -> 332 ;
333 [label="VisceraWeight <= 0.156\nentropy = 1.181\nsamples = 90\nvalue = [14, 63, 13]\nclass = F", fillcolor="#7feeae"] ;
313 -> 333 ;
334 [label="ShuckedWeight <= 0.116\nentropy = 1.54\nsamples = 31\nvalue = [8, 14, 9]\nclass = F", fillcolor="#d2f9e2"] ;
333 -> 334 ;
335 [label="Height <= 0.583\nentropy = 0.918\nsamples = 9\nvalue = [3, 6, 0]\nclass = F", fillcolor="#9cf2c0"] ;
334 -> 335 ;
336 [label="LongestShell <= 0.39\nentropy = 0.592\nsamples = 7\nvalue = [1, 6, 0]\nclass = F", fillcolor="#5ae996"] ;
335 -> 336 ;
337 [label="entropy = 0.0\nsamples = 6\nvalue = [0, 6, 0]\nclass = F", fillcolor="#39e581"] ;
336 -> 337 ;
338 [label="entropy = 0.0\nsamples = 1\nvalue = [1, 0, 0]\nclass = M", fillcolor="#e58139"] ;
336 -> 338 ;
339 [label="entropy = 0.0\nsamples = 2\nvalue = [2, 0, 0]\nclass = M", fillcolor="#e58139"] ;
335 -> 339 ;
340 [label="LongestShell <= 0.398\nentropy = 1.544\nsamples = 22\nvalue = [5, 8, 9]\nclass = I", fillcolor="#f6f1fd"] ;
334 -> 340 ;
341 [label="WholeWeight <= 0.239\nentropy = 1.557\nsamples = 19\nvalue = [5, 8, 6]\nclass = F", fillcolor="#e1fbec"] ;
340 -> 341 ;
342 [label="entropy = 0.0\nsamples = 3\nvalue = [0, 3, 0]\nclass = F", fillcolor="#39e581"] ;
341 -> 342 ;
343 [label="WholeWeight <= 0.304\nentropy = 1.579\nsamples = 16\nvalue = [5, 5, 6]\nclass = I", fillcolor="#f4edfd"] ;
341 -> 343 ;
344 [label="ShuckedWeight <= 0.136\nentropy = 1.483\nsamples = 12\nvalue = [5, 2, 5]\nclass = M", fillcolor="#ffffff"] ;
343 -> 344 ;
345 [label="WholeWeight <= 0.252\nentropy = 0.918\nsamples = 6\nvalue = [4, 0, 2]\nclass = M", fillcolor="#f2c09c"] ;
344 -> 345 ;
346 [label="entropy = 0.0\nsamples = 2\nvalue = [0, 0, 2]\nclass = I", fillcolor="#8139e5"] ;
345 -> 346 ;
347 [label="entropy = 0.0\nsamples = 4\nvalue = [4, 0, 0]\nclass = M", fillcolor="#e58139"] ;
345 -> 347 ;
348 [label="WholeWeight <= 0.248\nentropy = 1.459\nsamples = 6\nvalue = [1, 2, 3]\nclass = I", fillcolor="#e0cef8"] ;
344 -> 348 ;
349 [label="entropy = 0.0\nsamples = 1\nvalue = [1, 0, 0]\nclass = M", fillcolor="#e58139"] ;
348 -> 349 ;
350 [label="Height <= 0.615\nentropy = 0.971\nsamples = 5\nvalue = [0, 2, 3]\nclass = I", fillcolor="#d5bdf6"] ;
348 -> 350 ;
351 [label="VisceraWeight <= 0.14\nentropy = 0.918\nsamples = 3\nvalue = [0, 2, 1]\nclass = F", fillcolor="#9cf2c0"] ;
350 -> 351 ;
352 [label="entropy = 0.0\nsamples = 1\nvalue = [0, 0, 1]\nclass = I", fillcolor="#8139e5"] ;
351 -> 352 ;
353 [label="entropy = 0.0\nsamples = 2\nvalue = [0, 2, 0]\nclass = F", fillcolor="#39e581"] ;
351 -> 353 ;
354 [label="entropy = 0.0\nsamples = 2\nvalue = [0, 0, 2]\nclass = I", fillcolor="#8139e5"] ;
350 -> 354 ;
355 [label="ShuckedWeight <= 0.119\nentropy = 0.811\nsamples = 4\nvalue = [0, 3, 1]\nclass = F", fillcolor="#7beeab"] ;
343 -> 355 ;
356 [label="entropy = 0.0\nsamples = 1\nvalue = [0, 0, 1]\nclass = I", fillcolor="#8139e5"] ;
355 -> 356 ;
357 [label="entropy = 0.0\nsamples = 3\nvalue = [0, 3, 0]\nclass = F", fillcolor="#39e581"] ;
355 -> 357 ;
358 [label="entropy = 0.0\nsamples = 3\nvalue = [0, 0, 3]\nclass = I", fillcolor="#8139e5"] ;
340 -> 358 ;
359 [label="ShuckedWeight <= 0.134\nentropy = 0.821\nsamples = 59\nvalue = [6, 49, 4]\nclass = F", fillcolor="#5eea99"] ;
333 -> 359 ;
360 [label="WholeWeight <= 0.222\nentropy = 0.406\nsamples = 37\nvalue = [3, 34, 0]\nclass = F", fillcolor="#4ae78c"] ;
359 -> 360 ;
361 [label="entropy = 0.0\nsamples = 1\nvalue = [1, 0, 0]\nclass = M", fillcolor="#e58139"] ;
360 -> 361 ;
362 [label="Height <= 0.611\nentropy = 0.31\nsamples = 36\nvalue = [2, 34, 0]\nclass = F", fillcolor="#45e788"] ;
360 -> 362 ;
363 [label="entropy = 0.0\nsamples = 28\nvalue = [0, 28, 0]\nclass = F", fillcolor="#39e581"] ;
362 -> 363 ;
364 [label="WholeWeight <= 0.291\nentropy = 0.811\nsamples = 8\nvalue = [2, 6, 0]\nclass = F", fillcolor="#7beeab"] ;
362 -> 364 ;
365 [label="WholeWeight <= 0.283\nentropy = 0.918\nsamples = 3\nvalue = [2, 1, 0]\nclass = M", fillcolor="#f2c09c"] ;
364 -> 365 ;
366 [label="entropy = 0.0\nsamples = 1\nvalue = [0, 1, 0]\nclass = F", fillcolor="#39e581"] ;
365 -> 366 ;
367 [label="entropy = 0.0\nsamples = 2\nvalue = [2, 0, 0]\nclass = M", fillcolor="#e58139"] ;
365 -> 367 ;
368 [label="entropy = 0.0\nsamples = 5\nvalue = [0, 5, 0]\nclass = F", fillcolor="#39e581"] ;
364 -> 368 ;
369 [label="WholeWeight <= 0.252\nentropy = 1.216\nsamples = 22\nvalue = [3, 15, 4]\nclass = F", fillcolor="#86efb2"] ;
359 -> 369 ;
370 [label="WholeWeight <= 0.248\nentropy = 0.985\nsamples = 7\nvalue = [0, 3, 4]\nclass = I", fillcolor="#e0cef8"] ;
369 -> 370 ;
371 [label="VisceraWeight <= 0.19\nentropy = 0.811\nsamples = 4\nvalue = [0, 3, 1]\nclass = F", fillcolor="#7beeab"] ;
370 -> 371 ;
372 [label="entropy = 0.0\nsamples = 3\nvalue = [0, 3, 0]\nclass = F", fillcolor="#39e581"] ;
371 -> 372 ;
373 [label="entropy = 0.0\nsamples = 1\nvalue = [0, 0, 1]\nclass = I", fillcolor="#8139e5"] ;
371 -> 373 ;
374 [label="entropy = 0.0\nsamples = 3\nvalue = [0, 0, 3]\nclass = I", fillcolor="#8139e5"] ;
370 -> 374 ;
375 [label="LongestShell <= 0.387\nentropy = 0.722\nsamples = 15\nvalue = [3, 12, 0]\nclass = F", fillcolor="#6aeca0"] ;
369 -> 375 ;
376 [label="WholeWeight <= 0.266\nentropy = 1.0\nsamples = 6\nvalue = [3, 3, 0]\nclass = M", fillcolor="#ffffff"] ;
375 -> 376 ;
377 [label="entropy = 0.0\nsamples = 2\nvalue = [0, 2, 0]\nclass = F", fillcolor="#39e581"] ;
376 -> 377 ;
378 [label="LongestShell <= 0.37\nentropy = 0.811\nsamples = 4\nvalue = [3, 1, 0]\nclass = M", fillcolor="#eeab7b"] ;
376 -> 378 ;
379 [label="entropy = 0.0\nsamples = 1\nvalue = [0, 1, 0]\nclass = F", fillcolor="#39e581"] ;
378 -> 379 ;
380 [label="entropy = 0.0\nsamples = 3\nvalue = [3, 0, 0]\nclass = M", fillcolor="#e58139"] ;
378 -> 380 ;
381 [label="entropy = 0.0\nsamples = 9\nvalue = [0, 9, 0]\nclass = F", fillcolor="#39e581"] ;
375 -> 381 ;
382 [label="ShellWeight <= 7.5\nentropy = 1.517\nsamples = 101\nvalue = [21, 34, 46]\nclass = I", fillcolor="#e8dcfa"] ;
244 -> 382 ;
383 [label="Type <= 0.477\nentropy = 1.179\nsamples = 30\nvalue = [4, 5, 21]\nclass = I", fillcolor="#ae80ee"] ;
382 -> 383 ;
384 [label="entropy = 0.0\nsamples = 2\nvalue = [2, 0, 0]\nclass = M", fillcolor="#e58139"] ;
383 -> 384 ;
385 [label="ShuckedWeight <= 0.158\nentropy = 1.027\nsamples = 28\nvalue = [2, 5, 21]\nclass = I", fillcolor="#a775ed"] ;
383 -> 385 ;
386 [label="WholeWeight <= 0.417\nentropy = 0.323\nsamples = 17\nvalue = [0, 1, 16]\nclass = I", fillcolor="#8945e7"] ;
385 -> 386 ;
387 [label="entropy = 0.0\nsamples = 16\nvalue = [0, 0, 16]\nclass = I", fillcolor="#8139e5"] ;
386 -> 387 ;
388 [label="entropy = 0.0\nsamples = 1\nvalue = [0, 1, 0]\nclass = F", fillcolor="#39e581"] ;
386 -> 388 ;
389 [label="VisceraWeight <= 0.189\nentropy = 1.495\nsamples = 11\nvalue = [2, 4, 5]\nclass = I", fillcolor="#ede3fb"] ;
385 -> 389 ;
390 [label="Type <= 0.527\nentropy = 1.0\nsamples = 8\nvalue = [0, 4, 4]\nclass = F", fillcolor="#ffffff"] ;
389 -> 390 ;
391 [label="entropy = 0.0\nsamples = 3\nvalue = [0, 3, 0]\nclass = F", fillcolor="#39e581"] ;
390 -> 391 ;
392 [label="Type <= 0.54\nentropy = 0.722\nsamples = 5\nvalue = [0, 1, 4]\nclass = I", fillcolor="#a06aec"] ;
390 -> 392 ;
393 [label="Height <= 0.654\nentropy = 1.0\nsamples = 2\nvalue = [0, 1, 1]\nclass = F", fillcolor="#ffffff"] ;
392 -> 393 ;
394 [label="entropy = 0.0\nsamples = 1\nvalue = [0, 0, 1]\nclass = I", fillcolor="#8139e5"] ;
393 -> 394 ;
395 [label="entropy = 0.0\nsamples = 1\nvalue = [0, 1, 0]\nclass = F", fillcolor="#39e581"] ;
393 -> 395 ;
396 [label="entropy = 0.0\nsamples = 3\nvalue = [0, 0, 3]\nclass = I", fillcolor="#8139e5"] ;
392 -> 396 ;
397 [label="WholeWeight <= 0.357\nentropy = 0.918\nsamples = 3\nvalue = [2, 0, 1]\nclass = M", fillcolor="#f2c09c"] ;
389 -> 397 ;
398 [label="entropy = 0.0\nsamples = 2\nvalue = [2, 0, 0]\nclass = M", fillcolor="#e58139"] ;
397 -> 398 ;
399 [label="entropy = 0.0\nsamples = 1\nvalue = [0, 0, 1]\nclass = I", fillcolor="#8139e5"] ;
397 -> 399 ;
400 [label="ShuckedWeight <= 0.161\nentropy = 1.552\nsamples = 71\nvalue = [17, 29, 25]\nclass = F", fillcolor="#eefdf4"] ;
382 -> 400 ;
401 [label="WholeWeight <= 0.315\nentropy = 1.414\nsamples = 39\nvalue = [7, 22, 10]\nclass = F", fillcolor="#adf4cb"] ;
400 -> 401 ;
402 [label="WholeWeight <= 0.296\nentropy = 1.371\nsamples = 10\nvalue = [6, 2, 2]\nclass = M", fillcolor="#f2c09c"] ;
401 -> 402 ;
403 [label="LongestShell <= 0.377\nentropy = 1.0\nsamples = 4\nvalue = [2, 0, 2]\nclass = M", fillcolor="#ffffff"] ;
402 -> 403 ;
404 [label="entropy = 0.0\nsamples = 1\nvalue = [1, 0, 0]\nclass = M", fillcolor="#e58139"] ;
403 -> 404 ;
405 [label="Diameter <= 0.145\nentropy = 0.918\nsamples = 3\nvalue = [1, 0, 2]\nclass = I", fillcolor="#c09cf2"] ;
403 -> 405 ;
406 [label="entropy = 0.0\nsamples = 2\nvalue = [0, 0, 2]\nclass = I", fillcolor="#8139e5"] ;
405 -> 406 ;
407 [label="entropy = 0.0\nsamples = 1\nvalue = [1, 0, 0]\nclass = M", fillcolor="#e58139"] ;
405 -> 407 ;
408 [label="WholeWeight <= 0.299\nentropy = 0.918\nsamples = 6\nvalue = [4, 2, 0]\nclass = M", fillcolor="#f2c09c"] ;
402 -> 408 ;
409 [label="entropy = 0.0\nsamples = 1\nvalue = [0, 1, 0]\nclass = F", fillcolor="#39e581"] ;
408 -> 409 ;
410 [label="LongestShell <= 0.412\nentropy = 0.722\nsamples = 5\nvalue = [4, 1, 0]\nclass = M", fillcolor="#eca06a"] ;
408 -> 410 ;
411 [label="VisceraWeight <= 0.192\nentropy = 1.0\nsamples = 2\nvalue = [1, 1, 0]\nclass = M", fillcolor="#ffffff"] ;
410 -> 411 ;
412 [label="entropy = 0.0\nsamples = 1\nvalue = [1, 0, 0]\nclass = M", fillcolor="#e58139"] ;
411 -> 412 ;
413 [label="entropy = 0.0\nsamples = 1\nvalue = [0, 1, 0]\nclass = F", fillcolor="#39e581"] ;
411 -> 413 ;
414 [label="entropy = 0.0\nsamples = 3\nvalue = [3, 0, 0]\nclass = M", fillcolor="#e58139"] ;
410 -> 414 ;
415 [label="VisceraWeight <= 0.154\nentropy = 1.05\nsamples = 29\nvalue = [1, 20, 8]\nclass = F", fillcolor="#8ef0b7"] ;
401 -> 415 ;
416 [label="Height <= 0.671\nentropy = 0.918\nsamples = 3\nvalue = [1, 0, 2]\nclass = I", fillcolor="#c09cf2"] ;
415 -> 416 ;
417 [label="entropy = 0.0\nsamples = 2\nvalue = [0, 0, 2]\nclass = I", fillcolor="#8139e5"] ;
416 -> 417 ;
418 [label="entropy = 0.0\nsamples = 1\nvalue = [1, 0, 0]\nclass = M", fillcolor="#e58139"] ;
416 -> 418 ;
419 [label="Type <= 0.535\nentropy = 0.779\nsamples = 26\nvalue = [0, 20, 6]\nclass = F", fillcolor="#74eda7"] ;
415 -> 419 ;
420 [label="Height <= 0.718\nentropy = 0.954\nsamples = 16\nvalue = [0, 10, 6]\nclass = F", fillcolor="#b0f5cd"] ;
419 -> 420 ;
421 [label="ShuckedWeight <= 0.124\nentropy = 0.684\nsamples = 11\nvalue = [0, 9, 2]\nclass = F", fillcolor="#65eb9d"] ;
420 -> 421 ;
422 [label="entropy = 0.0\nsamples = 1\nvalue = [0, 0, 1]\nclass = I", fillcolor="#8139e5"] ;
421 -> 422 ;
423 [label="Diameter <= 0.148\nentropy = 0.469\nsamples = 10\nvalue = [0, 9, 1]\nclass = F", fillcolor="#4fe88f"] ;
421 -> 423 ;
424 [label="entropy = 0.0\nsamples = 7\nvalue = [0, 7, 0]\nclass = F", fillcolor="#39e581"] ;
423 -> 424 ;
425 [label="VisceraWeight <= 0.186\nentropy = 0.918\nsamples = 3\nvalue = [0, 2, 1]\nclass = F", fillcolor="#9cf2c0"] ;
423 -> 425 ;
426 [label="entropy = 0.0\nsamples = 2\nvalue = [0, 2, 0]\nclass = F", fillcolor="#39e581"] ;
425 -> 426 ;
427 [label="entropy = 0.0\nsamples = 1\nvalue = [0, 0, 1]\nclass = I", fillcolor="#8139e5"] ;
425 -> 427 ;
428 [label="LongestShell <= 0.387\nentropy = 0.722\nsamples = 5\nvalue = [0, 1, 4]\nclass = I", fillcolor="#a06aec"] ;
420 -> 428 ;
429 [label="entropy = 0.0\nsamples = 1\nvalue = [0, 1, 0]\nclass = F", fillcolor="#39e581"] ;
428 -> 429 ;
430 [label="entropy = 0.0\nsamples = 4\nvalue = [0, 0, 4]\nclass = I", fillcolor="#8139e5"] ;
428 -> 430 ;
431 [label="entropy = 0.0\nsamples = 10\nvalue = [0, 10, 0]\nclass = F", fillcolor="#39e581"] ;
419 -> 431 ;
432 [label="VisceraWeight <= 0.198\nentropy = 1.516\nsamples = 32\nvalue = [10, 7, 15]\nclass = I", fillcolor="#e2d2f9"] ;
400 -> 432 ;
433 [label="Type <= 0.562\nentropy = 0.98\nsamples = 12\nvalue = [5, 0, 7]\nclass = I", fillcolor="#dbc6f8"] ;
432 -> 433 ;
434 [label="Diameter <= 0.133\nentropy = 0.881\nsamples = 10\nvalue = [3, 0, 7]\nclass = I", fillcolor="#b78ef0"] ;
433 -> 434 ;
435 [label="entropy = 0.0\nsamples = 6\nvalue = [0, 0, 6]\nclass = I", fillcolor="#8139e5"] ;
434 -> 435 ;
436 [label="Height <= 0.793\nentropy = 0.811\nsamples = 4\nvalue = [3, 0, 1]\nclass = M", fillcolor="#eeab7b"] ;
434 -> 436 ;
437 [label="entropy = 0.0\nsamples = 3\nvalue = [3, 0, 0]\nclass = M", fillcolor="#e58139"] ;
436 -> 437 ;
438 [label="entropy = 0.0\nsamples = 1\nvalue = [0, 0, 1]\nclass = I", fillcolor="#8139e5"] ;
436 -> 438 ;
439 [label="entropy = 0.0\nsamples = 2\nvalue = [2, 0, 0]\nclass = M", fillcolor="#e58139"] ;
433 -> 439 ;
440 [label="ShuckedWeight <= 0.174\nentropy = 1.559\nsamples = 20\nvalue = [5, 7, 8]\nclass = I", fillcolor="#f5f0fd"] ;
432 -> 440 ;
441 [label="Diameter <= 0.133\nentropy = 0.65\nsamples = 6\nvalue = [0, 1, 5]\nclass = I", fillcolor="#9a61ea"] ;
440 -> 441 ;
442 [label="entropy = 0.0\nsamples = 1\nvalue = [0, 1, 0]\nclass = F", fillcolor="#39e581"] ;
441 -> 442 ;
443 [label="entropy = 0.0\nsamples = 5\nvalue = [0, 0, 5]\nclass = I", fillcolor="#8139e5"] ;
441 -> 443 ;
444 [label="Diameter <= 0.142\nentropy = 1.531\nsamples = 14\nvalue = [5, 6, 3]\nclass = F", fillcolor="#e9fcf1"] ;
440 -> 444 ;
445 [label="Type <= 0.532\nentropy = 1.0\nsamples = 8\nvalue = [4, 4, 0]\nclass = M", fillcolor="#ffffff"] ;
444 -> 445 ;
446 [label="entropy = 0.0\nsamples = 3\nvalue = [3, 0, 0]\nclass = M", fillcolor="#e58139"] ;
445 -> 446 ;
447 [label="Height <= 0.778\nentropy = 0.722\nsamples = 5\nvalue = [1, 4, 0]\nclass = F", fillcolor="#6aeca0"] ;
445 -> 447 ;
448 [label="entropy = 0.0\nsamples = 4\nvalue = [0, 4, 0]\nclass = F", fillcolor="#39e581"] ;
447 -> 448 ;
449 [label="entropy = 0.0\nsamples = 1\nvalue = [1, 0, 0]\nclass = M", fillcolor="#e58139"] ;
447 -> 449 ;
450 [label="Height <= 0.696\nentropy = 1.459\nsamples = 6\nvalue = [1, 2, 3]\nclass = I", fillcolor="#e0cef8"] ;
444 -> 450 ;
451 [label="entropy = 0.0\nsamples = 1\nvalue = [1, 0, 0]\nclass = M", fillcolor="#e58139"] ;
450 -> 451 ;
452 [label="Type <= 0.558\nentropy = 0.971\nsamples = 5\nvalue = [0, 2, 3]\nclass = I", fillcolor="#d5bdf6"] ;
450 -> 452 ;
453 [label="VisceraWeight <= 0.206\nentropy = 0.918\nsamples = 3\nvalue = [0, 2, 1]\nclass = F", fillcolor="#9cf2c0"] ;
452 -> 453 ;
454 [label="entropy = 0.0\nsamples = 1\nvalue = [0, 0, 1]\nclass = I", fillcolor="#8139e5"] ;
453 -> 454 ;
455 [label="entropy = 0.0\nsamples = 2\nvalue = [0, 2, 0]\nclass = F", fillcolor="#39e581"] ;
453 -> 455 ;
456 [label="entropy = 0.0\nsamples = 2\nvalue = [0, 0, 2]\nclass = I", fillcolor="#8139e5"] ;
452 -> 456 ;
457 [label="ShellWeight <= 9.5\nentropy = 1.585\nsamples = 705\nvalue = [229, 234, 242]\nclass = I", fillcolor="#fdfcff"] ;
1 -> 457 ;
458 [label="WholeWeight <= 0.142\nentropy = 1.517\nsamples = 249\nvalue = [54, 116, 79]\nclass = F", fillcolor="#d4f9e4"] ;
457 -> 458 ;
459 [label="VisceraWeight <= 0.082\nentropy = 1.271\nsamples = 35\nvalue = [3, 11, 21]\nclass = I", fillcolor="#caacf4"] ;
458 -> 459 ;
460 [label="ShuckedWeight <= 0.059\nentropy = 1.422\nsamples = 23\nvalue = [3, 9, 11]\nclass = I", fillcolor="#ede3fb"] ;
459 -> 460 ;
461 [label="ShuckedWeight <= 0.048\nentropy = 1.406\nsamples = 20\nvalue = [3, 6, 11]\nclass = I", fillcolor="#d2b8f6"] ;
460 -> 461 ;
462 [label="Type <= 0.355\nentropy = 0.961\nsamples = 13\nvalue = [0, 5, 8]\nclass = I", fillcolor="#d0b5f5"] ;
461 -> 462 ;
463 [label="Height <= 0.185\nentropy = 0.845\nsamples = 11\nvalue = [0, 3, 8]\nclass = I", fillcolor="#b083ef"] ;
462 -> 463 ;
464 [label="WholeWeight <= 0.053\nentropy = 1.0\nsamples = 6\nvalue = [0, 3, 3]\nclass = F", fillcolor="#ffffff"] ;
463 -> 464 ;
465 [label="entropy = 0.0\nsamples = 3\nvalue = [0, 0, 3]\nclass = I", fillcolor="#8139e5"] ;
464 -> 465 ;
466 [label="entropy = 0.0\nsamples = 3\nvalue = [0, 3, 0]\nclass = F", fillcolor="#39e581"] ;
464 -> 466 ;
467 [label="entropy = 0.0\nsamples = 5\nvalue = [0, 0, 5]\nclass = I", fillcolor="#8139e5"] ;
463 -> 467 ;
468 [label="entropy = 0.0\nsamples = 2\nvalue = [0, 2, 0]\nclass = F", fillcolor="#39e581"] ;
462 -> 468 ;
469 [label="VisceraWeight <= 0.078\nentropy = 1.449\nsamples = 7\nvalue = [3, 1, 3]\nclass = M", fillcolor="#ffffff"] ;
461 -> 469 ;
470 [label="LongestShell <= 0.265\nentropy = 1.0\nsamples = 6\nvalue = [3, 0, 3]\nclass = M", fillcolor="#ffffff"] ;
469 -> 470 ;
471 [label="entropy = 0.0\nsamples = 2\nvalue = [2, 0, 0]\nclass = M", fillcolor="#e58139"] ;
470 -> 471 ;
472 [label="Height <= 0.242\nentropy = 0.811\nsamples = 4\nvalue = [1, 0, 3]\nclass = I", fillcolor="#ab7bee"] ;
470 -> 472 ;
473 [label="entropy = 0.0\nsamples = 3\nvalue = [0, 0, 3]\nclass = I", fillcolor="#8139e5"] ;
472 -> 473 ;
474 [label="entropy = 0.0\nsamples = 1\nvalue = [1, 0, 0]\nclass = M", fillcolor="#e58139"] ;
472 -> 474 ;
475 [label="entropy = 0.0\nsamples = 1\nvalue = [0, 1, 0]\nclass = F", fillcolor="#39e581"] ;
469 -> 475 ;
476 [label="entropy = 0.0\nsamples = 3\nvalue = [0, 3, 0]\nclass = F", fillcolor="#39e581"] ;
460 -> 476 ;
477 [label="VisceraWeight <= 0.112\nentropy = 0.65\nsamples = 12\nvalue = [0, 2, 10]\nclass = I", fillcolor="#9a61ea"] ;
459 -> 477 ;
478 [label="entropy = 0.0\nsamples = 8\nvalue = [0, 0, 8]\nclass = I", fillcolor="#8139e5"] ;
477 -> 478 ;
479 [label="VisceraWeight <= 0.15\nentropy = 1.0\nsamples = 4\nvalue = [0, 2, 2]\nclass = F", fillcolor="#ffffff"] ;
477 -> 479 ;
480 [label="entropy = 0.0\nsamples = 2\nvalue = [0, 2, 0]\nclass = F", fillcolor="#39e581"] ;
479 -> 480 ;
481 [label="entropy = 0.0\nsamples = 2\nvalue = [0, 0, 2]\nclass = I", fillcolor="#8139e5"] ;
479 -> 481 ;
482 [label="Type <= 0.577\nentropy = 1.508\nsamples = 214\nvalue = [51, 105, 58]\nclass = F", fillcolor="#c3f7d9"] ;
458 -> 482 ;
483 [label="Height <= 0.783\nentropy = 1.523\nsamples = 207\nvalue = [51, 98, 58]\nclass = F", fillcolor="#caf8dd"] ;
482 -> 483 ;
484 [label="Type <= 0.543\nentropy = 1.496\nsamples = 193\nvalue = [45, 97, 51]\nclass = F", fillcolor="#bff7d6"] ;
483 -> 484 ;
485 [label="Diameter <= 0.148\nentropy = 1.505\nsamples = 171\nvalue = [37, 83, 51]\nclass = F", fillcolor="#caf8dd"] ;
484 -> 485 ;
486 [label="Diameter <= 0.138\nentropy = 1.464\nsamples = 160\nvalue = [29, 82, 49]\nclass = F", fillcolor="#c4f7da"] ;
485 -> 486 ;
487 [label="ShuckedWeight <= 0.127\nentropy = 1.486\nsamples = 141\nvalue = [29, 71, 41]\nclass = F", fillcolor="#c4f7d9"] ;
486 -> 487 ;
488 [label="Type <= 0.472\nentropy = 1.371\nsamples = 91\nvalue = [15, 54, 22]\nclass = F", fillcolor="#a3f3c5"] ;
487 -> 488 ;
489 [label="WholeWeight <= 0.224\nentropy = 1.555\nsamples = 49\nvalue = [13, 21, 15]\nclass = F", fillcolor="#dcfae9"] ;
488 -> 489 ;
490 [label="ShuckedWeight <= 0.089\nentropy = 1.527\nsamples = 45\nvalue = [13, 21, 11]\nclass = F", fillcolor="#cef8e0"] ;
489 -> 490 ;
491 [label="Height <= 0.381\nentropy = 1.236\nsamples = 20\nvalue = [2, 13, 5]\nclass = F", fillcolor="#95f1bc"] ;
490 -> 491 ;
492 [label="Diameter <= 0.107\nentropy = 1.157\nsamples = 10\nvalue = [2, 7, 1]\nclass = F", fillcolor="#83efb0"] ;
491 -> 492 ;
493 [label="WholeWeight <= 0.146\nentropy = 0.65\nsamples = 6\nvalue = [0, 5, 1]\nclass = F", fillcolor="#61ea9a"] ;
492 -> 493 ;
494 [label="Type <= 0.372\nentropy = 1.0\nsamples = 2\nvalue = [0, 1, 1]\nclass = F", fillcolor="#ffffff"] ;
493 -> 494 ;
495 [label="entropy = 0.0\nsamples = 1\nvalue = [0, 1, 0]\nclass = F", fillcolor="#39e581"] ;
494 -> 495 ;
496 [label="entropy = 0.0\nsamples = 1\nvalue = [0, 0, 1]\nclass = I", fillcolor="#8139e5"] ;
494 -> 496 ;
497 [label="entropy = 0.0\nsamples = 4\nvalue = [0, 4, 0]\nclass = F", fillcolor="#39e581"] ;
493 -> 497 ;
498 [label="Diameter <= 0.113\nentropy = 1.0\nsamples = 4\nvalue = [2, 2, 0]\nclass = M", fillcolor="#ffffff"] ;
492 -> 498 ;
499 [label="entropy = 0.0\nsamples = 2\nvalue = [2, 0, 0]\nclass = M", fillcolor="#e58139"] ;
498 -> 499 ;
500 [label="entropy = 0.0\nsamples = 2\nvalue = [0, 2, 0]\nclass = F", fillcolor="#39e581"] ;
498 -> 500 ;
501 [label="Height <= 0.392\nentropy = 0.971\nsamples = 10\nvalue = [0, 6, 4]\nclass = F", fillcolor="#bdf6d5"] ;
491 -> 501 ;
502 [label="entropy = 0.0\nsamples = 2\nvalue = [0, 0, 2]\nclass = I", fillcolor="#8139e5"] ;
501 -> 502 ;
503 [label="Height <= 0.453\nentropy = 0.811\nsamples = 8\nvalue = [0, 6, 2]\nclass = F", fillcolor="#7beeab"] ;
501 -> 503 ;
504 [label="WholeWeight <= 0.15\nentropy = 0.592\nsamples = 7\nvalue = [0, 6, 1]\nclass = F", fillcolor="#5ae996"] ;
503 -> 504 ;
505 [label="entropy = 0.0\nsamples = 1\nvalue = [0, 0, 1]\nclass = I", fillcolor="#8139e5"] ;
504 -> 505 ;
506 [label="entropy = 0.0\nsamples = 6\nvalue = [0, 6, 0]\nclass = F", fillcolor="#39e581"] ;
504 -> 506 ;
507 [label="entropy = 0.0\nsamples = 1\nvalue = [0, 0, 1]\nclass = I", fillcolor="#8139e5"] ;
503 -> 507 ;
508 [label="LongestShell <= 0.368\nentropy = 1.541\nsamples = 25\nvalue = [11, 8, 6]\nclass = M", fillcolor="#fae9dc"] ;
490 -> 508 ;
509 [label="VisceraWeight <= 0.153\nentropy = 1.497\nsamples = 22\nvalue = [11, 5, 6]\nclass = M", fillcolor="#f7d8c1"] ;
508 -> 509 ;
510 [label="LongestShell <= 0.347\nentropy = 1.415\nsamples = 18\nvalue = [10, 5, 3]\nclass = M", fillcolor="#f5cfb3"] ;
509 -> 510 ;
511 [label="LongestShell <= 0.333\nentropy = 1.295\nsamples = 10\nvalue = [6, 1, 3]\nclass = M", fillcolor="#f4c9aa"] ;
510 -> 511 ;
512 [label="LongestShell <= 0.315\nentropy = 0.722\nsamples = 5\nvalue = [4, 1, 0]\nclass = M", fillcolor="#eca06a"] ;
511 -> 512 ;
513 [label="Diameter <= 0.105\nentropy = 1.0\nsamples = 2\nvalue = [1, 1, 0]\nclass = M", fillcolor="#ffffff"] ;
512 -> 513 ;
514 [label="entropy = 0.0\nsamples = 1\nvalue = [1, 0, 0]\nclass = M", fillcolor="#e58139"] ;
513 -> 514 ;
515 [label="entropy = 0.0\nsamples = 1\nvalue = [0, 1, 0]\nclass = F", fillcolor="#39e581"] ;
513 -> 515 ;
516 [label="entropy = 0.0\nsamples = 3\nvalue = [3, 0, 0]\nclass = M", fillcolor="#e58139"] ;
512 -> 516 ;
517 [label="Type <= 0.447\nentropy = 0.971\nsamples = 5\nvalue = [2, 0, 3]\nclass = I", fillcolor="#d5bdf6"] ;
511 -> 517 ;
518 [label="entropy = 0.0\nsamples = 3\nvalue = [0, 0, 3]\nclass = I", fillcolor="#8139e5"] ;
517 -> 518 ;
519 [label="entropy = 0.0\nsamples = 2\nvalue = [2, 0, 0]\nclass = M", fillcolor="#e58139"] ;
517 -> 519 ;
520 [label="VisceraWeight <= 0.133\nentropy = 1.0\nsamples = 8\nvalue = [4, 4, 0]\nclass = M", fillcolor="#ffffff"] ;
510 -> 520 ;
521 [label="entropy = 0.0\nsamples = 3\nvalue = [0, 3, 0]\nclass = F", fillcolor="#39e581"] ;
520 -> 521 ;
522 [label="ShuckedWeight <= 0.115\nentropy = 0.722\nsamples = 5\nvalue = [4, 1, 0]\nclass = M", fillcolor="#eca06a"] ;
520 -> 522 ;
523 [label="entropy = 0.0\nsamples = 4\nvalue = [4, 0, 0]\nclass = M", fillcolor="#e58139"] ;
522 -> 523 ;
524 [label="entropy = 0.0\nsamples = 1\nvalue = [0, 1, 0]\nclass = F", fillcolor="#39e581"] ;
522 -> 524 ;
525 [label="WholeWeight <= 0.205\nentropy = 0.811\nsamples = 4\nvalue = [1, 0, 3]\nclass = I", fillcolor="#ab7bee"] ;
509 -> 525 ;
526 [label="entropy = 0.0\nsamples = 3\nvalue = [0, 0, 3]\nclass = I", fillcolor="#8139e5"] ;
525 -> 526 ;
527 [label="entropy = 0.0\nsamples = 1\nvalue = [1, 0, 0]\nclass = M", fillcolor="#e58139"] ;
525 -> 527 ;
528 [label="entropy = 0.0\nsamples = 3\nvalue = [0, 3, 0]\nclass = F", fillcolor="#39e581"] ;
508 -> 528 ;
529 [label="entropy = 0.0\nsamples = 4\nvalue = [0, 0, 4]\nclass = I", fillcolor="#8139e5"] ;
489 -> 529 ;
530 [label="ShuckedWeight <= 0.105\nentropy = 0.913\nsamples = 42\nvalue = [2, 33, 7]\nclass = F", fillcolor="#6ceca1"] ;
488 -> 530 ;
531 [label="entropy = 0.0\nsamples = 15\nvalue = [0, 15, 0]\nclass = F", fillcolor="#39e581"] ;
530 -> 531 ;
532 [label="Type <= 0.507\nentropy = 1.173\nsamples = 27\nvalue = [2, 18, 7]\nclass = F", fillcolor="#92f1ba"] ;
530 -> 532 ;
533 [label="VisceraWeight <= 0.144\nentropy = 1.419\nsamples = 16\nvalue = [2, 7, 7]\nclass = F", fillcolor="#ffffff"] ;
532 -> 533 ;
534 [label="entropy = 0.0\nsamples = 3\nvalue = [0, 3, 0]\nclass = F", fillcolor="#39e581"] ;
533 -> 534 ;
535 [label="ShuckedWeight <= 0.12\nentropy = 1.42\nsamples = 13\nvalue = [2, 4, 7]\nclass = I", fillcolor="#d5bdf6"] ;
533 -> 535 ;
536 [label="Diameter <= 0.122\nentropy = 1.53\nsamples = 9\nvalue = [2, 4, 3]\nclass = F", fillcolor="#defbea"] ;
535 -> 536 ;
537 [label="Type <= 0.493\nentropy = 0.811\nsamples = 4\nvalue = [1, 3, 0]\nclass = F", fillcolor="#7beeab"] ;
536 -> 537 ;
538 [label="entropy = 0.0\nsamples = 1\nvalue = [1, 0, 0]\nclass = M", fillcolor="#e58139"] ;
537 -> 538 ;
539 [label="entropy = 0.0\nsamples = 3\nvalue = [0, 3, 0]\nclass = F", fillcolor="#39e581"] ;
537 -> 539 ;
540 [label="Diameter <= 0.133\nentropy = 1.371\nsamples = 5\nvalue = [1, 1, 3]\nclass = I", fillcolor="#c09cf2"] ;
536 -> 540 ;
541 [label="VisceraWeight <= 0.169\nentropy = 0.811\nsamples = 4\nvalue = [0, 1, 3]\nclass = I", fillcolor="#ab7bee"] ;
540 -> 541 ;
542 [label="entropy = 0.0\nsamples = 3\nvalue = [0, 0, 3]\nclass = I", fillcolor="#8139e5"] ;
541 -> 542 ;
543 [label="entropy = 0.0\nsamples = 1\nvalue = [0, 1, 0]\nclass = F", fillcolor="#39e581"] ;
541 -> 543 ;
544 [label="entropy = 0.0\nsamples = 1\nvalue = [1, 0, 0]\nclass = M", fillcolor="#e58139"] ;
540 -> 544 ;
545 [label="entropy = 0.0\nsamples = 4\nvalue = [0, 0, 4]\nclass = I", fillcolor="#8139e5"] ;
535 -> 545 ;
546 [label="entropy = 0.0\nsamples = 11\nvalue = [0, 11, 0]\nclass = F", fillcolor="#39e581"] ;
532 -> 546 ;
547 [label="Type <= 0.517\nentropy = 1.574\nsamples = 50\nvalue = [14, 17, 19]\nclass = I", fillcolor="#f7f3fd"] ;
487 -> 547 ;
548 [label="WholeWeight <= 0.288\nentropy = 1.469\nsamples = 31\nvalue = [9, 6, 16]\nclass = I", fillcolor="#d7c0f7"] ;
547 -> 548 ;
549 [label="ShuckedWeight <= 0.133\nentropy = 1.581\nsamples = 19\nvalue = [7, 6, 6]\nclass = M", fillcolor="#fdf5f0"] ;
548 -> 549 ;
550 [label="LongestShell <= 0.398\nentropy = 0.722\nsamples = 5\nvalue = [4, 0, 1]\nclass = M", fillcolor="#eca06a"] ;
549 -> 550 ;
551 [label="entropy = 0.0\nsamples = 3\nvalue = [3, 0, 0]\nclass = M", fillcolor="#e58139"] ;
550 -> 551 ;
552 [label="LongestShell <= 0.41\nentropy = 1.0\nsamples = 2\nvalue = [1, 0, 1]\nclass = M", fillcolor="#ffffff"] ;
550 -> 552 ;
553 [label="entropy = 0.0\nsamples = 1\nvalue = [0, 0, 1]\nclass = I", fillcolor="#8139e5"] ;
552 -> 553 ;
554 [label="entropy = 0.0\nsamples = 1\nvalue = [1, 0, 0]\nclass = M", fillcolor="#e58139"] ;
552 -> 554 ;
555 [label="WholeWeight <= 0.233\nentropy = 1.531\nsamples = 14\nvalue = [3, 6, 5]\nclass = F", fillcolor="#e9fcf1"] ;
549 -> 555 ;
556 [label="LongestShell <= 0.35\nentropy = 1.459\nsamples = 6\nvalue = [3, 2, 1]\nclass = M", fillcolor="#f8e0ce"] ;
555 -> 556 ;
557 [label="entropy = 0.0\nsamples = 1\nvalue = [0, 0, 1]\nclass = I", fillcolor="#8139e5"] ;
556 -> 557 ;
558 [label="Height <= 0.576\nentropy = 0.971\nsamples = 5\nvalue = [3, 2, 0]\nclass = M", fillcolor="#f6d5bd"] ;
556 -> 558 ;
559 [label="WholeWeight <= 0.225\nentropy = 0.918\nsamples = 3\nvalue = [1, 2, 0]\nclass = F", fillcolor="#9cf2c0"] ;
558 -> 559 ;
560 [label="entropy = 0.0\nsamples = 2\nvalue = [0, 2, 0]\nclass = F", fillcolor="#39e581"] ;
559 -> 560 ;
561 [label="entropy = 0.0\nsamples = 1\nvalue = [1, 0, 0]\nclass = M", fillcolor="#e58139"] ;
559 -> 561 ;
562 [label="entropy = 0.0\nsamples = 2\nvalue = [2, 0, 0]\nclass = M", fillcolor="#e58139"] ;
558 -> 562 ;
563 [label="WholeWeight <= 0.286\nentropy = 1.0\nsamples = 8\nvalue = [0, 4, 4]\nclass = F", fillcolor="#ffffff"] ;
555 -> 563 ;
564 [label="Type <= 0.502\nentropy = 0.918\nsamples = 6\nvalue = [0, 2, 4]\nclass = I", fillcolor="#c09cf2"] ;
563 -> 564 ;
565 [label="entropy = 0.0\nsamples = 3\nvalue = [0, 0, 3]\nclass = I", fillcolor="#8139e5"] ;
564 -> 565 ;
566 [label="VisceraWeight <= 0.176\nentropy = 0.918\nsamples = 3\nvalue = [0, 2, 1]\nclass = F", fillcolor="#9cf2c0"] ;
564 -> 566 ;
567 [label="entropy = 0.0\nsamples = 1\nvalue = [0, 0, 1]\nclass = I", fillcolor="#8139e5"] ;
566 -> 567 ;
568 [label="entropy = 0.0\nsamples = 2\nvalue = [0, 2, 0]\nclass = F", fillcolor="#39e581"] ;
566 -> 568 ;
569 [label="entropy = 0.0\nsamples = 2\nvalue = [0, 2, 0]\nclass = F", fillcolor="#39e581"] ;
563 -> 569 ;
570 [label="ShuckedWeight <= 0.141\nentropy = 0.65\nsamples = 12\nvalue = [2, 0, 10]\nclass = I", fillcolor="#9a61ea"] ;
548 -> 570 ;
571 [label="VisceraWeight <= 0.173\nentropy = 1.0\nsamples = 4\nvalue = [2, 0, 2]\nclass = M", fillcolor="#ffffff"] ;
570 -> 571 ;
572 [label="entropy = 0.0\nsamples = 2\nvalue = [0, 0, 2]\nclass = I", fillcolor="#8139e5"] ;
571 -> 572 ;
573 [label="entropy = 0.0\nsamples = 2\nvalue = [2, 0, 0]\nclass = M", fillcolor="#e58139"] ;
571 -> 573 ;
574 [label="entropy = 0.0\nsamples = 8\nvalue = [0, 0, 8]\nclass = I", fillcolor="#8139e5"] ;
570 -> 574 ;
575 [label="VisceraWeight <= 0.185\nentropy = 1.384\nsamples = 19\nvalue = [5, 11, 3]\nclass = F", fillcolor="#aaf4c9"] ;
547 -> 575 ;
576 [label="ShuckedWeight <= 0.146\nentropy = 0.971\nsamples = 5\nvalue = [0, 3, 2]\nclass = F", fillcolor="#bdf6d5"] ;
575 -> 576 ;
577 [label="entropy = 0.0\nsamples = 2\nvalue = [0, 2, 0]\nclass = F", fillcolor="#39e581"] ;
576 -> 577 ;
578 [label="LongestShell <= 0.395\nentropy = 0.918\nsamples = 3\nvalue = [0, 1, 2]\nclass = I", fillcolor="#c09cf2"] ;
576 -> 578 ;
579 [label="entropy = 0.0\nsamples = 1\nvalue = [0, 1, 0]\nclass = F", fillcolor="#39e581"] ;
578 -> 579 ;
580 [label="entropy = 0.0\nsamples = 2\nvalue = [0, 0, 2]\nclass = I", fillcolor="#8139e5"] ;
578 -> 580 ;
581 [label="LongestShell <= 0.422\nentropy = 1.264\nsamples = 14\nvalue = [5, 8, 1]\nclass = F", fillcolor="#bdf6d5"] ;
575 -> 581 ;
582 [label="VisceraWeight <= 0.2\nentropy = 1.0\nsamples = 10\nvalue = [5, 5, 0]\nclass = M", fillcolor="#ffffff"] ;
581 -> 582 ;
583 [label="VisceraWeight <= 0.186\nentropy = 0.863\nsamples = 7\nvalue = [2, 5, 0]\nclass = F", fillcolor="#88efb3"] ;
582 -> 583 ;
584 [label="ShuckedWeight <= 0.173\nentropy = 0.918\nsamples = 3\nvalue = [2, 1, 0]\nclass = M", fillcolor="#f2c09c"] ;
583 -> 584 ;
585 [label="entropy = 0.0\nsamples = 2\nvalue = [2, 0, 0]\nclass = M", fillcolor="#e58139"] ;
584 -> 585 ;
586 [label="entropy = 0.0\nsamples = 1\nvalue = [0, 1, 0]\nclass = F", fillcolor="#39e581"] ;
584 -> 586 ;
587 [label="entropy = 0.0\nsamples = 4\nvalue = [0, 4, 0]\nclass = F", fillcolor="#39e581"] ;
583 -> 587 ;
588 [label="entropy = 0.0\nsamples = 3\nvalue = [3, 0, 0]\nclass = M", fillcolor="#e58139"] ;
582 -> 588 ;
589 [label="Height <= 0.703\nentropy = 0.811\nsamples = 4\nvalue = [0, 3, 1]\nclass = F", fillcolor="#7beeab"] ;
581 -> 589 ;
590 [label="entropy = 0.0\nsamples = 1\nvalue = [0, 0, 1]\nclass = I", fillcolor="#8139e5"] ;
589 -> 590 ;
591 [label="entropy = 0.0\nsamples = 3\nvalue = [0, 3, 0]\nclass = F", fillcolor="#39e581"] ;
589 -> 591 ;
592 [label="Type <= 0.522\nentropy = 0.982\nsamples = 19\nvalue = [0, 11, 8]\nclass = F", fillcolor="#c9f8dd"] ;
486 -> 592 ;
593 [label="LongestShell <= 0.407\nentropy = 0.98\nsamples = 12\nvalue = [0, 5, 7]\nclass = I", fillcolor="#dbc6f8"] ;
592 -> 593 ;
594 [label="Height <= 0.597\nentropy = 0.881\nsamples = 10\nvalue = [0, 3, 7]\nclass = I", fillcolor="#b78ef0"] ;
593 -> 594 ;
595 [label="WholeWeight <= 0.221\nentropy = 0.971\nsamples = 5\nvalue = [0, 3, 2]\nclass = F", fillcolor="#bdf6d5"] ;
594 -> 595 ;
596 [label="entropy = 0.0\nsamples = 2\nvalue = [0, 0, 2]\nclass = I", fillcolor="#8139e5"] ;
595 -> 596 ;
597 [label="entropy = 0.0\nsamples = 3\nvalue = [0, 3, 0]\nclass = F", fillcolor="#39e581"] ;
595 -> 597 ;
598 [label="entropy = 0.0\nsamples = 5\nvalue = [0, 0, 5]\nclass = I", fillcolor="#8139e5"] ;
594 -> 598 ;
599 [label="entropy = 0.0\nsamples = 2\nvalue = [0, 2, 0]\nclass = F", fillcolor="#39e581"] ;
593 -> 599 ;
600 [label="LongestShell <= 0.43\nentropy = 0.592\nsamples = 7\nvalue = [0, 6, 1]\nclass = F", fillcolor="#5ae996"] ;
592 -> 600 ;
601 [label="entropy = 0.0\nsamples = 6\nvalue = [0, 6, 0]\nclass = F", fillcolor="#39e581"] ;
600 -> 601 ;
602 [label="entropy = 0.0\nsamples = 1\nvalue = [0, 0, 1]\nclass = I", fillcolor="#8139e5"] ;
600 -> 602 ;
603 [label="ShuckedWeight <= 0.15\nentropy = 1.096\nsamples = 11\nvalue = [8, 1, 2]\nclass = M", fillcolor="#eeab7b"] ;
485 -> 603 ;
604 [label="Height <= 0.607\nentropy = 1.522\nsamples = 5\nvalue = [2, 1, 2]\nclass = M", fillcolor="#ffffff"] ;
603 -> 604 ;
605 [label="entropy = 0.0\nsamples = 2\nvalue = [2, 0, 0]\nclass = M", fillcolor="#e58139"] ;
604 -> 605 ;
606 [label="Diameter <= 0.155\nentropy = 0.918\nsamples = 3\nvalue = [0, 1, 2]\nclass = I", fillcolor="#c09cf2"] ;
604 -> 606 ;
607 [label="entropy = 0.0\nsamples = 2\nvalue = [0, 0, 2]\nclass = I", fillcolor="#8139e5"] ;
606 -> 607 ;
608 [label="entropy = 0.0\nsamples = 1\nvalue = [0, 1, 0]\nclass = F", fillcolor="#39e581"] ;
606 -> 608 ;
609 [label="entropy = 0.0\nsamples = 6\nvalue = [6, 0, 0]\nclass = M", fillcolor="#e58139"] ;
603 -> 609 ;
610 [label="Type <= 0.553\nentropy = 0.946\nsamples = 22\nvalue = [8, 14, 0]\nclass = F", fillcolor="#aaf4c9"] ;
484 -> 610 ;
611 [label="ShuckedWeight <= 0.156\nentropy = 0.946\nsamples = 11\nvalue = [7, 4, 0]\nclass = M", fillcolor="#f4c9aa"] ;
610 -> 611 ;
612 [label="Diameter <= 0.127\nentropy = 0.722\nsamples = 5\nvalue = [1, 4, 0]\nclass = F", fillcolor="#6aeca0"] ;
611 -> 612 ;
613 [label="entropy = 0.0\nsamples = 1\nvalue = [1, 0, 0]\nclass = M", fillcolor="#e58139"] ;
612 -> 613 ;
614 [label="entropy = 0.0\nsamples = 4\nvalue = [0, 4, 0]\nclass = F", fillcolor="#39e581"] ;
612 -> 614 ;
615 [label="entropy = 0.0\nsamples = 6\nvalue = [6, 0, 0]\nclass = M", fillcolor="#e58139"] ;
611 -> 615 ;
616 [label="LongestShell <= 0.453\nentropy = 0.439\nsamples = 11\nvalue = [1, 10, 0]\nclass = F", fillcolor="#4de88e"] ;
610 -> 616 ;
617 [label="entropy = 0.0\nsamples = 10\nvalue = [0, 10, 0]\nclass = F", fillcolor="#39e581"] ;
616 -> 617 ;
618 [label="entropy = 0.0\nsamples = 1\nvalue = [1, 0, 0]\nclass = M", fillcolor="#e58139"] ;
616 -> 618 ;
619 [label="Height <= 0.795\nentropy = 1.296\nsamples = 14\nvalue = [6, 1, 7]\nclass = I", fillcolor="#efe6fc"] ;
483 -> 619 ;
620 [label="Height <= 0.784\nentropy = 0.592\nsamples = 7\nvalue = [1, 0, 6]\nclass = I", fillcolor="#965ae9"] ;
619 -> 620 ;
621 [label="entropy = 0.0\nsamples = 1\nvalue = [1, 0, 0]\nclass = M", fillcolor="#e58139"] ;
620 -> 621 ;
622 [label="entropy = 0.0\nsamples = 6\nvalue = [0, 0, 6]\nclass = I", fillcolor="#8139e5"] ;
620 -> 622 ;
623 [label="ShuckedWeight <= 0.148\nentropy = 1.149\nsamples = 7\nvalue = [5, 1, 1]\nclass = M", fillcolor="#eeab7b"] ;
619 -> 623 ;
624 [label="entropy = 0.0\nsamples = 1\nvalue = [0, 1, 0]\nclass = F", fillcolor="#39e581"] ;
623 -> 624 ;
625 [label="Diameter <= 0.115\nentropy = 0.65\nsamples = 6\nvalue = [5, 0, 1]\nclass = M", fillcolor="#ea9a61"] ;
623 -> 625 ;
626 [label="entropy = 0.0\nsamples = 1\nvalue = [0, 0, 1]\nclass = I", fillcolor="#8139e5"] ;
625 -> 626 ;
627 [label="entropy = 0.0\nsamples = 5\nvalue = [5, 0, 0]\nclass = M", fillcolor="#e58139"] ;
625 -> 627 ;
628 [label="entropy = 0.0\nsamples = 7\nvalue = [0, 7, 0]\nclass = F", fillcolor="#39e581"] ;
482 -> 628 ;
629 [label="Type <= 0.358\nentropy = 1.565\nsamples = 456\nvalue = [175, 118, 163]\nclass = M", fillcolor="#fefaf7"] ;
457 -> 629 ;
630 [label="ShuckedWeight <= 0.038\nentropy = 0.764\nsamples = 18\nvalue = [0, 4, 14]\nclass = I", fillcolor="#a572ec"] ;
629 -> 630 ;
631 [label="WholeWeight <= 0.063\nentropy = 0.971\nsamples = 10\nvalue = [0, 4, 6]\nclass = I", fillcolor="#d5bdf6"] ;
630 -> 631 ;
632 [label="entropy = 0.0\nsamples = 5\nvalue = [0, 0, 5]\nclass = I", fillcolor="#8139e5"] ;
631 -> 632 ;
633 [label="LongestShell <= 0.252\nentropy = 0.722\nsamples = 5\nvalue = [0, 4, 1]\nclass = F", fillcolor="#6aeca0"] ;
631 -> 633 ;
634 [label="VisceraWeight <= 0.053\nentropy = 1.0\nsamples = 2\nvalue = [0, 1, 1]\nclass = F", fillcolor="#ffffff"] ;
633 -> 634 ;
635 [label="entropy = 0.0\nsamples = 1\nvalue = [0, 1, 0]\nclass = F", fillcolor="#39e581"] ;
634 -> 635 ;
636 [label="entropy = 0.0\nsamples = 1\nvalue = [0, 0, 1]\nclass = I", fillcolor="#8139e5"] ;
634 -> 636 ;
637 [label="entropy = 0.0\nsamples = 3\nvalue = [0, 3, 0]\nclass = F", fillcolor="#39e581"] ;
633 -> 637 ;
638 [label="entropy = 0.0\nsamples = 8\nvalue = [0, 0, 8]\nclass = I", fillcolor="#8139e5"] ;
630 -> 638 ;
639 [label="WholeWeight <= 0.352\nentropy = 1.563\nsamples = 438\nvalue = [175, 114, 149]\nclass = M", fillcolor="#fdf4ed"] ;
629 -> 639 ;
640 [label="Type <= 0.548\nentropy = 1.552\nsamples = 419\nvalue = [172, 101, 146]\nclass = M", fillcolor="#fdf3ec"] ;
639 -> 640 ;
641 [label="VisceraWeight <= 0.197\nentropy = 1.539\nsamples = 380\nvalue = [164, 87, 129]\nclass = M", fillcolor="#fbede3"] ;
640 -> 641 ;
642 [label="Type <= 0.517\nentropy = 1.572\nsamples = 239\nvalue = [93, 67, 79]\nclass = M", fillcolor="#fdf4ee"] ;
641 -> 642 ;
643 [label="VisceraWeight <= 0.173\nentropy = 1.555\nsamples = 214\nvalue = [86, 52, 76]\nclass = M", fillcolor="#fdf6f1"] ;
642 -> 643 ;
644 [label="Diameter <= 0.088\nentropy = 1.577\nsamples = 157\nvalue = [60, 47, 50]\nclass = M", fillcolor="#fdf3ec"] ;
643 -> 644 ;
645 [label="entropy = 0.0\nsamples = 3\nvalue = [0, 0, 3]\nclass = I", fillcolor="#8139e5"] ;
644 -> 645 ;
646 [label="VisceraWeight <= 0.142\nentropy = 1.575\nsamples = 154\nvalue = [60, 47, 47]\nclass = M", fillcolor="#fcf0e7"] ;
644 -> 646 ;
647 [label="ShuckedWeight <= 0.106\nentropy = 1.52\nsamples = 83\nvalue = [39, 25, 19]\nclass = M", fillcolor="#f9e1cf"] ;
646 -> 647 ;
648 [label="WholeWeight <= 0.073\nentropy = 1.559\nsamples = 66\nvalue = [28, 19, 19]\nclass = M", fillcolor="#fae7d9"] ;
647 -> 648 ;
649 [label="entropy = 0.0\nsamples = 2\nvalue = [0, 0, 2]\nclass = I", fillcolor="#8139e5"] ;
648 -> 649 ;
650 [label="Height <= 0.232\nentropy = 1.55\nsamples = 64\nvalue = [28, 19, 17]\nclass = M", fillcolor="#fae6d7"] ;
648 -> 650 ;
651 [label="entropy = 0.0\nsamples = 3\nvalue = [3, 0, 0]\nclass = M", fillcolor="#e58139"] ;
650 -> 651 ;
652 [label="ShuckedWeight <= 0.06\nentropy = 1.565\nsamples = 61\nvalue = [25, 19, 17]\nclass = M", fillcolor="#fbede3"] ;
650 -> 652 ;
653 [label="VisceraWeight <= 0.095\nentropy = 1.419\nsamples = 16\nvalue = [2, 7, 7]\nclass = F", fillcolor="#ffffff"] ;
652 -> 653 ;
654 [label="ShuckedWeight <= 0.051\nentropy = 1.299\nsamples = 8\nvalue = [2, 5, 1]\nclass = F", fillcolor="#9cf2c0"] ;
653 -> 654 ;
655 [label="Type <= 0.377\nentropy = 1.0\nsamples = 2\nvalue = [1, 0, 1]\nclass = M", fillcolor="#ffffff"] ;
654 -> 655 ;
656 [label="entropy = 0.0\nsamples = 1\nvalue = [0, 0, 1]\nclass = I", fillcolor="#8139e5"] ;
655 -> 656 ;
657 [label="entropy = 0.0\nsamples = 1\nvalue = [1, 0, 0]\nclass = M", fillcolor="#e58139"] ;
655 -> 657 ;
658 [label="Diameter <= 0.12\nentropy = 0.65\nsamples = 6\nvalue = [1, 5, 0]\nclass = F", fillcolor="#61ea9a"] ;
654 -> 658 ;
659 [label="entropy = 0.0\nsamples = 5\nvalue = [0, 5, 0]\nclass = F", fillcolor="#39e581"] ;
658 -> 659 ;
660 [label="entropy = 0.0\nsamples = 1\nvalue = [1, 0, 0]\nclass = M", fillcolor="#e58139"] ;
658 -> 660 ;
661 [label="WholeWeight <= 0.139\nentropy = 0.811\nsamples = 8\nvalue = [0, 2, 6]\nclass = I", fillcolor="#ab7bee"] ;
653 -> 661 ;
662 [label="entropy = 0.0\nsamples = 6\nvalue = [0, 0, 6]\nclass = I", fillcolor="#8139e5"] ;
661 -> 662 ;
663 [label="entropy = 0.0\nsamples = 2\nvalue = [0, 2, 0]\nclass = F", fillcolor="#39e581"] ;
661 -> 663 ;
664 [label="LongestShell <= 0.293\nentropy = 1.486\nsamples = 45\nvalue = [23, 12, 10]\nclass = M", fillcolor="#f6d5bd"] ;
652 -> 664 ;
665 [label="entropy = 0.0\nsamples = 2\nvalue = [0, 0, 2]\nclass = I", fillcolor="#8139e5"] ;
664 -> 665 ;
666 [label="ShuckedWeight <= 0.075\nentropy = 1.448\nsamples = 43\nvalue = [23, 12, 8]\nclass = M", fillcolor="#f6d2b9"] ;
664 -> 666 ;
667 [label="VisceraWeight <= 0.111\nentropy = 0.971\nsamples = 15\nvalue = [9, 6, 0]\nclass = M", fillcolor="#f6d5bd"] ;
666 -> 667 ;
668 [label="WholeWeight <= 0.117\nentropy = 0.544\nsamples = 8\nvalue = [7, 1, 0]\nclass = M", fillcolor="#e99355"] ;
667 -> 668 ;
669 [label="WholeWeight <= 0.111\nentropy = 0.918\nsamples = 3\nvalue = [2, 1, 0]\nclass = M", fillcolor="#f2c09c"] ;
668 -> 669 ;
670 [label="entropy = 0.0\nsamples = 2\nvalue = [2, 0, 0]\nclass = M", fillcolor="#e58139"] ;
669 -> 670 ;
671 [label="entropy = 0.0\nsamples = 1\nvalue = [0, 1, 0]\nclass = F", fillcolor="#39e581"] ;
669 -> 671 ;
672 [label="entropy = 0.0\nsamples = 5\nvalue = [5, 0, 0]\nclass = M", fillcolor="#e58139"] ;
668 -> 672 ;
673 [label="ShellWeight <= 10.5\nentropy = 0.863\nsamples = 7\nvalue = [2, 5, 0]\nclass = F", fillcolor="#88efb3"] ;
667 -> 673 ;
674 [label="Height <= 0.355\nentropy = 0.918\nsamples = 3\nvalue = [2, 1, 0]\nclass = M", fillcolor="#f2c09c"] ;
673 -> 674 ;
675 [label="entropy = 0.0\nsamples = 2\nvalue = [2, 0, 0]\nclass = M", fillcolor="#e58139"] ;
674 -> 675 ;
676 [label="entropy = 0.0\nsamples = 1\nvalue = [0, 1, 0]\nclass = F", fillcolor="#39e581"] ;
674 -> 676 ;
677 [label="entropy = 0.0\nsamples = 4\nvalue = [0, 4, 0]\nclass = F", fillcolor="#39e581"] ;
673 -> 677 ;
678 [label="Height <= 0.35\nentropy = 1.493\nsamples = 28\nvalue = [14, 6, 8]\nclass = M", fillcolor="#f7d9c4"] ;
666 -> 678 ;
679 [label="WholeWeight <= 0.12\nentropy = 0.971\nsamples = 5\nvalue = [0, 2, 3]\nclass = I", fillcolor="#d5bdf6"] ;
678 -> 679 ;
680 [label="entropy = 0.0\nsamples = 2\nvalue = [0, 0, 2]\nclass = I", fillcolor="#8139e5"] ;
679 -> 680 ;
681 [label="VisceraWeight <= 0.109\nentropy = 0.918\nsamples = 3\nvalue = [0, 2, 1]\nclass = F", fillcolor="#9cf2c0"] ;
679 -> 681 ;
682 [label="entropy = 0.0\nsamples = 2\nvalue = [0, 2, 0]\nclass = F", fillcolor="#39e581"] ;
681 -> 682 ;
683 [label="entropy = 0.0\nsamples = 1\nvalue = [0, 0, 1]\nclass = I", fillcolor="#8139e5"] ;
681 -> 683 ;
684 [label="Diameter <= 0.133\nentropy = 1.353\nsamples = 23\nvalue = [14, 4, 5]\nclass = M", fillcolor="#f2c09c"] ;
678 -> 684 ;
685 [label="ShuckedWeight <= 0.088\nentropy = 1.053\nsamples = 18\nvalue = [13, 1, 4]\nclass = M", fillcolor="#eeae80"] ;
684 -> 685 ;
686 [label="VisceraWeight <= 0.122\nentropy = 1.361\nsamples = 10\nvalue = [5, 1, 4]\nclass = M", fillcolor="#fbeade"] ;
685 -> 686 ;
687 [label="Diameter <= 0.113\nentropy = 0.811\nsamples = 4\nvalue = [3, 1, 0]\nclass = M", fillcolor="#eeab7b"] ;
686 -> 687 ;
688 [label="entropy = 0.0\nsamples = 3\nvalue = [3, 0, 0]\nclass = M", fillcolor="#e58139"] ;
687 -> 688 ;
689 [label="entropy = 0.0\nsamples = 1\nvalue = [0, 1, 0]\nclass = F", fillcolor="#39e581"] ;
687 -> 689 ;
690 [label="Height <= 0.431\nentropy = 0.918\nsamples = 6\nvalue = [2, 0, 4]\nclass = I", fillcolor="#c09cf2"] ;
686 -> 690 ;
691 [label="entropy = 0.0\nsamples = 4\nvalue = [0, 0, 4]\nclass = I", fillcolor="#8139e5"] ;
690 -> 691 ;
692 [label="entropy = 0.0\nsamples = 2\nvalue = [2, 0, 0]\nclass = M", fillcolor="#e58139"] ;
690 -> 692 ;
693 [label="entropy = 0.0\nsamples = 8\nvalue = [8, 0, 0]\nclass = M", fillcolor="#e58139"] ;
685 -> 693 ;
694 [label="Height <= 0.409\nentropy = 1.371\nsamples = 5\nvalue = [1, 3, 1]\nclass = F", fillcolor="#9cf2c0"] ;
684 -> 694 ;
695 [label="entropy = 0.0\nsamples = 1\nvalue = [1, 0, 0]\nclass = M", fillcolor="#e58139"] ;
694 -> 695 ;
696 [label="VisceraWeight <= 0.113\nentropy = 0.811\nsamples = 4\nvalue = [0, 3, 1]\nclass = F", fillcolor="#7beeab"] ;
694 -> 696 ;
697 [label="entropy = 0.0\nsamples = 1\nvalue = [0, 0, 1]\nclass = I", fillcolor="#8139e5"] ;
696 -> 697 ;
698 [label="entropy = 0.0\nsamples = 3\nvalue = [0, 3, 0]\nclass = F", fillcolor="#39e581"] ;
696 -> 698 ;
699 [label="LongestShell <= 0.347\nentropy = 0.937\nsamples = 17\nvalue = [11, 6, 0]\nclass = M", fillcolor="#f3c6a5"] ;
647 -> 699 ;
700 [label="entropy = 0.0\nsamples = 7\nvalue = [7, 0, 0]\nclass = M", fillcolor="#e58139"] ;
699 -> 700 ;
701 [label="Height <= 0.506\nentropy = 0.971\nsamples = 10\nvalue = [4, 6, 0]\nclass = F", fillcolor="#bdf6d5"] ;
699 -> 701 ;
702 [label="VisceraWeight <= 0.126\nentropy = 0.811\nsamples = 8\nvalue = [2, 6, 0]\nclass = F", fillcolor="#7beeab"] ;
701 -> 702 ;
703 [label="VisceraWeight <= 0.117\nentropy = 1.0\nsamples = 4\nvalue = [2, 2, 0]\nclass = M", fillcolor="#ffffff"] ;
702 -> 703 ;
704 [label="entropy = 0.0\nsamples = 2\nvalue = [0, 2, 0]\nclass = F", fillcolor="#39e581"] ;
703 -> 704 ;
705 [label="entropy = 0.0\nsamples = 2\nvalue = [2, 0, 0]\nclass = M", fillcolor="#e58139"] ;
703 -> 705 ;
706 [label="entropy = 0.0\nsamples = 4\nvalue = [0, 4, 0]\nclass = F", fillcolor="#39e581"] ;
702 -> 706 ;
707 [label="entropy = 0.0\nsamples = 2\nvalue = [2, 0, 0]\nclass = M", fillcolor="#e58139"] ;
701 -> 707 ;
708 [label="ShuckedWeight <= 0.081\nentropy = 1.573\nsamples = 71\nvalue = [21, 22, 28]\nclass = I", fillcolor="#f0e7fc"] ;
646 -> 708 ;
709 [label="Height <= 0.458\nentropy = 0.918\nsamples = 6\nvalue = [0, 4, 2]\nclass = F", fillcolor="#9cf2c0"] ;
708 -> 709 ;
710 [label="entropy = 0.0\nsamples = 4\nvalue = [0, 4, 0]\nclass = F", fillcolor="#39e581"] ;
709 -> 710 ;
711 [label="entropy = 0.0\nsamples = 2\nvalue = [0, 0, 2]\nclass = I", fillcolor="#8139e5"] ;
709 -> 711 ;
712 [label="Type <= 0.468\nentropy = 1.568\nsamples = 65\nvalue = [21, 18, 26]\nclass = I", fillcolor="#f1e8fc"] ;
708 -> 712 ;
713 [label="WholeWeight <= 0.19\nentropy = 1.314\nsamples = 29\nvalue = [9, 3, 17]\nclass = I", fillcolor="#cdb0f5"] ;
712 -> 713 ;
714 [label="Diameter <= 0.145\nentropy = 0.811\nsamples = 16\nvalue = [4, 0, 12]\nclass = I", fillcolor="#ab7bee"] ;
713 -> 714 ;
715 [label="VisceraWeight <= 0.148\nentropy = 0.592\nsamples = 14\nvalue = [2, 0, 12]\nclass = I", fillcolor="#965ae9"] ;
714 -> 715 ;
716 [label="WholeWeight <= 0.177\nentropy = 0.918\nsamples = 6\nvalue = [2, 0, 4]\nclass = I", fillcolor="#c09cf2"] ;
715 -> 716 ;
717 [label="entropy = 0.0\nsamples = 4\nvalue = [0, 0, 4]\nclass = I", fillcolor="#8139e5"] ;
716 -> 717 ;
718 [label="entropy = 0.0\nsamples = 2\nvalue = [2, 0, 0]\nclass = M", fillcolor="#e58139"] ;
716 -> 718 ;
719 [label="entropy = 0.0\nsamples = 8\nvalue = [0, 0, 8]\nclass = I", fillcolor="#8139e5"] ;
715 -> 719 ;
720 [label="entropy = 0.0\nsamples = 2\nvalue = [2, 0, 0]\nclass = M", fillcolor="#e58139"] ;
714 -> 720 ;
721 [label="WholeWeight <= 0.2\nentropy = 1.549\nsamples = 13\nvalue = [5, 3, 5]\nclass = M", fillcolor="#ffffff"] ;
713 -> 721 ;
722 [label="Type <= 0.463\nentropy = 0.971\nsamples = 5\nvalue = [2, 3, 0]\nclass = F", fillcolor="#bdf6d5"] ;
721 -> 722 ;
723 [label="entropy = 0.0\nsamples = 3\nvalue = [0, 3, 0]\nclass = F", fillcolor="#39e581"] ;
722 -> 723 ;
724 [label="entropy = 0.0\nsamples = 2\nvalue = [2, 0, 0]\nclass = M", fillcolor="#e58139"] ;
722 -> 724 ;
725 [label="WholeWeight <= 0.219\nentropy = 0.954\nsamples = 8\nvalue = [3, 0, 5]\nclass = I", fillcolor="#cdb0f5"] ;
721 -> 725 ;
726 [label="entropy = 0.0\nsamples = 4\nvalue = [0, 0, 4]\nclass = I", fillcolor="#8139e5"] ;
725 -> 726 ;
727 [label="Diameter <= 0.122\nentropy = 0.811\nsamples = 4\nvalue = [3, 0, 1]\nclass = M", fillcolor="#eeab7b"] ;
725 -> 727 ;
728 [label="entropy = 0.0\nsamples = 1\nvalue = [0, 0, 1]\nclass = I", fillcolor="#8139e5"] ;
727 -> 728 ;
729 [label="entropy = 0.0\nsamples = 3\nvalue = [3, 0, 0]\nclass = M", fillcolor="#e58139"] ;
727 -> 729 ;
730 [label="LongestShell <= 0.352\nentropy = 1.555\nsamples = 36\nvalue = [12, 15, 9]\nclass = F", fillcolor="#e6fcef"] ;
712 -> 730 ;
731 [label="entropy = 0.0\nsamples = 3\nvalue = [0, 3, 0]\nclass = F", fillcolor="#39e581"] ;
730 -> 731 ;
732 [label="Diameter <= 0.127\nentropy = 1.573\nsamples = 33\nvalue = [12, 12, 9]\nclass = M", fillcolor="#ffffff"] ;
730 -> 732 ;
733 [label="WholeWeight <= 0.209\nentropy = 1.366\nsamples = 16\nvalue = [5, 9, 2]\nclass = F", fillcolor="#b7f6d1"] ;
732 -> 733 ;
734 [label="VisceraWeight <= 0.155\nentropy = 0.65\nsamples = 6\nvalue = [0, 5, 1]\nclass = F", fillcolor="#61ea9a"] ;
733 -> 734 ;
735 [label="Height <= 0.458\nentropy = 1.0\nsamples = 2\nvalue = [0, 1, 1]\nclass = F", fillcolor="#ffffff"] ;
734 -> 735 ;
736 [label="entropy = 0.0\nsamples = 1\nvalue = [0, 1, 0]\nclass = F", fillcolor="#39e581"] ;
735 -> 736 ;
737 [label="entropy = 0.0\nsamples = 1\nvalue = [0, 0, 1]\nclass = I", fillcolor="#8139e5"] ;
735 -> 737 ;
738 [label="entropy = 0.0\nsamples = 4\nvalue = [0, 4, 0]\nclass = F", fillcolor="#39e581"] ;
734 -> 738 ;
739 [label="ShuckedWeight <= 0.123\nentropy = 1.361\nsamples = 10\nvalue = [5, 4, 1]\nclass = M", fillcolor="#fbeade"] ;
733 -> 739 ;
740 [label="ShuckedWeight <= 0.101\nentropy = 0.65\nsamples = 6\nvalue = [5, 1, 0]\nclass = M", fillcolor="#ea9a61"] ;
739 -> 740 ;
741 [label="WholeWeight <= 0.264\nentropy = 1.0\nsamples = 2\nvalue = [1, 1, 0]\nclass = M", fillcolor="#ffffff"] ;
740 -> 741 ;
742 [label="entropy = 0.0\nsamples = 1\nvalue = [0, 1, 0]\nclass = F", fillcolor="#39e581"] ;
741 -> 742 ;
743 [label="entropy = 0.0\nsamples = 1\nvalue = [1, 0, 0]\nclass = M", fillcolor="#e58139"] ;
741 -> 743 ;
744 [label="entropy = 0.0\nsamples = 4\nvalue = [4, 0, 0]\nclass = M", fillcolor="#e58139"] ;
740 -> 744 ;
745 [label="VisceraWeight <= 0.171\nentropy = 0.811\nsamples = 4\nvalue = [0, 3, 1]\nclass = F", fillcolor="#7beeab"] ;
739 -> 745 ;
746 [label="entropy = 0.0\nsamples = 3\nvalue = [0, 3, 0]\nclass = F", fillcolor="#39e581"] ;
745 -> 746 ;
747 [label="entropy = 0.0\nsamples = 1\nvalue = [0, 0, 1]\nclass = I", fillcolor="#8139e5"] ;
745 -> 747 ;
748 [label="WholeWeight <= 0.2\nentropy = 1.496\nsamples = 17\nvalue = [7, 3, 7]\nclass = M", fillcolor="#ffffff"] ;
732 -> 748 ;
749 [label="VisceraWeight <= 0.16\nentropy = 0.65\nsamples = 6\nvalue = [5, 0, 1]\nclass = M", fillcolor="#ea9a61"] ;
748 -> 749 ;
750 [label="entropy = 0.0\nsamples = 4\nvalue = [4, 0, 0]\nclass = M", fillcolor="#e58139"] ;
749 -> 750 ;
751 [label="VisceraWeight <= 0.167\nentropy = 1.0\nsamples = 2\nvalue = [1, 0, 1]\nclass = M", fillcolor="#ffffff"] ;
749 -> 751 ;
752 [label="entropy = 0.0\nsamples = 1\nvalue = [0, 0, 1]\nclass = I", fillcolor="#8139e5"] ;
751 -> 752 ;
753 [label="entropy = 0.0\nsamples = 1\nvalue = [1, 0, 0]\nclass = M", fillcolor="#e58139"] ;
751 -> 753 ;
754 [label="Type <= 0.502\nentropy = 1.435\nsamples = 11\nvalue = [2, 3, 6]\nclass = I", fillcolor="#d0b5f5"] ;
748 -> 754 ;
755 [label="WholeWeight <= 0.242\nentropy = 0.954\nsamples = 8\nvalue = [0, 3, 5]\nclass = I", fillcolor="#cdb0f5"] ;
754 -> 755 ;
756 [label="Height <= 0.508\nentropy = 0.65\nsamples = 6\nvalue = [0, 1, 5]\nclass = I", fillcolor="#9a61ea"] ;
755 -> 756 ;
757 [label="entropy = 0.0\nsamples = 1\nvalue = [0, 1, 0]\nclass = F", fillcolor="#39e581"] ;
756 -> 757 ;
758 [label="entropy = 0.0\nsamples = 5\nvalue = [0, 0, 5]\nclass = I", fillcolor="#8139e5"] ;
756 -> 758 ;
759 [label="entropy = 0.0\nsamples = 2\nvalue = [0, 2, 0]\nclass = F", fillcolor="#39e581"] ;
755 -> 759 ;
760 [label="Diameter <= 0.14\nentropy = 0.918\nsamples = 3\nvalue = [2, 0, 1]\nclass = M", fillcolor="#f2c09c"] ;
754 -> 760 ;
761 [label="entropy = 0.0\nsamples = 1\nvalue = [0, 0, 1]\nclass = I", fillcolor="#8139e5"] ;
760 -> 761 ;
762 [label="entropy = 0.0\nsamples = 2\nvalue = [2, 0, 0]\nclass = M", fillcolor="#e58139"] ;
760 -> 762 ;
763 [label="ShuckedWeight <= 0.141\nentropy = 1.341\nsamples = 57\nvalue = [26, 5, 26]\nclass = M", fillcolor="#ffffff"] ;
643 -> 763 ;
764 [label="Diameter <= 0.142\nentropy = 1.344\nsamples = 39\nvalue = [23, 5, 11]\nclass = M", fillcolor="#f4c9aa"] ;
763 -> 764 ;
765 [label="LongestShell <= 0.347\nentropy = 1.432\nsamples = 29\nvalue = [14, 4, 11]\nclass = M", fillcolor="#fbeade"] ;
764 -> 765 ;
766 [label="ShellWeight <= 10.5\nentropy = 0.918\nsamples = 3\nvalue = [0, 2, 1]\nclass = F", fillcolor="#9cf2c0"] ;
765 -> 766 ;
767 [label="entropy = 0.0\nsamples = 1\nvalue = [0, 0, 1]\nclass = I", fillcolor="#8139e5"] ;
766 -> 767 ;
768 [label="entropy = 0.0\nsamples = 2\nvalue = [0, 2, 0]\nclass = F", fillcolor="#39e581"] ;
766 -> 768 ;
769 [label="Diameter <= 0.138\nentropy = 1.296\nsamples = 26\nvalue = [14, 2, 10]\nclass = M", fillcolor="#f8e0ce"] ;
765 -> 769 ;
770 [label="Diameter <= 0.133\nentropy = 0.985\nsamples = 21\nvalue = [12, 0, 9]\nclass = M", fillcolor="#f8e0ce"] ;
769 -> 770 ;
771 [label="Type <= 0.483\nentropy = 0.896\nsamples = 16\nvalue = [11, 0, 5]\nclass = M", fillcolor="#f1ba93"] ;
770 -> 771 ;
772 [label="Height <= 0.562\nentropy = 0.985\nsamples = 7\nvalue = [3, 0, 4]\nclass = I", fillcolor="#e0cef8"] ;
771 -> 772 ;
773 [label="ShellWeight <= 10.5\nentropy = 0.971\nsamples = 5\nvalue = [3, 0, 2]\nclass = M", fillcolor="#f6d5bd"] ;
772 -> 773 ;
774 [label="entropy = 0.0\nsamples = 2\nvalue = [2, 0, 0]\nclass = M", fillcolor="#e58139"] ;
773 -> 774 ;
775 [label="ShellWeight <= 13.0\nentropy = 0.918\nsamples = 3\nvalue = [1, 0, 2]\nclass = I", fillcolor="#c09cf2"] ;
773 -> 775 ;
776 [label="entropy = 0.0\nsamples = 2\nvalue = [0, 0, 2]\nclass = I", fillcolor="#8139e5"] ;
775 -> 776 ;
777 [label="entropy = 0.0\nsamples = 1\nvalue = [1, 0, 0]\nclass = M", fillcolor="#e58139"] ;
775 -> 777 ;
778 [label="entropy = 0.0\nsamples = 2\nvalue = [0, 0, 2]\nclass = I", fillcolor="#8139e5"] ;
772 -> 778 ;
779 [label="Type <= 0.512\nentropy = 0.503\nsamples = 9\nvalue = [8, 0, 1]\nclass = M", fillcolor="#e89152"] ;
771 -> 779 ;
780 [label="entropy = 0.0\nsamples = 8\nvalue = [8, 0, 0]\nclass = M", fillcolor="#e58139"] ;
779 -> 780 ;
781 [label="entropy = 0.0\nsamples = 1\nvalue = [0, 0, 1]\nclass = I", fillcolor="#8139e5"] ;
779 -> 781 ;
782 [label="WholeWeight <= 0.216\nentropy = 0.722\nsamples = 5\nvalue = [1, 0, 4]\nclass = I", fillcolor="#a06aec"] ;
770 -> 782 ;
783 [label="entropy = 0.0\nsamples = 1\nvalue = [1, 0, 0]\nclass = M", fillcolor="#e58139"] ;
782 -> 783 ;
784 [label="entropy = 0.0\nsamples = 4\nvalue = [0, 0, 4]\nclass = I", fillcolor="#8139e5"] ;
782 -> 784 ;
785 [label="ShellWeight <= 10.5\nentropy = 1.522\nsamples = 5\nvalue = [2, 2, 1]\nclass = M", fillcolor="#ffffff"] ;
769 -> 785 ;
786 [label="entropy = 0.0\nsamples = 2\nvalue = [2, 0, 0]\nclass = M", fillcolor="#e58139"] ;
785 -> 786 ;
787 [label="Height <= 0.497\nentropy = 0.918\nsamples = 3\nvalue = [0, 2, 1]\nclass = F", fillcolor="#9cf2c0"] ;
785 -> 787 ;
788 [label="entropy = 0.0\nsamples = 1\nvalue = [0, 0, 1]\nclass = I", fillcolor="#8139e5"] ;
787 -> 788 ;
789 [label="entropy = 0.0\nsamples = 2\nvalue = [0, 2, 0]\nclass = F", fillcolor="#39e581"] ;
787 -> 789 ;
790 [label="Height <= 0.617\nentropy = 0.469\nsamples = 10\nvalue = [9, 1, 0]\nclass = M", fillcolor="#e88f4f"] ;
764 -> 790 ;
791 [label="entropy = 0.0\nsamples = 9\nvalue = [9, 0, 0]\nclass = M", fillcolor="#e58139"] ;
790 -> 791 ;
792 [label="entropy = 0.0\nsamples = 1\nvalue = [0, 1, 0]\nclass = F", fillcolor="#39e581"] ;
790 -> 792 ;
793 [label="Diameter <= 0.135\nentropy = 0.65\nsamples = 18\nvalue = [3, 0, 15]\nclass = I", fillcolor="#9a61ea"] ;
763 -> 793 ;
794 [label="Type <= 0.487\nentropy = 0.918\nsamples = 9\nvalue = [3, 0, 6]\nclass = I", fillcolor="#c09cf2"] ;
793 -> 794 ;
795 [label="entropy = 0.0\nsamples = 3\nvalue = [0, 0, 3]\nclass = I", fillcolor="#8139e5"] ;
794 -> 795 ;
796 [label="WholeWeight <= 0.255\nentropy = 1.0\nsamples = 6\nvalue = [3, 0, 3]\nclass = M", fillcolor="#ffffff"] ;
794 -> 796 ;
797 [label="entropy = 0.0\nsamples = 2\nvalue = [2, 0, 0]\nclass = M", fillcolor="#e58139"] ;
796 -> 797 ;
798 [label="Diameter <= 0.127\nentropy = 0.811\nsamples = 4\nvalue = [1, 0, 3]\nclass = I", fillcolor="#ab7bee"] ;
796 -> 798 ;
799 [label="entropy = 0.0\nsamples = 3\nvalue = [0, 0, 3]\nclass = I", fillcolor="#8139e5"] ;
798 -> 799 ;
800 [label="entropy = 0.0\nsamples = 1\nvalue = [1, 0, 0]\nclass = M", fillcolor="#e58139"] ;
798 -> 800 ;
801 [label="entropy = 0.0\nsamples = 9\nvalue = [0, 0, 9]\nclass = I", fillcolor="#8139e5"] ;
793 -> 801 ;
802 [label="Diameter <= 0.133\nentropy = 1.323\nsamples = 25\nvalue = [7, 15, 3]\nclass = F", fillcolor="#a7f3c7"] ;
642 -> 802 ;
803 [label="WholeWeight <= 0.293\nentropy = 1.0\nsamples = 12\nvalue = [6, 6, 0]\nclass = M", fillcolor="#ffffff"] ;
802 -> 803 ;
804 [label="Height <= 0.622\nentropy = 0.918\nsamples = 9\nvalue = [6, 3, 0]\nclass = M", fillcolor="#f2c09c"] ;
803 -> 804 ;
805 [label="ShuckedWeight <= 0.157\nentropy = 0.811\nsamples = 4\nvalue = [1, 3, 0]\nclass = F", fillcolor="#7beeab"] ;
804 -> 805 ;
806 [label="entropy = 0.0\nsamples = 3\nvalue = [0, 3, 0]\nclass = F", fillcolor="#39e581"] ;
805 -> 806 ;
807 [label="entropy = 0.0\nsamples = 1\nvalue = [1, 0, 0]\nclass = M", fillcolor="#e58139"] ;
805 -> 807 ;
808 [label="entropy = 0.0\nsamples = 5\nvalue = [5, 0, 0]\nclass = M", fillcolor="#e58139"] ;
804 -> 808 ;
809 [label="entropy = 0.0\nsamples = 3\nvalue = [0, 3, 0]\nclass = F", fillcolor="#39e581"] ;
803 -> 809 ;
810 [label="LongestShell <= 0.428\nentropy = 1.14\nsamples = 13\nvalue = [1, 9, 3]\nclass = F", fillcolor="#88efb3"] ;
802 -> 810 ;
811 [label="ShuckedWeight <= 0.156\nentropy = 0.811\nsamples = 12\nvalue = [0, 9, 3]\nclass = F", fillcolor="#7beeab"] ;
810 -> 811 ;
812 [label="entropy = 0.0\nsamples = 6\nvalue = [0, 6, 0]\nclass = F", fillcolor="#39e581"] ;
811 -> 812 ;
813 [label="VisceraWeight <= 0.186\nentropy = 1.0\nsamples = 6\nvalue = [0, 3, 3]\nclass = F", fillcolor="#ffffff"] ;
811 -> 813 ;
814 [label="entropy = 0.0\nsamples = 2\nvalue = [0, 0, 2]\nclass = I", fillcolor="#8139e5"] ;
813 -> 814 ;
815 [label="WholeWeight <= 0.28\nentropy = 0.811\nsamples = 4\nvalue = [0, 3, 1]\nclass = F", fillcolor="#7beeab"] ;
813 -> 815 ;
816 [label="entropy = 0.0\nsamples = 1\nvalue = [0, 0, 1]\nclass = I", fillcolor="#8139e5"] ;
815 -> 816 ;
817 [label="entropy = 0.0\nsamples = 3\nvalue = [0, 3, 0]\nclass = F", fillcolor="#39e581"] ;
815 -> 817 ;
818 [label="entropy = 0.0\nsamples = 1\nvalue = [1, 0, 0]\nclass = M", fillcolor="#e58139"] ;
810 -> 818 ;
819 [label="ShellWeight <= 15.5\nentropy = 1.428\nsamples = 141\nvalue = [71, 20, 50]\nclass = M", fillcolor="#f9e2d1"] ;
641 -> 819 ;
820 [label="WholeWeight <= 0.265\nentropy = 1.465\nsamples = 124\nvalue = [59, 20, 45]\nclass = M", fillcolor="#fae9dc"] ;
819 -> 820 ;
821 [label="Type <= 0.493\nentropy = 1.432\nsamples = 57\nvalue = [21, 8, 28]\nclass = I", fillcolor="#e7d9fa"] ;
820 -> 821 ;
822 [label="Type <= 0.463\nentropy = 1.122\nsamples = 16\nvalue = [11, 1, 4]\nclass = M", fillcolor="#f0b68c"] ;
821 -> 822 ;
823 [label="entropy = 0.0\nsamples = 2\nvalue = [0, 0, 2]\nclass = I", fillcolor="#8139e5"] ;
822 -> 823 ;
824 [label="VisceraWeight <= 0.253\nentropy = 0.946\nsamples = 14\nvalue = [11, 1, 2]\nclass = M", fillcolor="#eca06b"] ;
822 -> 824 ;
825 [label="ShuckedWeight <= 0.097\nentropy = 0.439\nsamples = 11\nvalue = [10, 0, 1]\nclass = M", fillcolor="#e88e4d"] ;
824 -> 825 ;
826 [label="entropy = 0.0\nsamples = 1\nvalue = [0, 0, 1]\nclass = I", fillcolor="#8139e5"] ;
825 -> 826 ;
827 [label="entropy = 0.0\nsamples = 10\nvalue = [10, 0, 0]\nclass = M", fillcolor="#e58139"] ;
825 -> 827 ;
828 [label="ShuckedWeight <= 0.142\nentropy = 1.585\nsamples = 3\nvalue = [1, 1, 1]\nclass = M", fillcolor="#ffffff"] ;
824 -> 828 ;
829 [label="entropy = 0.0\nsamples = 1\nvalue = [0, 1, 0]\nclass = F", fillcolor="#39e581"] ;
828 -> 829 ;
830 [label="ShuckedWeight <= 0.173\nentropy = 1.0\nsamples = 2\nvalue = [1, 0, 1]\nclass = M", fillcolor="#ffffff"] ;
828 -> 830 ;
831 [label="entropy = 0.0\nsamples = 1\nvalue = [0, 0, 1]\nclass = I", fillcolor="#8139e5"] ;
830 -> 831 ;
832 [label="entropy = 0.0\nsamples = 1\nvalue = [1, 0, 0]\nclass = M", fillcolor="#e58139"] ;
830 -> 832 ;
833 [label="ShuckedWeight <= 0.165\nentropy = 1.384\nsamples = 41\nvalue = [10, 7, 24]\nclass = I", fillcolor="#c6a6f3"] ;
821 -> 833 ;
834 [label="LongestShell <= 0.403\nentropy = 1.338\nsamples = 28\nvalue = [4, 7, 17]\nclass = I", fillcolor="#c3a1f3"] ;
833 -> 834 ;
835 [label="ShuckedWeight <= 0.156\nentropy = 1.42\nsamples = 13\nvalue = [4, 2, 7]\nclass = I", fillcolor="#d5bdf6"] ;
834 -> 835 ;
836 [label="Height <= 0.533\nentropy = 1.281\nsamples = 12\nvalue = [4, 1, 7]\nclass = I", fillcolor="#d0b5f5"] ;
835 -> 836 ;
837 [label="entropy = 0.0\nsamples = 1\nvalue = [0, 1, 0]\nclass = F", fillcolor="#39e581"] ;
836 -> 837 ;
838 [label="ShellWeight <= 11.5\nentropy = 0.946\nsamples = 11\nvalue = [4, 0, 7]\nclass = I", fillcolor="#c9aaf4"] ;
836 -> 838 ;
839 [label="entropy = 0.0\nsamples = 3\nvalue = [0, 0, 3]\nclass = I", fillcolor="#8139e5"] ;
838 -> 839 ;
840 [label="Height <= 0.632\nentropy = 1.0\nsamples = 8\nvalue = [4, 0, 4]\nclass = M", fillcolor="#ffffff"] ;
838 -> 840 ;
